tree
version=v4
num_class=1
num_tree_per_iteration=1
label_index=0
max_feature_idx=38
objective=binary sigmoid:1
feature_names=step customer zipcodeOri merchant zipMerchant amount age_1 age_2 age_3 age_4 age_5 age_6 age_U gender_F gender_M gender_U category_es_contents category_es_fashion category_es_food category_es_health category_es_home category_es_hotelservices category_es_hyper category_es_leisure category_es_otherservices category_es_sportsandtoys category_es_tech category_es_transportation category_es_travel category_es_wellnessandbeauty time_since_last_txn is_night_txn txn_count_1h txn_amount_sum_24h amount_zscore_24h pair_txn_count_sofar is_first_interaction cust_txn_count_sofar merch_txn_count_sofar
feature_infos=[0:179] [0:3274] none [0:49] none [0:7635.4099999999999] [0:1] [0:1] [0:1] [0:1] [0:1] [0:1] [0:1] [0:1] [0:1] none [0:1] [0:1] [0:1] [0:1] [0:1] [0:1] [0:1] [0:1] [0:1] [0:1] [0:1] [0:1] [0:1] [0:1] [0:399600] [0:1] [1:5] [0.13:24875.119999999999] none [0:161] [0:1] [1:263] [1:241490]
tree_sizes=6654 6697 6734 6708 6783 6738 6779 6776 6822 6811 6820 6801 6807 6782 6804 6788 6769 6786 6799 6818 6822 6827 6838 6811 6838 6838 6825 6803 6860 6829 6838 6821 6831 6841 6836 6844 6808 6817 6816 6847 6780 6809 6819 6799 6838 6815 6798 6807 6793 6839 6814 6799 6802 6821 6835 6821 6804 6804 6800 6886 6830 6832 6817 6856 6802 6785 6813 6791 6809 6837 6787 6821 6807 6796 6799 6788 6811 6846 6822 6814 6766 6830 6825 6766 6828 6785 6800 6795 6780 6821 6787 6815 6779 6799 6830 6783 6804 6810 6797 6771 6787 6802 6857 6789 6815 6794 6837 6829 6832 6848 6807 6789 6784 6767 6850 6836 6840 6837 6817 6779 6797 6804 6813 6788 6826 6814 6838 6780 6829 6817 6812 6881 6841 6791 6870 6871 6792 6890 6907 6883 6800 6780 6905 6790 6839 6839 6820 6939 6844 6792 6863 6809 6891 6893 6860 6856 6859 6839 6899 6946 6846 6844 6852 6876 6937 6914 6893 6841 6819 6782 6887 6790 6823 6792 6892 6831 6834 6910 6941 6884 6820 6936 6864 6845 6867 6821 6935 6844 6767 6877 6872 6810 6863 6787 6839 6782 6810 6850 6921 6901 6774 6921 6818 6838 6879 6888 6771 6885 6866 6820 6834 6899 6846 6792 6979 6890 6866 6803 6924 6828 6856 6917 6881 6810 6902 6851 6903 6890 6962 6946 6917 6896 6965 6907 6906 6794 6863 6910 6913 6919 6980 6917 6892 6843 6914 6840 6943 6980 6889 6901 6852 6917 6872 6911 6905 6891 6850 6836 6903 6848 6844 6966 6902 6939 6894 6950 6909 6963 6948 6900 6932 6909 6968 6950 6886 6944 6904 6906 6900 6959 6893 6950 6923 6967 6892 6899 6945 6857 6885 6906 6875 6871 6871 6974 6892 6793 6968 6963 6896 6909

Tree=0
num_leaves=63
num_cat=0
split_feature=5 3 3 5 33 5 33 27 33 23 22 19 33 38 33 3 26 20 3 3 3 37 0 33 33 35 30 30 33 28 5 20 19 3 0 26 1 35 3 33 30 33 38 5 37 5 3 3 32 30 30 38 5 33 21 5 38 1 37 3 35 0
split_gain=155758 17761 9284.87 5819.51 6357.06 3526.35 2501.89 2542.61 1804.94 1761.1 1721.96 1441.06 1235.66 950.649 1943.67 842.949 786.607 917.863 548.532 584.359 499.834 344.296 420.342 340.741 292.464 283.534 281.511 276.021 267.96 656.479 423.418 466.088 620.337 880.874 264.785 256.853 223.375 427.98 199.806 190.087 183.488 183.446 181.831 180.478 173.13 164.076 154.527 594.617 152.939 222.183 152.439 152.214 149.48 148.737 139.489 139.105 136.066 204.403 130.125 130.091 123.901 129.018
threshold=230.465 48.500000000000007 1.5000000000000002 128.08000000000001 1769.2650000000001 295.41000000000003 7295.8850000000011 1.0000000180025095e-35 1617.3250000000003 1.0000000180025095e-35 1.0000000180025095e-35 1.0000000180025095e-35 509.35500000000008 2105.5000000000005 1769.2650000000001 33.500000000000007 1.0000000180025095e-35 1.0000000180025095e-35 1.5000000000000002 3.5000000000000004 35.500000000000007 67.500000000000014 139.50000000000003 408.13500000000005 1370.7350000000004 1.0000000180025095e-35 12600.000000000002 5400.0000000000009 2016.9300000000001 1.0000000180025095e-35 405.03500000000003 1.0000000180025095e-35 1.0000000180025095e-35 33.500000000000007 14.500000000000002 1.0000000180025095e-35 387.50000000000006 4.5000000000000009 35.500000000000007 684.16500000000019 5400.0000000000009 1068.9200000000003 2820.5000000000005 143.88500000000002 55.500000000000007 191.25500000000002 33.500000000000007 35.500000000000007 1.5000000000000002 12600.000000000002 9000.0000000000018 1239.5000000000002 143.88500000000002 3326.2100000000005 1.0000000180025095e-35 65.675000000000026 196.50000000000003 2270.5000000000005 41.500000000000007 19.500000000000004 1.5000000000000002 27.500000000000004
decision_type=2 2 2 2 2 2 2 2 2 2 2 2 2 2 2 2 2 2 2 2 2 2 2 2 2 2 2 2 2 2 2 2 2 2 2 2 2 2 2 2 2 2 2 2 2 2 2 2 2 2 2 2 2 2 2 2 2 2 2 2 2 2
left_child=1 3 -2 6 9 8 13 42 11 10 18 16 -3 14 26 -13 17 -4 -5 43 23 22 24 -17 45 53 54 -14 29 30 31 32 35 -34 -16 -7 -36 51 -24 -35 -25 -28 60 -20 -33 50 -23 -48 49 -31 -21 -38 -12 58 -1 -29 57 -56 -6 -19 61 -8
right_child=2 12 5 4 25 28 7 -9 -10 -11 52 15 27 -15 34 20 -18 59 19 21 -22 46 38 40 -26 -27 41 55 -30 48 -32 44 33 39 36 -37 37 -39 -40 -41 -42 -43 -44 -45 -46 -47 47 -49 -50 -51 -52 -53 -54 -55 56 -57 -58 -59 -60 -61 -62 -63
leaf_value=-3.918450405220927 -3.9834230093620748 -2.2355509716614694 -0.88410837940482789 -3.9834230093620748 -1.7515971547712499 -0.39625654901021035 -0.51542293455930199 -3.9834230093620748 -0.50944362408548916 -0.34202293081914759 -2.162722970090611 -3.9834230093620748 -0.44213014947324947 -3.9818670555520539 -1.3223998750422434 -3.100659353957731 -3.4868684531971308 -3.9834230093620748 -3.437212997580636 -3.7261264768662277 -3.8793830071179913 -3.8437719996384727 -2.076022968220542 -0.5003446733644954 -2.2741944010664152 -0.88473159637121901 -3.7267412833954885 -2.2147429712126563 -0.36317848683101639 -2.6178979799084776 -0.37624661576785945 -1.4344429543820372 -3.9834230093620748 -1.7615517749969016 -3.6523866385854449 -1.9199629648544223 -2.7919354836623675 -1.091722946989754 -3.4041093605029733 -0.59030020890162183 -1.951013663198583 -2.7453469826574795 -2.5268629779449059 -1.6661684139256687 -3.4868684531971312 -3.2031229925314477 -1.8283086771631996 -3.829869994001831 -0.52409293474630214 -1.0500729460913871 -3.2878746797527518 -3.6001177379365039 -0.50386293430994877 -1.3246229520132728 -3.5306064192841982 -0.99049143795693118 -3.9834230093620748 -2.0226691209158867 -3.2831537634884365 -2.4385866124044719 -0.71549986195175741 -1.9604229657271166
leaf_weight=333.98692152276635 4.6905035600066176 3.8446750491857511 5.94002295099199 16.993463717401028 0.59592463262379103 9.0349863655865121 0.40369088016450483 3.6908880472183219 5.0173009391874066 0.82660513557493587 0.38446750491857418 2.2683582790195942 5.5940021965652704 5083.6984772868454 0.49980775639414687 0.63437138311565 0.84582851082086552 0.46136100590229012 0.38446750491857429 16.051518330350532 0.67281813360750664 20.049980381503705 1.6147635206580155 0.88427526131272294 0.94194538705050845 3.998462051153183 32.179930161684752 0.67281813360750709 26.470587713643909 1.2302960157394403 20.453671261668205 0.38446750491857606 0.61514800786972168 1.1341791395097973 1.9031141493469457 0.57670125737786371 5.2287580668926239 0.65359475836157788 0.84582851082086552 1.691657021641731 0.82660513557493687 0.96116876229643722 0.57670125737786282 1.0572856385260818 0.42291425541043282 5.9207995757460585 0.94194538705050845 3.1910802908241749 0.38446750491857518 0.69204150885343541 5.1326411906629792 1.4609765186905859 0.8650518860667944 1.2110726404935119 3.7101114224642506 1.4033063929527996 2.7681660354137421 0.49980775639414776 0.49980775639414787 0.63437138311564922 1.4994232691824434 1.2110726404935119
leaf_count=17374 244 200 309 884 31 470 21 192 261 43 20 118 291 264454 26 33 44 24 20 835 35 1043 84 46 49 208 1674 35 1377 64 1064 20 32 59 99 30 272 34 44 88 43 50 30 55 22 308 49 166 20 36 267 76 45 63 193 73 144 26 26 33 78 63
internal_value=-3.91202 -3.95768 -0.955166 -3.96337 -3.37624 -0.780403 -3.97211 -2.68428 -1.63922 -3.55524 -3.59095 -2.06969 -1.21134 -3.97385 -3.86762 -2.96383 -1.46997 -1.2275 -3.63498 -3.5295 -2.19751 -3.56617 -3.40979 -1.71501 -3.48676 -1.24127 -3.89305 -0.697949 -0.532858 -0.655508 -0.578663 -0.877374 -0.776417 -1.58295 -2.89172 -0.487679 -2.97655 -2.8014 -2.53255 -1.06039 -1.20123 -3.69828 -1.38513 -2.13845 -2.50952 -3.52889 -3.76343 -3.3737 -1.79858 -2.05348 -3.61994 -2.96844 -1.01428 -1.85927 -3.91198 -1.38724 -3.60223 -3.35158 -2.4502 -3.08904 -1.1737 -1.59917
internal_weight=5653.92 5567.95 85.9669 5556.44 81.5071 81.2764 5474.93 7.38178 18.1853 75.2018 74.3752 13.168 11.5148 5467.55 383.852 5.28643 7.88158 7.03576 73.1257 56.1323 3.01807 54.6905 30.5075 2.34525 28.0469 6.30527 374.106 7.67013 63.0911 36.6205 34.3137 13.8601 13.0527 3.44098 9.74625 9.61169 9.24644 7.34333 2.46059 2.82584 1.71088 33.1411 3.69089 1.44175 0.807382 27.105 24.183 4.13303 2.30681 1.92234 21.1842 6.68973 1.24952 2.30681 340.965 2.07612 6.97809 4.20992 1.09573 1.09573 3.11419 1.61476
internal_count=294117 289645 4472 289046 4240 4228 284806 384 946 3912 3869 685 599 284422 19968 275 410 366 3804 2920 157 2845 1587 122 1459 328 19461 399 3282 1905 1785 721 679 179 507 500 481 382 128 147 89 1724 192 75 42 1410 1258 215 120 100 1102 348 65 120 17737 108 363 219 57 57 162 84
is_linear=0
shrinkage=1


Tree=1
num_leaves=63
num_cat=0
split_feature=5 38 33 3 25 19 3 21 33 33 30 30 1 37 30 5 3 3 3 33 30 38 3 3 0 33 38 3 29 5 0 38 5 17 3 3 38 33 37 0 17 30 3 3 38 0 37 22 32 33 33 1 33 3 30 5 1 1 33 1 1 38
split_gain=10836.8 1160.97 450.263 375.541 225.041 132.709 444.065 100.761 83.7639 421.616 306.567 72.957 58.6583 57.607 57.5972 57.2488 49.9679 46.0108 529.318 677.599 519.725 67.5624 55.6703 73.7052 103.565 63.2694 48.2169 83.1246 61.9253 47.8844 76.6641 45.9019 45.1944 47.1974 106.298 45.0204 66.1655 55.2918 75.5062 43.6075 42.9516 52.7933 42.0895 63.3069 41.0664 38.783 38.6507 38.4817 212.848 92.584 37.7687 37.0991 35.4789 42.5439 35.1082 34.5181 46.927 44.1603 58.0638 33.802 49.501 32.7721
threshold=97.595000000000013 1499.5000000000002 1180.9750000000001 1.5000000000000002 1.0000000180025095e-35 1.0000000180025095e-35 33.500000000000007 1.0000000180025095e-35 2410.6550000000007 509.35500000000008 9000.0000000000018 12600.000000000002 224.50000000000003 104.50000000000001 16200.000000000002 143.88500000000002 12.500000000000002 31.500000000000004 35.500000000000007 494.72500000000008 9000.0000000000018 563.50000000000011 2.5000000000000004 1.5000000000000002 95.500000000000014 781.73500000000013 110.50000000000001 25.500000000000004 1.0000000180025095e-35 18.235000000000003 45.500000000000007 151.50000000000003 295.41000000000003 1.0000000180025095e-35 36.500000000000007 16.500000000000004 151.50000000000003 209.95500000000001 34.500000000000007 126.50000000000001 1.0000000180025095e-35 5400.0000000000009 5.5000000000000009 28.500000000000004 4976.5000000000009 117.50000000000001 60.500000000000007 1.0000000180025095e-35 1.5000000000000002 2016.9300000000001 278.11500000000007 590.50000000000011 959.30500000000018 2.5000000000000004 1.0000000180025095e-35 128.08000000000001 1350.5000000000002 2114.5000000000005 959.30500000000018 1593.5000000000002 2614.5000000000005 3539.5000000000005
decision_type=2 2 2 2 2 2 2 2 2 2 2 2 2 2 2 2 2 2 2 2 2 2 2 2 2 2 2 2 2 2 2 2 2 2 2 2 2 2 2 2 2 2 2 2 2 2 2 2 2 2 2 2 2 2 2 2 2 2 2 2 2 2
left_child=1 2 4 -2 7 14 -7 12 9 -8 -11 31 -1 32 47 -15 -6 22 19 29 21 -21 23 -14 25 -25 27 28 -24 30 -19 42 33 44 -35 36 37 -18 -39 -16 41 51 -9 -44 45 46 -5 -3 49 -49 54 -4 53 -48 -26 56 -47 58 -58 -52 -61 -41
right_child=3 5 40 13 16 6 8 11 -10 10 -12 -13 17 15 39 -17 35 18 -20 20 -22 -23 26 24 50 -27 -28 -29 -30 -31 -32 -33 -34 34 -36 -37 -38 38 -40 61 -42 -43 43 -45 -46 55 52 48 -50 -51 59 -53 -54 -55 -56 -57 57 -59 -60 60 -62 -63
leaf_value=-0.059500786028150579 -0.072555192061544496 -0.070853651159948655 0.081909574706234861 0.21086308471400572 -0.00029366832201643329 -0.071384856776985722 0.21912043965602365 -0.072050103743819871 0.24047743831081961 2.3937734691245161 0.53348846626943869 0.86017715886118962 -0.071391028716495719 0.041322654255026466 0.062780544042032968 0.15674174100085075 0.22141999049130071 0.079755252270213656 -0.0076049542903936871 2.371248622841255 0.39167096660782763 3.5925684486201304 -0.049073257251653436 0.0060394248290212976 -0.071391028716495594 0.87574938190390439 -0.040499039878606716 1.1607707583613758 0.59868763848940698 0.13317380772446274 1.3734460604403498 -0.014791371464794398 0.17299487457632631 -0.075834023475717202 0.30108116254216022 0.1945580604862181 0.16195853900254828 1.7201971148092907 0.4421477477638337 0.91785556513664357 0.026837098594294128 0.36657318689506707 0.81842964769930526 0.18729380783483332 -0.071314169149180651 0.18964865070399384 0.48933044796648473 -0.045361248065720658 1.1987285620825916 0.55255455332081449 0.49085841392331508 0.23343205967477038 0.18669197366884879 0.039866588239629741 0.64797813708619079 0.23639146734085223 1.1998192583559535 0.38578469933273474 0.33648724963852122 1.6733515795390399 0.58872418602602195 0.098020480698074466
leaf_weight=76.464060697704554 30.104637498036027 4727.9615356158465 9.7098765429109317 216.02829786203802 5.9072975665330878 35.471093639731407 3.8544418942183238 0.99519114196300318 5.3474752679467201 0.93537778779864289 0.80992873199284077 0.82630249857902516 6.1709199491888258 24.642755324020982 5.2155022397637358 144.73645151779056 0.47789367102086833 0.46263648755848308 49.341173091903329 0.40120532177388646 0.60433554649353027 0.49673039838671684 3.1334908008575431 5.4196042716503143 0.6495705209672451 0.44339732825756062 95.043786872178316 0.39762577787041653 0.94012772664427746 3.4186327904462814 0.43596995249390602 3.6044405326247215 657.01214797608554 8.7438275590538961 6.3137903809547415 27.480509450659156 1.4988258667290209 0.50780084729194641 0.40890098549425602 0.56605704873800267 5.1964581292122594 12.296060290187595 1.3305088654160502 1.8779062293469904 2.5471538454294196 3.8129378445446473 1.0964199043810392 32.354410151019692 0.71484876237809558 1.3207740262150753 0.87140332907438256 42.901142040267587 33.668083075433969 17.539894292131066 0.68088975176215194 74.368424909189343 0.87975236214697339 4.0170961022377014 0.67429480329155922 0.40120532177388668 0.42415816895663738 0.41340363770723343
leaf_count=3981 1585 262763 271 3051 309 1935 196 36 37 41 40 36 323 1049 276 1258 23 22 2508 21 27 26 162 273 34 22 4868 19 48 159 20 153 2842 339 124 247 71 23 21 29 112 185 29 57 141 101 11 1778 23 36 44 492 376 562 30 663 34 92 17 21 22 23
internal_value=-0.0154875 -0.0598128 0.061223 0.171626 0.0228716 -0.068893 0.0488946 -0.00035082 0.438623 0.627842 1.53049 0.23469 -0.00859378 0.177772 -0.0700395 0.13995 0.185983 0.0143391 0.0668648 0.698263 1.97873 3.04687 -0.0109485 0.114475 0.243489 0.0718124 -0.0299307 0.194716 0.10042 0.252697 0.707405 0.168497 0.184012 0.20359 0.0822098 0.222211 0.48485 0.831874 1.15011 0.143264 0.220484 0.235987 0.32566 0.449022 0.208744 0.21077 0.197791 -0.070317 0.00346242 -0.0219104 0.575984 0.205467 0.143799 0.0663096 0.296761 0.252355 0.378864 0.508364 0.825223 0.794927 1.11596 0.571826
internal_weight=6402.37 5176.18 361.22 1226.19 291.117 4814.96 46.4183 254.835 10.9472 5.59975 1.74531 8.63435 246.201 1196.08 4768.55 169.379 36.2812 169.737 55.1607 5.81951 1.50227 0.897936 114.576 15.0611 8.89023 5.863 99.515 4.47124 4.07362 4.31724 0.898606 7.80805 1026.7 369.69 15.0576 30.3739 2.89342 1.3946 0.916702 6.19496 70.1035 64.9071 4.20361 3.20842 354.632 352.085 268.333 4762.35 34.39 33.6752 3.02723 52.611 52.3044 18.6363 1.33046 83.7525 9.38408 5.57114 1.55405 1.69677 0.825363 0.979461
internal_count=294117 281872 14695 12245 13635 267177 2249 12941 314 277 81 311 12630 10660 264928 2307 694 8649 2783 275 74 47 5866 769 446 295 5097 229 210 201 42 275 8353 5511 463 385 138 67 44 328 1060 948 122 86 5048 4907 4000 264600 1837 1814 151 763 949 573 64 907 244 143 51 87 43 52
is_linear=0
shrinkage=0.07


Tree=2
num_leaves=63
num_cat=0
split_feature=5 38 33 3 25 30 38 33 30 38 21 3 3 17 37 17 3 1 17 30 3 3 33 29 3 37 13 0 37 37 3 3 20 3 1 38 1 33 38 21 33 0 24 0 30 0 38 5 5 30 30 37 0 0 5 3 3 21 24 3 33 33
split_gain=9238.79 1025.08 394.721 293.262 186.805 98.164 46.7552 155.865 46.4419 46.2807 44.1556 42.257 200.406 52.6458 111.092 40.6436 108.528 37.3701 33.7114 33.5806 50.5582 34.8922 62.4275 33.3462 88.454 85.8064 43.5743 41.195 32.6571 31.4474 35.5615 105.227 35.0879 31.1909 28.573 55.2402 25.0705 35.6451 24.2266 23.8109 23.7491 26.1577 23.4251 22.2548 21.4567 27.5809 20.6921 20.0409 32.0166 22.4516 19.0941 20.278 17.7926 20.7278 17.0597 47.0004 104.489 152.835 145.692 99.1521 71.3205 66.0804
threshold=97.595000000000013 2105.5000000000005 1207.0350000000003 1.5000000000000002 1.0000000180025095e-35 12600.000000000002 4976.5000000000009 2016.9300000000001 9000.0000000000018 4976.5000000000009 1.0000000180025095e-35 33.500000000000007 35.500000000000007 1.0000000180025095e-35 12.500000000000002 1.0000000180025095e-35 36.500000000000007 250.50000000000003 1.0000000180025095e-35 1.0000000180025095e-35 33.500000000000007 10.500000000000002 191.58500000000001 1.0000000180025095e-35 23.500000000000004 65.500000000000014 1.0000000180025095e-35 141.50000000000003 11.500000000000002 118.50000000000001 24.500000000000004 22.500000000000004 1.0000000180025095e-35 12.500000000000002 466.50000000000006 70.500000000000014 1410.5000000000002 4879.6950000000006 151.50000000000003 1.0000000180025095e-35 694.75500000000011 74.500000000000014 1.0000000180025095e-35 10.500000000000002 1.0000000180025095e-35 95.500000000000014 3033.5000000000005 85.840000000000018 91.240000000000023 55800.000000000007 9000.0000000000018 11.500000000000002 16.500000000000004 154.50000000000003 230.465 16.500000000000004 24.500000000000004 1.0000000180025095e-35 1.0000000180025095e-35 12.500000000000002 1617.3250000000003 435.57000000000011
decision_type=2 2 2 2 2 2 2 2 2 2 2 2 2 2 2 2 2 2 2 2 2 2 2 2 2 2 2 2 2 2 2 2 2 2 2 2 2 2 2 2 2 2 2 2 2 2 2 2 2 2 2 2 2 2 2 2 2 2 2 2 2 2
left_child=1 2 4 -2 5 10 7 8 19 15 11 23 17 -14 -15 29 -17 -13 34 20 21 22 -3 42 25 44 27 -27 -22 54 31 32 -31 -6 -4 -36 -9 46 -12 40 47 -42 -1 -35 -25 -46 -38 -7 49 -49 -37 -52 -10 -54 55 59 57 58 -57 -5 61 -61
right_child=3 6 18 9 33 39 -8 36 52 -11 38 12 13 14 -16 16 -18 -19 -20 -21 28 -23 -24 24 -26 26 -28 -29 -30 30 -32 -33 -34 43 35 50 37 -39 -40 -41 41 -43 -44 -45 45 -47 -48 48 -50 -51 51 -53 53 -55 -56 56 -58 -59 -60 60 -62 -63
leaf_value=-0.06638692280062225 -0.072416324087126213 -0.071216055915864579 0.084753116653698446 0.19456458793694126 -0.0002731967251155284 0.052223966774086507 -0.071216894403216532 -0.07121622535575417 0.45482769528181444 -0.07128943978241585 0.21824801485177153 0.77560749095909942 -0.04070974919435668 0.042442784083027339 1.4169629608049432 -0.074574567041471959 0.19615752811332945 0.23345054258183678 0.014059047354081141 -0.063884903614492769 0.1005050662784451 -0.063447641705797878 1.1205284777686941 -0.0070519790888176484 -0.058045793784944719 0.43335173196873011 0.26198354235734622 1.2552836954841113 0.57290266886452468 0.18254051615437072 0.15267799145995806 -0.078829896059513432 -0.077032579645126761 0.36919161371040765 0.57389262154462828 0.1794753629966121 0.90263055213929355 0.23966160796872193 -0.014313583262570276 0.34595440928636523 0.53783871623170665 0.11352312305328568 0.17603455869882456 0.15779596095115736 0.079096407546504807 0.47927077167311971 0.38055908293885499 0.80676682911583431 0.028980488834014856 0.19096343598916979 0.12304954673087287 0.36542700320608096 0.046340531136632987 0.45329252353260846 0.15761656668910679 -0.073668524177594091 0.18421476628389255 0.55745226358619748 0.27760639637840534 0.29535576992117962 0.22740492518716546 0.81901046390294108
leaf_weight=139.62186685204506 28.121304014697671 0.55387278087437053 11.504618609324096 52.430708641186357 5.9056308716535559 28.719861390069131 4229.3323483224958 0.85610106401145358 0.66509820893406768 4.3692302759736767 5.6775903105735761 0.65424918942153354 73.098855616524816 1.2300100699067105 0.37625998258590687 13.084306027740242 16.286191353574395 13.032174712046979 5.9365542009472838 177.52625026367605 1.6149398479610675 9.0111497696489078 0.35242457315325737 8.6503258403390646 36.907239224761724 0.68990642949938707 2.0802718978375196 0.52705397829413414 1.2897295616567133 23.865841584280137 77.036062801256776 14.613926624879239 2.8572206124663344 2.6345584373921147 1.9222364034503687 59.090698022395372 0.71656739339232423 4.7971206232905388 3.5781611744314432 1.8336083739995945 1.1464115083217614 1.8782592732459304 1.9808556251227845 33.078777186572552 3.2526736892759809 1.139611307531595 0.77360695600509644 0.63728397898375899 1.3839720450341702 0.53252715617418289 2.3995717093348485 5.7307088822126389 7.7165266852825862 0.66623459011316288 841.40666281990707 24.600791975855827 173.15765602514148 2.6979192551225415 7.5644175857305518 1.896766472607849 4.080361744388938 3.1282698083668947
leaf_count=7647 1585 33 288 944 309 1152 251912 51 35 247 122 15 3938 65 20 563 162 164 138 10427 74 537 21 403 2029 22 56 19 22 227 572 582 103 34 28 637 28 61 154 36 37 62 108 354 164 38 34 25 54 22 30 61 378 28 3734 900 2298 32 147 53 25 71
internal_value=-0.0153927 -0.0593464 0.0404956 0.15116 0.00902985 -0.00866466 -0.0696288 -0.0371082 -0.0486179 0.156138 -0.0221111 -0.0270276 0.0131158 -0.0319989 0.364417 0.156927 0.0755487 0.259367 0.175048 -0.0559833 0.0534171 -0.0218079 0.392208 -0.0452382 0.0019854 0.137579 0.456617 0.789323 0.310259 0.158872 0.124573 0.0721961 0.154787 0.148748 0.186898 0.203894 0.284167 0.332557 0.128343 0.100187 0.0870485 0.274347 -0.0629957 0.173391 0.0569254 0.182925 0.631603 0.0689336 0.256851 0.526438 0.193314 0.293892 0.106334 0.0786838 0.162526 0.177852 0.161954 0.0513892 0.00894217 0.231593 0.444813 0.62135
internal_weight=6183.9 4892.7 456.832 1291.2 370.248 328.629 4435.87 206.54 199.396 1263.08 292.497 283.241 88.3915 74.7051 1.60627 1258.71 29.3705 13.6864 86.5844 190.348 12.8221 9.91745 0.906297 194.85 53.2471 16.3398 3.29723 1.21696 2.90467 1229.34 118.373 41.337 26.7231 41.619 80.6478 69.1432 7.1434 6.28729 9.25575 36.1319 34.2983 3.02467 141.603 35.7133 13.0426 4.39228 1.49017 31.2736 2.55378 1.16981 67.221 8.13028 9.04786 8.38276 1110.96 269.557 208.021 34.8631 32.1652 61.5361 9.1054 5.02504
internal_count=294117 281872 18231 12245 17049 16352 263641 11729 11555 10660 14964 14688 4202 4023 85 10413 725 179 1182 11114 687 591 54 10486 2731 702 97 41 96 9688 1484 912 330 697 1044 756 174 123 276 1388 1352 99 7755 388 605 202 62 1253 101 47 728 91 441 406 8204 4470 3377 1079 1047 1093 149 124
is_linear=0
shrinkage=0.07


Tree=3
num_leaves=63
num_cat=0
split_feature=5 38 33 3 25 30 5 33 21 3 3 22 33 3 29 3 37 1 32 17 3 3 1 3 33 3 30 25 3 1 30 0 3 30 13 0 38 5 24 37 3 19 3 17 1 33 30 38 0 33 0 5 33 37 37 37 3 3 33 30 38 1
split_gain=7995.88 889.546 309.483 246.052 172.34 83.8997 76.0387 112.173 42.515 41.5003 157.82 40.9432 39.2691 34.0973 30.6774 72.8678 43.8379 42.6611 28.9648 28.7753 27.2494 29.7206 26.6624 25.3293 25.1721 45.2567 24.7213 24.7144 23.7531 23.7386 23.7281 40.9047 23.5667 22.1426 21.6288 21.4139 20.9729 20.6048 20.459 19.9497 25.5736 58.7229 19.7139 19.5158 18.7776 18.3234 22.9042 17.4717 17.1284 16.8485 16.0541 15.9662 15.7572 26.3991 15.1862 17.7299 14.5363 21.2665 19.6045 22.1326 14.7201 36.4762
threshold=91.240000000000023 2446.5000000000005 1370.7350000000004 1.5000000000000002 1.0000000180025095e-35 12600.000000000002 115.88000000000001 1273.0700000000002 1.0000000180025095e-35 31.500000000000004 35.500000000000007 1.0000000180025095e-35 2016.9300000000001 43.500000000000007 1.0000000180025095e-35 23.500000000000004 37.500000000000007 767.50000000000011 1.5000000000000002 1.0000000180025095e-35 32.500000000000007 5.5000000000000009 767.50000000000011 35.500000000000007 3326.2100000000005 33.500000000000007 5400.0000000000009 1.0000000180025095e-35 12.500000000000002 2203.5000000000005 5400.0000000000009 97.500000000000014 10.500000000000002 16200.000000000002 1.0000000180025095e-35 49.500000000000007 418.50000000000006 62.535000000000004 1.0000000180025095e-35 118.50000000000001 33.500000000000007 1.0000000180025095e-35 32.500000000000007 1.0000000180025095e-35 708.50000000000011 601.84500000000014 63000.000000000007 418.50000000000006 32.500000000000007 790.12500000000011 143.50000000000003 38.715000000000011 594.80500000000018 26.500000000000004 10.500000000000002 13.500000000000002 15.500000000000002 9.5000000000000018 328.30000000000001 23400.000000000004 418.50000000000006 1476.5000000000002
decision_type=2 2 2 2 2 2 2 2 2 2 2 2 2 2 2 2 2 2 2 2 2 2 2 2 2 2 2 2 2 2 2 2 2 2 2 2 2 2 2 2 2 2 2 2 2 2 2 2 2 2 2 2 2 2 2 2 2 2 2 2 2 2
left_child=1 2 4 -2 5 8 7 26 9 14 35 33 18 20 38 16 -16 -18 -13 -12 21 -10 36 24 25 32 27 -5 -6 -23 31 -21 -9 -3 -28 51 -4 52 -1 -8 41 42 43 -41 -37 46 -36 -34 -38 -19 -35 -11 -7 -54 -24 -56 57 -39 60 -60 -58 -62
right_child=3 11 22 6 28 37 39 23 13 10 19 12 -14 -15 15 -17 17 49 -20 30 -22 29 54 -25 -26 -27 34 -29 -30 -31 -32 -33 47 50 45 44 48 56 -40 40 -42 -43 -44 -45 -46 -47 -48 -49 -50 -51 -52 -53 53 -55 55 -57 58 -59 59 -61 61 -63
leaf_value=-0.066863371653970369 -0.0722213302825227 -0.070631117691260875 0.13640335275522314 -0.0070368915086891741 0.0032485859753208506 0.029046811686149646 0.14541046726210072 0.58885048676643093 -0.072003887668037822 0.1849668802552687 -0.041500837239351183 -0.029662412048911995 0.25191268710539721 0.5702608167453701 0.025841507104739002 -0.057127447488702618 0.6280876742063487 0.092071715589530298 0.36414780184968282 0.07288508714285008 -0.07218322002563568 0.46610594941733635 0.072540222776964647 0.14424937397905024 0.21128026075245462 0.83052786517438015 0.019656713272537877 0.12178459428381978 0.15758041386455116 0.12622399433023984 -0.074027195543917804 0.7928168997405346 0.40222505558458221 0.04209400384135193 0.32047004291446524 0.41642423383140342 0.17304246109055382 0.26916046702293289 0.14557997854775465 0.13579272830927386 0.14443480984882881 -0.081215909661621316 -0.091719462851650294 -0.074284413382762995 0.20284748579845277 0.034711545477953611 0.012731398361645848 -0.012334989187245167 -0.064287966993075527 0.34757084867166044 0.46154070338466674 -0.075222026884651308 0.28252303287554414 -0.038944608148163633 0.35437751202354251 0.17733052224219747 -0.0040419718998186138 -0.072271127505105823 0.61160799844860969 0.20232467097249607 0.64500946252595182 0.060345841104958768
leaf_weight=143.71028474159539 27.839884072542191 4075.8144902791828 14.399295074865224 46.284143677912652 5.6261976640671483 24.156830733641986 1126.881819145754 0.94006449915468904 1.6914587914943657 2.5915369540452984 75.159377371892333 23.539040952920921 3.0523132272064677 0.75454781204462129 11.461080910637977 39.670854870229959 1.1964915171265591 4.1420367304235697 0.95217026770114799 0.96595800481736593 3.5308771878480911 1.8096283450722692 6.379815785214304 9.3511119037866575 5.7541770953685045 1.0661660302430389 7.2189754024147996 8.6633540373295528 37.172050766646862 2.2700027972459793 0.99238967895507801 0.64488419145345688 0.87078937329351935 3.0776506196707483 4.9179219081997871 2.4898399189114562 1.9845198765397061 1.4308242704719289 2.25610009394586 38.598788216710091 64.884706009179354 9.2640703842043859 2.186829036101698 2.2956998758018008 10.623750094324349 2.9039314612746239 1.561310041695833 1.1640564464032648 5.9805633779615164 1.8205258604139087 0.5231230854988097 2.0857104621827602 3.336515622213482 2.0032778289169073 2.9220769032835952 53.809684606269002 2.0201669465750456 2.3820621613413095 1.1239434890449049 1.5269822124391792 0.78034332580864463 1.584692809730768
leaf_count=8446 1682 259792 194 2192 293 899 7406 15 67 52 4228 1383 38 11 525 2323 30 94 12 44 141 28 65 70 43 16 201 111 377 16 28 10 17 145 131 20 21 42 103 407 390 354 43 103 79 76 41 50 178 38 15 58 83 56 26 494 61 92 31 48 25 58
internal_value=-0.015137 -0.0593799 0.0309469 0.133745 0.00469259 -0.0115119 0.13804 0.0761617 -0.0238749 -0.0286237 0.00945362 -0.0699035 0.015155 0.117698 -0.0464365 -0.00350818 0.11073 0.246629 -0.0143518 -0.0335761 0.0809878 0.174701 0.151662 0.226652 0.305319 0.439223 0.0358911 0.0132739 0.137292 0.276988 0.195225 0.361102 0.298985 -0.0704778 0.110746 0.197534 0.0859867 0.0834396 -0.0635798 0.142551 0.115069 0.0786685 0.11305 0.124 0.243399 0.180826 0.246314 0.165071 -0.00515651 0.170082 0.103032 0.0689416 0.0531011 0.161921 0.174935 0.18645 0.165925 0.0558545 0.225572 0.375853 0.134724 0.253256
internal_weight=5948.09 4585.45 478.487 1362.65 393.011 350.213 1334.81 90.696 309.867 299.811 95.5534 4106.96 27.5435 10.0565 204.257 58.291 18.6201 7.15905 24.4912 77.7626 9.30197 5.77109 85.476 19.1464 9.79525 4.04108 71.5496 54.9475 42.7982 4.07963 2.60323 1.61084 2.97491 4079.42 16.6021 17.7908 22.3644 40.3456 145.966 1244.11 117.23 52.3454 43.0813 40.8945 13.1136 9.38316 6.47923 2.03485 7.96508 5.96256 3.60077 4.67725 29.4966 5.33979 63.1116 56.7318 10.849 3.81289 7.03613 2.65093 4.3852 2.36504
internal_count=294117 280769 19384 13348 18406 17736 11666 2963 16341 16078 4519 261385 1433 263 11559 3010 687 162 1395 4310 252 111 978 211 141 98 2752 2303 670 44 82 54 82 259952 449 209 393 1395 8549 8703 1297 907 553 510 99 248 172 67 199 132 160 110 1038 139 585 520 357 134 223 79 144 83
is_linear=0
shrinkage=0.07


Tree=4
num_leaves=63
num_cat=0
split_feature=5 38 33 3 25 5 33 30 3 3 30 33 30 5 3 22 21 19 3 3 3 18 19 20 33 17 27 38 30 20 30 3 3 33 3 5 30 32 33 3 17 30 3 30 24 33 37 37 29 32 0 1 5 13 37 3 18 33 3 3 17 23
split_gain=6994.34 837.22 252.078 202.854 125.599 70.9837 73.8472 66.3147 52.4011 83.2746 139.428 75.6621 56.9559 47.5684 41.3269 39.6306 34.758 32.6865 74.0214 36.8152 36.7263 29.9121 35.144 29.3756 29.0055 27.8867 29.5378 24.807 23.9654 44.9581 23.5281 23.4495 23.3271 40.1938 27.1355 20.8698 50.4834 20.8617 26.1217 32.7131 71.6234 19.7828 19.3296 19.2921 18.9865 18.5707 18.9196 24.7056 18.439 28.2047 17.9806 17.9527 16.7193 16.6036 18.9484 16.5585 16.5166 16.1612 15.2649 15.2157 15.1405 13.6381
threshold=91.240000000000023 2446.5000000000005 1068.9200000000003 1.5000000000000002 1.0000000180025095e-35 164.72500000000002 1313.4000000000003 12600.000000000002 33.500000000000007 34.500000000000007 5400.0000000000009 209.95500000000001 12600.000000000002 128.08000000000001 22.500000000000004 1.0000000180025095e-35 1.0000000180025095e-35 1.0000000180025095e-35 33.500000000000007 3.5000000000000004 35.500000000000007 1.0000000180025095e-35 1.0000000180025095e-35 1.0000000180025095e-35 2016.9300000000001 1.0000000180025095e-35 1.0000000180025095e-35 360.50000000000006 1.0000000180025095e-35 1.0000000180025095e-35 23400.000000000004 9.5000000000000018 20.500000000000004 685.93500000000017 3.5000000000000004 128.08000000000001 1.0000000180025095e-35 1.5000000000000002 882.84500000000014 15.500000000000002 1.0000000180025095e-35 16200.000000000002 12.500000000000002 1.0000000180025095e-35 1.0000000180025095e-35 226.93500000000003 10.500000000000002 5.5000000000000009 1.0000000180025095e-35 1.5000000000000002 120.50000000000001 3148.5000000000005 128.08000000000001 1.0000000180025095e-35 6.5000000000000009 44.500000000000007 1.0000000180025095e-35 191.58500000000001 42.500000000000007 1.5000000000000002 1.0000000180025095e-35 1.0000000180025095e-35
decision_type=2 2 2 2 2 2 2 2 2 2 2 2 2 2 2 2 2 2 2 2 2 2 2 2 2 2 2 2 2 2 2 2 2 2 2 2 2 2 2 2 2 2 2 2 2 2 2 2 2 2 2 2 2 2 2 2 2 2 2 2 2 2
left_child=1 2 4 -2 7 6 8 16 12 10 11 -10 14 -13 32 41 17 19 -19 -1 57 22 48 61 43 26 44 53 29 -21 -29 -32 34 -34 35 36 -5 -36 39 40 -39 -3 -6 -17 56 -12 47 -47 49 51 -51 58 55 -14 -55 -8 59 -20 -11 -4 -9 -16
right_child=3 15 25 5 42 -7 52 60 9 21 45 13 27 -15 23 24 -18 18 20 28 -22 -23 -24 -25 -26 -27 -28 30 -30 -31 31 -33 33 -35 37 -37 -38 38 -40 -41 -42 -43 -44 -45 -46 46 -48 -49 -50 50 -52 -53 -54 54 -56 -57 -58 -59 -60 -61 -62 -63
leaf_value=0.078858521724986724 -0.0720977695290069 -0.070516928013222041 -0.077121812021333946 0.055597273049082435 -0.0075505865424272487 0.1328327757861103 0.22790915533928258 0.083055850937275105 0.1049865556181788 0.0098655626270479479 -0.035542909191001504 1.0029940193538061 0.17044081217170842 0.51024850603669503 -0.055608154601817575 0.18817973176647743 0.097590036843319405 -0.071140054412807061 0.01722365085921454 -0.0025351745673373536 -0.04580787820925257 -0.071286470648602357 -0.046835843980603253 0.33182444574813413 0.20084944958664677 -0.0037071272117116276 -0.071495950808634051 0.38699570987163739 -0.057303529888797042 0.59514846934523991 0.32504092202598983 -0.043169920478314541 -0.029762760093058407 0.45881499641015094 -0.0036278810726536742 0.096859962868718716 0.78221210391770968 0.77416380392041717 -0.040418333631861224 -0.072312721110462608 -0.071359341483903105 0.085467364267636819 0.13352584926967925 -0.033121195980936241 0.33678028432985757 0.11994387943613417 0.03427079854550117 0.49083397488883279 -0.016859891221309389 0.32497621254949854 0.12585730302250839 0.31957915613636534 0.12328558087116262 0.23565292404978391 0.61641259246831026 0.11504224023347596 -0.071438350062134379 0.19367125696985979 0.11348974158934946 0.13994621202039009 -0.044996923979291698 0.1753044211424255
leaf_weight=11.791483569890259 26.000650199130177 3806.2015078384429 1.6092558046802867 1.0964269023388622 5.4819910544902077 1115.9597978424281 20.385405613109473 37.209362892434001 1.5762006808072353 9.3003940433263761 3.5242819637060148 1.4234789498150346 2.8493436425924283 2.9483922086656094 38.076996770687401 2.115613788366324 10.670071981847284 20.738317155279219 3.1011990979313913 29.394344273023311 5.4990404192358247 6.2645569946616879 8.0556472633033973 1.0236382745206345 3.5392537992447606 8.2535139033570868 3.4471340300515285 1.057507501915097 189.67606761585921 0.62989737838506599 1.0455260183662174 4.4743645992130041 1.5083751715719693 1.821292210370302 29.308940215036273 5.3608458638191223 0.81813809648156066 1.2367366217076776 2.0470386864617467 0.87683177739381779 0.81402612477540959 3.9882092904299489 36.080491239205003 22.027957018464804 2.2758492846041909 2.167945491150022 3.049514090642333 1.4813691712915895 5.065193122252821 4.9393525216728431 4.0394730176776648 1.7082278504967678 40.009709570556879 1.3532926850020888 1.2157652825117109 9.2634010408073646 1.9123962363228191 14.144934250041841 27.749052315950394 94.557496824301779 5.1506393738090983 1.2959526181220997
leaf_count=353 1682 259792 59 40 286 5981 233 1187 47 273 78 28 55 36 1683 58 252 1320 97 1622 315 363 230 19 38 228 181 19 11508 34 24 100 38 40 1093 40 24 30 83 32 44 160 354 1337 25 48 45 27 189 38 23 30 229 26 25 53 101 94 293 1178 190 7
internal_value=-0.0148535 -0.0588302 0.0281645 0.121591 0.000278816 0.125277 0.0915815 -0.0142475 0.067963 0.108715 0.251312 0.520779 0.0330706 0.670686 0.0129829 -0.0697473 -0.0263681 -0.0311782 0.0245072 -0.0416381 0.111715 0.0743602 0.0893529 -0.0383829 0.0137045 0.120134 0.12998 0.175886 -0.0481053 0.010004 0.0845215 0.0265731 0.0592084 0.237484 0.0449251 0.167711 0.366097 0.0188684 0.151409 0.285539 0.438543 -0.0703537 0.114918 -0.0137294 0.136901 0.0945294 0.162961 0.2705 0.11013 0.123605 0.235395 0.0977071 0.152807 0.286794 0.415841 0.192645 0.132263 0.161942 0.0874773 0.136314 0.0674857 -0.0480077
internal_weight=5711.69 4319.5 481.623 1392.19 369.568 1366.19 250.233 328.005 180.574 83.2931 16.1712 5.94807 97.281 4.37187 85.2852 3837.87 285.645 274.975 43.4835 231.492 22.7452 67.1219 60.8573 40.3966 27.6828 112.056 103.802 11.9958 219.7 30.0242 6.5774 5.51989 44.8887 3.32967 41.559 7.27541 1.91456 34.2836 4.97463 2.92759 2.05076 3810.19 41.5625 24.1436 100.355 10.2231 6.69883 3.64931 52.8017 47.7365 8.97883 38.7577 69.6585 5.4184 2.56906 29.6488 98.0791 17.2461 37.0494 96.1668 42.36 39.3729
internal_count=294117 280769 19384 13348 17612 11666 5685 16972 5170 1748 309 111 3422 64 3173 261385 15595 15343 1826 13517 506 1439 1076 1709 1433 1772 1544 249 13164 1656 143 124 1464 78 1386 104 64 1282 189 106 74 259952 640 1395 1363 198 120 75 846 657 61 596 515 106 51 286 1338 191 566 1237 1377 1690
is_linear=0
shrinkage=0.07


Tree=5
num_leaves=63
num_cat=0
split_feature=38 5 33 22 25 30 3 3 30 3 3 5 38 5 26 33 17 33 5 36 5 3 5 21 1 38 3 3 20 3 17 37 3 1 32 29 3 0 3 33 38 19 3 30 3 30 3 1 3 33 33 33 23 37 32 0 33 37 1 21 1 33
split_gain=6214.61 655.482 276.74 182.703 130.737 88.9694 70.089 50.0366 65.0507 44.1884 170.941 40.866 32.2222 29.0707 30.3932 22.6929 21.7762 21.5775 21.4088 42.866 21.0769 20.9557 61.2057 19.9969 19.959 19.0191 18.8143 55.8932 42.3313 37.3543 37.301 27.2136 30.2138 31.506 20.0405 17.9372 52.8892 21.5713 17.375 16.6468 16.4391 21.1187 38.5629 32.8814 15.939 15.8635 15.6818 15.5011 22.2924 23.5468 17.2566 18.5374 14.9903 14.9313 14.7029 14.6375 24.0043 14.8433 19.7556 14.0935 13.7195 13.4518
threshold=2820.5000000000005 115.88000000000001 1273.0700000000002 1.0000000180025095e-35 1.0000000180025095e-35 9000.0000000000018 1.5000000000000002 17.500000000000004 1.0000000180025095e-35 33.500000000000007 35.500000000000007 85.840000000000018 110.50000000000001 191.25500000000002 1.0000000180025095e-35 191.58500000000001 1.0000000180025095e-35 2016.9300000000001 143.88500000000002 1.0000000180025095e-35 62.535000000000004 8.5000000000000018 97.595000000000013 1.0000000180025095e-35 767.50000000000011 488.50000000000006 33.500000000000007 22.500000000000004 1.0000000180025095e-35 24.500000000000004 1.0000000180025095e-35 95.500000000000014 5.5000000000000009 1877.5000000000002 1.5000000000000002 1.0000000180025095e-35 15.500000000000002 95.500000000000014 12.500000000000002 102.20000000000002 1361.5000000000002 1.0000000180025095e-35 35.500000000000007 12600.000000000002 9.5000000000000018 12600.000000000002 14.500000000000002 224.50000000000003 9.5000000000000018 811.1350000000001 642.49500000000023 557.70500000000015 1.0000000180025095e-35 9.5000000000000018 1.5000000000000002 95.500000000000014 311.62500000000006 26.500000000000004 1516.5000000000002 1.0000000180025095e-35 95.500000000000014 619.1500000000002
decision_type=2 2 2 2 2 2 2 2 2 2 2 2 2 2 2 2 2 2 2 2 2 2 2 2 2 2 2 2 2 2 2 2 2 2 2 2 2 2 2 2 2 2 2 2 2 2 2 2 2 2 2 2 2 2 2 2 2 2 2 2 2 2
left_child=1 2 4 7 5 9 -3 8 18 12 15 17 47 14 26 -11 23 54 19 -2 -7 -10 -23 -12 25 -4 27 28 30 -29 31 -8 -33 -34 45 -14 37 -37 -6 -13 41 60 43 -43 -39 52 -40 59 -49 50 51 -50 -31 -18 -5 56 -22 58 -58 -1 -28 -17
right_child=3 6 24 11 38 20 13 -9 21 10 16 39 35 -15 -16 61 53 -19 -20 -21 55 22 -24 -25 -26 -27 40 29 -30 34 -32 32 33 -35 -36 36 -38 44 46 -41 -42 42 -44 -45 -46 -47 -48 48 49 -51 -52 -53 -54 -55 -56 -57 57 -59 -60 -61 -62 -63
leaf_value=-0.049903004971195659 0.85575077930321164 -0.071972637591961319 0.10754447157251833 -0.025732224692971411 -0.0032632782975205795 0.033666538143508527 0.13303731432484414 -0.070857915167341579 -0.071469612210950106 0.026085262727217302 -0.041132697944329999 1.5147725738682878 -0.06149143364131511 0.12405173694592922 -0.025092022611962521 0.31971356907269061 -0.01993214270851966 0.18926052773644575 0.12842615262972948 0.14845206950486239 0.0021826068297738435 -0.037999477290984088 0.2276157418731487 0.23425766526623854 0.13858975241021068 -0.013806809596877819 0.39386076020614119 -0.074635923588184688 -0.073803201073121869 -0.017834270060051397 -0.074476917844926799 0.14536341189552848 0.23469596654746977 0.67365191047392625 0.20786703014156988 0.013827991468147026 -0.057397079194082164 0.12414161027950572 0.26732161347139821 0.15350293515040231 0.17124566031706223 0.19369861073513886 -0.047147495525564853 -0.032148906748358012 0.38563378085199412 0.17667418345695002 0.10354717608838918 -0.020867944773551157 0.093524620965931227 0.39340897726031915 -0.074173937716342508 0.46195956262071491 0.14049043946264206 0.29201964440615918 0.23868894802936325 0.18274227376015581 0.097273343916202057 -0.072748847816269821 0.36591533298689088 0.19719970788647487 0.1269035435312596 0.18373238777653586
leaf_weight=9.7310856292024255 0.75203509908169441 9.4756818832829577 23.079211555421356 18.462846179492779 7.1729884296655646 38.706446493975818 49.85981116630137 3520.1331255268306 23.130314534530044 3.5437252465635565 83.481842012144625 0.044125366955998113 153.80131937842816 1034.8382436539978 9.6921528633683902 4.8396429456770447 1.3513349201530211 3.0480894185602656 2.1450980911031365 0.9505430506542325 9.3232384575530904 18.988828400149945 5.4770194608718148 1.3123084567487229 92.129884822294116 8.7193382652476412 0.96019365824758907 14.357794450595973 5.0631728749722233 14.778853083029398 3.8329778816550961 3.7371584754437199 1.7310908734798434 1.4915598072111604 4.1095238663256159 9.7722562998533267 45.661342873238027 6.8858624268323165 3.0315749254077664 18.236118332482874 25.699805527925491 10.635477542877199 10.672191400080917 4.4932508245110503 1.3693324178457258 3.4716359265148631 52.089377973228693 4.8838255340233427 2.5010843630880122 1.7851951532065866 1.8327336423099039 0.91356910578906525 3.654961332678794 1.6946875862777231 1.091306872665881 9.8034005891531688 2.84097478352487 0.97480991482734669 2.5410993751138449 1.2797316424548633 53.618427779525518 13.531037507578729
leaf_count=585 15 657 268 1143 349 1288 595 257097 1646 117 4941 2 9779 5014 258 47 61 32 16 42 284 1284 102 13 830 248 12 541 156 423 152 34 33 30 31 413 2884 114 46 157 211 89 215 61 34 41 426 172 66 35 55 24 15 20 9 241 57 30 57 23 425 72
internal_value=-0.0145815 0.0891244 0.028897 -0.068172 0.00466827 -0.00954611 0.117692 -0.0698563 -0.00131936 -0.0234335 0.0133695 0.0789681 -0.0402347 0.119122 0.0961285 0.18827 -0.0302648 0.0160283 0.27553 0.460869 0.0662131 -0.0236999 0.0214622 -0.0368706 0.122086 0.0742693 0.101666 0.0808219 0.120647 0.0159982 0.136879 0.151137 0.280801 0.437861 0.0660197 -0.0485552 -0.0173157 0.0842057 0.0992184 0.156789 0.122512 0.10693 0.0547444 0.126622 0.167517 0.0394087 0.112555 0.0386943 0.0940216 0.173808 0.0990977 0.192097 0.0135575 0.153626 -0.010975 0.115648 0.0736991 0.178588 0.22411 -0.0211835 0.1316 0.219556
internal_weight=5479.22 1866.76 600.584 3612.46 476.656 414.362 1266.17 3571.58 51.4438 350.172 109.755 40.8825 240.417 1256.7 221.86 21.9144 87.8402 22.6022 3.84768 1.70258 64.19 47.5962 24.4658 84.7942 123.928 31.7985 212.168 106.089 65.7158 40.3728 60.6526 56.8196 6.95981 3.22265 26.015 217.49 63.6888 18.0275 62.2939 18.2802 106.079 80.3795 25.8009 15.1287 8.25519 21.9055 55.121 22.9272 11.9164 7.03258 5.24739 3.41465 18.4338 3.04602 19.5542 25.4835 15.6801 6.35688 5.38207 11.0108 54.5786 18.3707
internal_count=294117 32572 23579 261545 22233 21412 8993 260202 3105 19455 5271 1343 14184 8336 3322 236 5035 1184 73 57 1957 3032 1386 4954 1346 516 3064 2051 1000 1051 844 692 97 63 510 13224 3445 561 821 159 1013 802 365 150 148 479 472 960 352 180 145 90 438 81 1152 669 428 144 114 608 437 119
is_linear=0
shrinkage=0.07


Tree=6
num_leaves=63
num_cat=0
split_feature=38 5 33 22 25 30 3 3 30 3 3 5 5 38 26 29 3 3 5 33 37 33 17 33 1 3 3 37 17 17 27 33 33 3 19 17 32 21 29 3 33 3 20 3 30 3 3 3 0 29 1 3 29 3 33 37 36 3 3 3 33 1
split_gain=5570.48 568.153 225.65 168.165 108.901 74.6827 59.5628 48.483 44.8551 39.9642 140.667 34.3005 33.7744 30.4639 24.339 21.2085 43.6379 19.4229 48.2836 21.1131 26.1579 17.6985 17.5112 17.3076 17.2547 27.9132 41.9763 16.8588 16.8268 16.8229 16.7073 16.3672 16.167 16.0101 44.8767 41.1515 37.9205 15.6597 15.5877 26.9335 18.484 14.87 31.3447 26.5904 13.9364 28.1845 22.2921 17.3995 13.8534 13.6983 21.3263 13.603 94.9209 24.08 14.0415 14.9453 17.0254 17.0299 13.1861 18.7379 19.4863 14.6021
threshold=2820.5000000000005 115.88000000000001 1273.0700000000002 1.0000000180025095e-35 1.0000000180025095e-35 9000.0000000000018 1.5000000000000002 17.500000000000004 1.0000000180025095e-35 33.500000000000007 35.500000000000007 191.25500000000002 85.840000000000018 196.50000000000003 1.0000000180025095e-35 1.0000000180025095e-35 15.500000000000002 8.5000000000000018 115.88000000000001 1021.0150000000001 63.500000000000007 191.58500000000001 1.0000000180025095e-35 494.72500000000008 466.50000000000006 20.500000000000004 28.500000000000004 12.500000000000002 1.0000000180025095e-35 1.0000000180025095e-35 1.0000000180025095e-35 2016.9300000000001 467.78500000000003 33.500000000000007 1.0000000180025095e-35 1.0000000180025095e-35 1.5000000000000002 1.0000000180025095e-35 1.0000000180025095e-35 9.5000000000000018 3326.2100000000005 21.500000000000004 1.0000000180025095e-35 12.500000000000002 1.0000000180025095e-35 12.500000000000002 16.500000000000004 48.500000000000007 161.50000000000003 1.0000000180025095e-35 819.50000000000011 15.500000000000002 1.0000000180025095e-35 2.5000000000000004 278.11500000000007 26.500000000000004 1.0000000180025095e-35 35.500000000000007 35.500000000000007 12.500000000000002 3326.2100000000005 387.50000000000006
decision_type=2 2 2 2 2 2 2 2 2 2 2 2 2 2 2 2 2 2 2 2 2 2 2 2 2 2 2 2 2 2 2 2 2 2 2 2 2 2 2 2 2 2 2 2 2 2 2 2 2 2 2 2 2 2 2 2 2 2 2 2 2 2
left_child=1 2 4 7 5 9 -3 8 -2 13 21 14 31 24 33 -15 32 -10 19 -19 -21 -11 37 -23 -1 49 27 -27 30 51 38 -5 -17 34 35 36 41 -12 58 40 -40 42 43 -8 46 -46 -6 -48 -47 -26 -51 53 54 -7 -53 56 -56 -58 59 60 -4 -61
right_child=3 6 28 12 44 29 11 -9 17 10 22 -13 -14 15 -16 16 -18 18 -20 20 -22 23 -24 -25 25 26 -28 -29 -30 -31 -32 -33 -34 -35 -36 -37 -38 -39 39 -41 -42 -43 -44 -45 45 48 47 -49 -50 50 -52 52 -54 -55 55 -57 57 -59 -60 61 -62 -63
leaf_value=-0.025432785066608416 0.20275677314118473 -0.071861172207920265 -0.015283473936331627 -0.01044851012640235 0.32477102964752991 0.14828983822568018 0.088529861045967842 -0.0707789003905194 -0.071380438632343127 0.023658307395324114 -0.039859254079503539 0.11584491448466157 0.14146836978586497 -0.065880331561689237 -0.023872934396933613 0.0031749295212280199 -0.055659820983345702 -0.045098464878953554 0.24375546201215356 -0.0059896198062534059 0.5521371092108408 0.39028117329296613 0.12597780679093742 0.17004804476390414 -0.05642207206239884 0.14464235738921258 -0.048768343475741799 0.4202972332657261 0.0075253536946588949 -0.043521665662202488 -0.071543731231326388 0.15535858927902571 0.13576603316766278 0.1095523968781817 -0.074017987631859863 -0.073801969388396241 0.18130312671599721 0.18688586280246736 0.29889843439014352 0.024436591580593289 0.096683173095589311 0.034482441214541089 -0.073633273948135486 0.22538973259621248 -0.061471676403303109 0.079581773457905791 -0.048149294950467318 0.14507437474206217 0.23667047273204528 0.41788605819959629 0.010971105678685226 0.034755390641014607 0.72465344763060435 -0.015266324332407965 0.082056481985852164 0.02136360348501079 0.33322294870396585 0.087991385127034319 0.10368239010588497 0.40705868979640436 0.21196696055401359 0.16900649592599268
leaf_weight=20.881014361046255 4.7579156840220085 8.8482877882197482 5.4977826308459026 19.292277449741963 2.7526403740048417 5.9493074631318477 30.811161316931248 3285.6849914509803 21.592552068643272 3.6304129324853447 80.236495153978467 1030.6946252454072 18.787940328940749 133.85270533524454 9.4817589186131936 8.3376289289444703 40.783989650197327 18.747742216102786 3.951970398426055 1.0621715150773514 0.671649008989334 1.9420863427221799 3.4224369265139094 17.54239796847105 7.33190940693021 1.8575054351240385 2.573574110865593 2.6214060178026557 7.6225137896835795 7.2140575507655731 2.3145510144531718 3.4368859380483618 9.8053131029009801 110.07736762799323 9.4531364450231177 7.3665940575301638 20.829754110425711 1.520753189921378 3.4208033755421656 18.85135149396956 6.283498227596283 28.265152292326093 4.5966401547193518 8.9845514260232431 6.9518315941095343 37.614710636436939 2.8328004889190188 11.777860552072525 2.9678582400083533 0.84797046892344985 2.4677366688847542 19.385463371872902 1.1388227967545379 17.056419333443046 6.2508625527843851 5.1703979885205618 3.9290302582085133 2.1451437287032604 41.967443011701107 1.3043081276118744 2.7857599407434464 39.485233545303345
leaf_count=1141 73 657 113 1152 42 128 393 257097 1646 117 4941 5014 159 9238 258 344 2743 1261 40 57 28 28 81 91 336 25 56 24 133 244 121 32 185 1013 384 319 170 13 37 228 33 551 150 84 341 285 77 56 20 16 76 550 35 575 140 160 70 55 331 24 26 300
internal_value=-0.0143129 0.0825557 0.0265678 -0.0679876 0.00414161 -0.00925884 0.109121 -0.0697298 -0.00185661 -0.0226844 0.0124114 0.110392 0.0720251 -0.039112 0.085941 -0.0504752 -0.0154824 -0.0230084 0.0197393 -0.0234852 0.210218 0.16556 -0.0291479 0.191999 0.0176672 0.0685127 0.176524 0.305977 0.108423 0.0575656 0.114731 0.0146232 0.0748335 0.0906656 0.0718182 0.0854876 0.0980392 -0.0356416 0.118336 0.073213 0.167965 0.0741688 0.0994376 0.119428 0.0883661 0.0687609 0.142038 0.107611 0.0910699 -0.0030291 0.115037 0.0695155 0.0952238 0.0270295 0.075788 0.121253 0.163157 0.246617 0.13249 0.157126 0.061141 0.176619
internal_weight=5249.72 1871.73 602.326 3377.99 472.793 407.895 1269.41 3336.47 50.784 339.655 108.295 1260.56 41.5171 231.361 229.866 192.78 58.9269 46.0261 24.4335 20.4816 1.73382 23.1149 85.1797 19.4845 38.5811 17.7001 7.05249 4.47891 129.533 68.2395 121.911 22.7292 18.1429 220.384 110.307 100.854 93.4873 81.7572 119.596 28.5557 9.7043 72.6575 44.3924 39.7957 64.8977 47.5344 17.3633 14.6107 40.5826 10.6476 3.31571 61.0254 38.0197 23.0057 36.8809 17.4954 12.325 6.07417 91.0405 49.0731 8.28354 40.7895
internal_count=294117 32572 23579 261545 22233 21412 8993 260202 3105 19455 5271 8336 1343 14184 3322 12510 3272 3032 1386 1346 85 236 5035 119 1674 533 105 49 1346 1957 1213 1184 529 3064 2051 1667 1348 4954 1092 298 70 1178 627 477 821 646 175 133 305 428 92 1713 1010 703 975 425 265 125 794 463 139 324
is_linear=0
shrinkage=0.07


Tree=7
num_leaves=63
num_cat=0
split_feature=38 5 33 22 25 30 3 3 5 3 3 3 5 32 38 5 29 3 26 1 1 33 33 29 3 33 1 33 3 3 38 20 0 17 30 33 3 30 19 3 38 0 33 29 1 17 3 3 20 1 3 3 29 3 33 33 37 0 37 0 0 0
split_gain=5010.97 496.657 186.09 155.84 92.0976 63.1949 51.0511 46.9233 39.0673 37.1416 113.357 37.0577 45.5052 36.0674 31.26 28.6286 21.4304 37.3433 19.6917 18.1359 15.3949 14.5306 14.2519 14.1284 15.2809 15.5029 14.3443 13.3865 17.324 34.6647 26.6625 22.4073 20.7386 18.2164 14.2574 13.4967 22.189 28.8444 20.2253 13.802 13.3141 12.9934 12.7827 12.7363 12.9676 12.7306 12.5772 81.4236 66.3373 12.2438 20.2041 12.1852 73.0115 18.4326 12.1016 19.7145 12.036 14.8599 15.926 15.3745 11.9469 36.199
threshold=2820.5000000000005 115.88000000000001 1273.0700000000002 1.0000000180025095e-35 1.0000000180025095e-35 12600.000000000002 1.5000000000000002 17.500000000000004 191.25500000000002 33.500000000000007 35.500000000000007 8.5000000000000018 105.42000000000002 1.5000000000000002 196.50000000000003 85.840000000000018 1.0000000180025095e-35 15.500000000000002 1.0000000180025095e-35 552.50000000000011 767.50000000000011 191.58500000000001 1180.9750000000001 1.0000000180025095e-35 43.500000000000007 1043.5000000000002 1915.5000000000002 2410.6550000000007 33.500000000000007 22.500000000000004 151.50000000000003 1.0000000180025095e-35 94.500000000000014 1.0000000180025095e-35 16200.000000000002 505.8250000000001 34.500000000000007 5400.0000000000009 1.0000000180025095e-35 39.500000000000007 639.50000000000011 114.50000000000001 2016.9300000000001 1.0000000180025095e-35 95.500000000000014 1.0000000180025095e-35 24.500000000000004 22.500000000000004 1.0000000180025095e-35 1099.5000000000002 20.500000000000004 15.500000000000002 1.0000000180025095e-35 9.5000000000000018 467.78500000000003 518.71500000000015 28.500000000000004 95.500000000000014 9.5000000000000018 23.500000000000004 154.50000000000003 159.50000000000003
decision_type=2 2 2 2 2 2 2 2 2 2 2 2 2 2 2 2 2 2 2 2 2 2 2 2 2 2 2 2 2 2 2 2 2 2 2 2 2 2 2 2 2 2 2 2 2 2 2 2 2 2 2 2 2 2 2 2 2 2 2 2 2 2
left_child=1 2 4 7 5 9 -3 11 18 14 21 -2 13 -13 22 42 -16 54 27 -12 40 -11 49 24 25 -21 -26 28 29 31 -31 32 -8 -34 -32 39 37 41 43 -30 -4 -37 60 44 -38 51 47 48 -10 -1 -51 53 -53 56 -18 -56 57 59 -59 -7 -5 -62
right_child=3 6 20 15 -6 45 8 -9 46 10 19 12 -14 -15 16 -17 17 -19 -20 23 -22 -23 -24 -25 26 -27 -28 -29 35 30 34 -33 33 -35 -36 36 38 -39 -40 -41 -42 -43 -44 -45 -46 -47 -48 -49 -50 50 -52 52 -54 -55 55 -57 -58 58 -60 -61 61 -63
leaf_value=-0.011388562764993407 -0.071687371092491417 -0.071755133829386183 0.0777163806994072 -0.030172781912588709 0.079868063249993265 0.26251283416883336 0.059035549183473091 -0.070703688400328382 0.11053726391843448 0.023535833962208368 -0.063769905928593149 -0.028105382269540482 0.20033152633684187 0.32256138821368813 -0.065542961583393969 0.1295835939951514 0.0017435475729852615 -0.055078636601105582 -0.022688984949192113 -0.00028767437685084857 0.11109972599310501 0.16377191260131926 0.28373389861671122 -0.065252904025410827 0.38954114486171226 0.19866963253897293 0.028724859676496062 0.11248432892940401 0.026770520359359461 0.097599383557159095 -0.053506752406249927 -0.072260726514852949 0.1652957519059467 -0.073043818055412171 0.2297870697067701 0.37791223944920088 0.50639510086978556 0.076817226463367083 -0.04965256058485619 0.1178765065863961 -0.033826301332564992 0.20354535536819651 0.13121507450301498 -0.015443723824451574 0.11861874288268144 -0.039367544528021846 0.11332432308730146 -0.090228739791700055 -0.087042288224153552 -0.014137857074616051 0.18111697991990641 0.070254257650007298 0.59630629137764013 -0.03264618553022651 0.57092463391040349 0.090531381490945931 -0.075654806692947441 0.45872311080404854 0.12562919781291484 -0.028931510063052435 0.70457408513927111 0.0024674094063892146
leaf_weight=28.386052238754928 21.378639406524599 8.2618500012904388 27.955640118569136 16.827438306994743 66.593078792095184 1.2491067275404928 31.128486111760139 3066.6962155625224 241.95894940569997 4.350483642891052 37.089896504767239 19.405192404054112 7.3461496364325276 1.5521733500063408 127.15151971485466 19.06421210989356 9.4300524964928645 39.364647406153381 9.285428471863268 31.278788795694709 99.678454618901014 21.574974363669753 0.97261778637766738 11.641037298366426 1.0498410146683448 2.0444940943270913 1.1114604733884332 52.064738593995571 21.475733667612076 9.005311760120092 23.762027389369909 4.1787751372903577 20.777422865852717 1.6998774930834759 0.90358687378466029 3.3982081785798055 0.42958793416619911 6.5626527257263652 4.5984728895127764 13.129067339003084 6.4541418394073835 5.4565548524260521 3.7706702500581732 3.5995263606309882 25.850962920114398 6.341846201568841 759.60450706444681 11.073169380426405 8.6234074942767602 5.5448756143450719 4.8840446006506681 35.209732914343476 1.342072308063506 12.284904615953565 0.43498681113123794 11.104797936975954 1.5691003575921056 1.1793854236602785 1.7425357718020675 3.0588615518063307 0.44805430620908682 1.8271861746907232
leaf_count=1415 1680 657 328 1040 821 34 473 257097 1117 135 2452 1329 80 16 9318 159 380 2763 258 1839 830 141 23 687 22 81 21 231 340 146 867 153 222 78 10 30 5 59 89 98 188 27 32 87 149 222 3522 257 118 206 50 827 14 423 14 184 31 21 31 78 20 92
internal_value=-0.0140465 0.0768045 0.0244604 -0.0678066 0.00362927 -0.00901915 0.101682 -0.0696104 0.10282 -0.0211136 0.0122479 -0.00212616 0.0504159 -0.00213382 -0.0372812 0.0662328 -0.0492406 -0.0148842 0.0772354 -0.0271537 0.0971639 0.140239 0.0190733 0.00166474 0.0236177 0.011919 0.20399 0.0813045 0.0720785 0.0509657 -0.00549089 0.0838629 0.0960333 0.147271 -0.0431287 0.0949289 0.118227 0.188034 0.0870116 0.0613361 0.0567946 0.270462 0.013432 0.108044 0.124957 0.0547665 0.108765 0.0955293 0.103738 0.0124414 0.0773034 0.0651244 0.0895693 0.0227457 0.0605689 0.10864 0.100082 0.138223 0.260077 0.0555735 -0.0098172 0.140731
internal_weight=5027.22 1868.9 602.073 3158.32 467.985 401.392 1266.83 3116.38 1258.57 337.415 110.141 49.6822 28.3035 20.9574 227.274 41.9376 187.486 60.3345 237.306 84.2155 134.088 25.9255 39.7876 47.1256 35.4846 33.3233 2.1613 228.021 175.956 91.4555 33.6709 57.7846 53.6058 22.4773 24.6656 84.5008 49.896 15.4174 34.4786 34.6048 34.4098 8.85476 22.8733 29.8801 26.2806 63.9775 1021.26 261.656 250.582 38.815 10.4289 57.6357 36.5518 21.0839 20.9698 11.5398 8.79899 7.22989 2.92192 4.30797 19.1027 2.27524
internal_count=294117 32572 23579 261545 22233 21412 8993 260202 8336 19731 5378 3105 1425 1345 14353 1343 12659 3341 3322 5102 1346 276 1694 2650 1963 1920 43 3064 2833 1949 1023 926 773 300 877 884 446 116 330 438 516 57 1184 241 154 1681 5014 1492 1235 1671 256 1459 841 618 578 198 195 164 52 112 1152 112
is_linear=0
shrinkage=0.07


Tree=8
num_leaves=63
num_cat=0
split_feature=38 5 33 22 25 30 5 3 3 3 3 5 38 32 5 29 3 3 1 26 26 17 1 33 3 19 20 26 33 33 3 3 38 20 17 0 30 3 33 3 30 19 3 38 1 3 3 38 5 1 38 29 30 29 0 3 0 33 33 24 5 5
split_gain=4525.66 441.463 154.586 144.491 79.3331 51.9891 49.8952 45.5165 36.6865 101.296 33.2784 37.6881 28.7187 26.9111 24.6501 20.6953 32.3234 20.0254 17.7194 16.9746 16.2373 13.8207 13.1834 21.327 13.1148 84.0481 58.2053 36.9326 12.8418 12.8119 14.4582 27.597 22.6073 18.1783 16.2955 17.5749 12.2818 22.7445 11.7356 14.22 19.7877 17.3242 21.3848 11.4526 11.3024 16.964 20.5854 11.7841 11.2714 11.2092 12.1403 11.1066 13.3116 10.8864 10.7508 10.7174 10.6061 10.2698 10.2639 10.2457 10.1697 15.9482
threshold=2820.5000000000005 115.88000000000001 1313.4000000000003 1.0000000180025095e-35 1.0000000180025095e-35 12600.000000000002 191.25500000000002 17.500000000000004 33.500000000000007 35.500000000000007 8.5000000000000018 97.595000000000013 196.50000000000003 1.5000000000000002 85.840000000000018 1.0000000180025095e-35 15.500000000000002 1.5000000000000002 552.50000000000011 1.0000000180025095e-35 1.0000000180025095e-35 1.0000000180025095e-35 1057.5000000000002 1082.7150000000004 24.500000000000004 1.0000000180025095e-35 1.0000000180025095e-35 1.0000000180025095e-35 191.58500000000001 2410.6550000000007 33.500000000000007 22.500000000000004 296.50000000000006 1.0000000180025095e-35 1.0000000180025095e-35 94.500000000000014 1.0000000180025095e-35 12.500000000000002 505.8250000000001 34.500000000000007 5400.0000000000009 1.0000000180025095e-35 40.500000000000007 920.50000000000011 466.50000000000006 20.500000000000004 28.500000000000004 35.500000000000007 164.72500000000002 767.50000000000011 488.50000000000006 1.0000000180025095e-35 1.0000000180025095e-35 1.0000000180025095e-35 32.500000000000007 39.500000000000007 95.500000000000014 328.30000000000001 2016.9300000000001 1.0000000180025095e-35 66.875000000000014 78.575000000000003
decision_type=2 2 2 2 2 2 2 2 2 2 2 2 2 2 2 2 2 2 2 2 2 2 2 2 2 2 2 2 2 2 2 2 2 2 2 2 2 2 2 2 2 2 2 2 2 2 2 2 2 2 2 2 2 2 2 2 2 2 2 2 2 2
left_child=1 2 4 7 5 8 17 10 12 28 -2 13 44 -12 58 59 56 -3 -11 -7 29 49 23 -20 25 26 27 -8 -10 30 31 33 -33 34 35 -19 -6 -38 55 40 -40 42 -41 -22 47 51 -47 60 -37 50 53 -46 -53 -4 -52 -32 -17 -57 -5 -14 -1 -62
right_child=3 6 21 14 36 19 24 -9 9 18 11 -13 15 -15 -16 16 -18 20 22 -21 43 -23 -24 -25 -26 -27 -28 -29 -30 -31 38 32 -34 -35 -36 48 37 -39 39 41 -42 -43 -44 -45 45 46 -48 -49 -50 -51 54 52 -54 -55 -56 57 -58 -59 -60 -61 61 -63
leaf_value=0.0055803503529306053 -0.071591388968017755 -0.071596179507856392 0.11072248781189413 -0.0096303785159772455 0.1210055944339172 0.043662051593617489 0.10801105763414821 -0.070631891567909749 0.02140264216469899 -0.063260045383396579 -0.035428511127628085 0.16477595633851339 -0.068005282071070122 0.24069557607509109 0.11931256636318037 0.0033931405908442965 -0.054319826015681347 0.058661157507007129 0.042695745413946454 0.37145734078951387 -0.055880847076134998 0.00016840390406680958 -0.019410180763296123 0.44918412019450205 0.10711842773775096 -0.086031267318666144 -0.086100947345277609 -0.095360981356095845 0.15147488503159109 0.10430836163259143 0.024338831357328533 0.064252076955023885 -0.053156970913881177 -0.072105540511955737 -0.072344525322496772 0.10590337007196274 -0.061675869586816222 0.073701053424536075 0.22296570802774648 0.29083746281279521 0.068326383580500583 -0.048097366091423323 0.081961252990257055 0.15799672906745829 -0.055412681031993698 0.20140013408874247 -0.027376131123371124 -0.052826523026948964 0.21144478222230684 0.10639894196246316 0.13423949289919507 0.0074711753388027264 0.29782306020257127 0.00089532192507807862 -0.055519330918773035 0.15039655759778894 0.10002617912883005 0.027142613745934692 0.11299406062597214 0.081988728906970648 0.4919198709729854 0.049982131626777962
leaf_weight=4.3976467736065414 19.959092590026557 4.9821202727034679 18.248158305883411 18.973144741728905 18.782913478091359 66.649191662669182 234.1200031992048 2862.1726222652942 4.4455603118985918 35.062678659334779 17.629870144650347 8.998715076595543 117.87640133593231 1.9176123831421126 19.248589541763067 11.049967467784883 37.682612271048129 30.923085467889905 11.588112436234947 0.78318268433213134 7.640828497707842 8.1534787286072952 35.209348207339644 0.66896603256464082 747.77579847723246 12.801042040809987 8.1434089858084899 4.4587911851704112 22.763536224141717 52.20836029574275 21.949683241546154 13.562492034398018 19.721159148961306 3.9043523184955111 3.0873500835150471 15.491120774298908 7.0752497352659693 43.279141958802938 9.9349546656012553 2.6336634345352676 6.8504182025790206 4.421296374872326 27.271058697253466 1.4614258762449024 7.0445750113576668 5.9446844831109029 2.8517414126545191 14.755589194595812 7.2922931462526313 94.406977629289031 1.8809449383988956 2.5790442638099198 1.1052951496094463 5.8370492309331885 6.5834230780601501 8.5724865645170194 11.212981102988122 5.3986125551164141 4.0604675188660613 2.2745318990200749 0.61578166857361782 1.1424427991732953
leaf_count=198 1680 422 157 1152 177 1666 1073 257097 135 2460 1295 114 9255 16 159 420 2775 401 661 17 224 129 1972 22 3522 485 120 49 144 231 340 228 795 153 150 165 341 306 57 33 59 89 208 34 338 53 59 892 57 691 21 79 14 67 204 60 161 38 32 97 20 48
internal_value=-0.013785 0.0718522 0.022573 -0.0676261 0.00348931 -0.00854211 0.095496 -0.0694923 -0.0199781 0.013095 -0.00225061 0.0462315 -0.0364353 -0.00834068 0.0608457 -0.0484049 -0.0148106 0.0673229 -0.0255211 0.0474692 0.0701791 0.0885121 0.00235603 0.064881 0.102413 0.0888549 0.0979288 0.10421 0.130223 0.0737588 0.0649476 0.0459098 -0.00531489 0.0739986 0.0840427 0.0930327 0.0726986 0.0546794 0.0855056 0.107054 0.159855 0.0812353 0.100357 -0.0215414 0.0168746 0.0551736 0.127232 -0.0188858 0.139684 0.0941858 0.0587626 -0.00390607 0.0945762 0.0841059 -0.0133513 0.0548439 0.0520634 0.10277 0.0119864 -0.0651658 0.06247 0.204762
internal_weight=4809.52 1856.56 601.951 2952.96 466.841 397.704 1254.61 2910.68 330.271 109.738 48.5053 28.5462 220.533 19.5475 42.2822 180.096 59.9456 247.307 82.5291 67.4324 242.325 135.11 47.4664 12.2571 1007.3 259.523 246.722 238.579 27.2091 233.222 181.014 93.9819 33.2837 60.6982 56.7938 53.7065 69.1373 50.3544 87.0322 51.1114 16.7854 34.326 29.9047 9.10225 40.4368 19.5253 8.79643 20.9115 22.7834 126.957 32.5496 10.7289 3.68434 24.0852 8.46437 35.9208 22.2629 13.9711 23.0336 120.151 6.15587 1.75822
internal_count=294117 32572 23579 261545 22310 21486 8993 260202 19803 5394 3105 1425 14409 1311 1343 12708 3356 3744 5115 1683 3322 1269 2655 683 5249 1727 1242 1122 279 3064 2833 1949 1023 926 773 623 824 647 884 446 116 330 241 258 1701 543 112 1158 222 1140 449 431 93 224 225 438 581 98 1184 9352 266 68
is_linear=0
shrinkage=0.07


Tree=9
num_leaves=63
num_cat=0
split_feature=38 5 33 22 3 5 1 3 38 3 3 3 5 30 32 33 0 3 38 17 27 5 1 37 33 26 37 5 38 29 29 3 37 0 33 0 3 19 32 3 38 3 5 3 19 20 26 38 19 3 30 33 3 0 3 30 3 1 3 0 33 3
split_gain=4101.46 410.523 139.92 117.781 62.7921 53.4384 44.7242 43.34 39.2141 29.7947 44.0623 29.4262 26.2506 23.6753 21.6979 19.4511 18.2461 18.2408 16.6667 15.7651 16.8813 15.3515 14.9089 21.6612 14.8216 14.4117 47.8722 32.6313 13.9556 15.5209 13.5287 17.6493 13.1484 12.6446 12.3401 12.2924 12.1496 23.7703 26.7372 16.5291 14.1744 14.9813 11.9228 11.5444 77.2057 51.4885 32.6722 11.2797 12.0441 14.4589 21.2936 10.8708 10.8378 10.6655 10.3542 10.3193 10.3087 10.2189 10.0977 13.493 20.6937 13.0384
threshold=3033.5000000000005 115.88000000000001 1068.9200000000003 1.0000000180025095e-35 48.500000000000007 191.25500000000002 451.50000000000006 17.500000000000004 196.50000000000003 33.500000000000007 35.500000000000007 8.5000000000000018 115.88000000000001 12600.000000000002 1.5000000000000002 191.58500000000001 95.500000000000014 1.5000000000000002 360.50000000000006 1.0000000180025095e-35 1.0000000180025095e-35 97.595000000000013 3238.5000000000005 35.500000000000007 2410.6550000000007 1.0000000180025095e-35 20.500000000000004 63.505000000000003 1127.5000000000002 1.0000000180025095e-35 1.0000000180025095e-35 9.5000000000000018 117.50000000000001 1.5000000000000002 1021.0150000000001 1.0000000180025095e-35 33.500000000000007 1.0000000180025095e-35 1.5000000000000002 20.500000000000004 243.50000000000003 10.500000000000002 35.335000000000008 24.500000000000004 1.0000000180025095e-35 1.0000000180025095e-35 1.0000000180025095e-35 1499.5000000000002 1.0000000180025095e-35 35.500000000000007 16200.000000000002 2016.9300000000001 16.500000000000004 175.50000000000003 8.5000000000000018 55800.000000000007 33.500000000000007 2573.5000000000005 11.500000000000002 124.50000000000001 121.04500000000002 32.500000000000007
decision_type=2 2 2 2 2 2 2 2 2 2 2 2 2 2 2 2 2 2 2 2 2 2 2 2 2 2 2 2 2 2 2 2 2 2 2 2 2 2 2 2 2 2 2 2 2 2 2 2 2 2 2 2 2 2 2 2 2 2 2 2 2 2
left_child=1 2 4 7 6 17 18 11 58 13 15 -2 14 22 34 -11 -15 -3 -1 20 30 51 28 -24 33 -12 27 -27 29 35 32 -32 -4 -19 55 -10 37 38 40 52 57 -42 -18 44 45 46 -7 48 -38 50 -50 -5 54 56 -40 -13 -34 -35 -8 -60 -61 -62
right_child=3 5 19 21 -6 43 8 -9 9 10 25 12 -14 16 -16 -17 42 24 -20 -21 -22 -23 23 -25 -26 26 -28 -29 -30 -31 31 -33 53 36 -36 -37 47 -39 39 -41 41 -43 -44 -45 -46 -47 -48 -49 49 -51 -52 -53 -54 -55 -56 -57 -58 -59 59 60 61 -63
leaf_value=-0.016567008622773865 -0.071558857670207421 -0.071453049420084569 0.10510024100776037 -0.0070231946997313692 0.080249526505927066 0.10266101998235042 -0.018912510276578157 -0.070749926233859534 0.40613269110596484 0.0050135569712478319 -0.02609690910655835 -0.048625775043258219 0.16922861244166293 -0.0087645584196855038 0.20637424556920222 0.11680129593854957 0.0080132357908118176 0.21400929848375827 -0.069789326314621619 -0.0088193158963511195 -0.071273381308444836 0.10761445466612309 0.50675114780588815 -0.071684541243146369 0.096883479600907457 0.16395874240534725 -0.0082747520162758988 0.93876807327026501 -0.061479761945979657 0.025729161161595609 0.11603905990223207 0.013108289630432493 -0.052500222699410411 0.050076823892778746 0.14926925514872494 -0.050242805331792574 0.078105204987044569 -0.073575480536868701 0.057544912498671205 0.23723715740251389 0.056359619846175511 -0.031372440583352562 0.17056767627162148 0.1017759924034343 -0.084936100447768365 -0.085248820618859467 -0.094139346156731279 0.11820499003173639 0.12351748396592478 -0.047660717407027077 -0.053041967985813634 0.11286759548433788 -0.075992753625491724 0.25804307187316805 0.19761547769170318 0.34215899065532995 0.0697735062288765 0.18358395962867013 0.054555895777525676 0.46921172666815686 0.1734254353598069 -0.0056259487083648403
leaf_weight=52.895922138355672 17.264872029423714 4.969390074722468 99.712826763279736 18.191672580316666 42.779715850949287 229.44523547589779 5.9192229490727177 2661.4274806613103 0.29174067825078864 10.680675460025666 48.716553718782961 15.462963839992888 6.4101772755384436 16.039184998720888 2.3488850668072692 26.676343452185392 3.4235956110060197 2.4241231661289921 63.371122861281037 10.313536209985612 3.50693729892373 15.522433742880819 0.60147851146757492 0.67124704644083977 52.876856315881014 0.59279307164251693 4.4381342157721519 0.48364474065601826 65.272543177008629 26.180615006946027 12.202652484178541 24.655327076092362 5.7905040290206644 28.168627165257934 1.8840572917833913 33.108262741938233 50.894663443788886 8.8414702340960485 7.0109735317528266 4.6568120494484893 15.07244013622403 25.970953239127994 6.2419688636437058 735.03495952114463 12.532647718675433 7.666069356724619 4.2093850411474696 19.671637911349535 9.6255419366061705 9.7702345885336381 5.1313633024692527 4.6538656614720812 1.7990186419337977 0.97761788498610336 4.0971701517701149 0.33835447579622346 8.1112510440871102 3.1204639077186576 28.482739701867104 0.89865357056260009 6.3683457747101766 2.9003989128395915
leaf_count=2807 1550 453 987 1074 214 1074 245 256358 9 282 2623 1122 49 449 17 269 93 37 5305 255 238 100 22 47 236 26 261 15 5309 1054 85 395 196 428 80 2305 524 416 63 40 209 775 128 3529 522 120 49 163 80 205 62 34 38 18 79 16 107 29 645 15 87 95
internal_value=-0.0135247 0.0668633 0.0199485 -0.0678871 -0.000397578 0.0899739 -0.00893194 -0.0696145 0.00586195 -0.00519087 0.026341 -0.000476225 0.0459317 -0.0242117 0.00648158 0.0848403 0.0370179 0.0613413 -0.0455757 0.074982 0.0805596 0.0538977 -0.0366905 0.201679 0.0639901 -0.013956 0.0932982 0.512081 -0.0391204 -0.0146249 0.0840754 0.0471858 0.0959407 0.0551277 -0.0200672 -0.0462565 0.0531407 0.0359418 0.046713 0.124184 0.0279013 0.000845564 0.11299 0.0973312 0.0844614 0.0932588 0.0991156 0.0709987 0.0586863 0.0183914 0.0621231 0.0173998 0.0833954 0.0345589 0.109209 -0.0402579 0.0188428 0.0633915 0.0662277 0.0792669 0.148492 0.117396
internal_weight=4598.8 1855.3 612.306 2743.5 447.035 1242.99 404.255 2705.14 287.988 243.419 91.5881 43.7093 26.4444 151.831 20.0343 37.357 25.7047 254.102 116.267 165.271 154.957 38.368 126.126 1.27273 249.132 54.2311 5.51457 1.07644 124.853 59.5806 151.45 36.858 114.592 196.255 17.6854 33.4 193.831 98.7379 89.8965 17.564 72.3325 41.0434 9.66556 988.888 253.853 241.321 233.655 95.0934 75.4218 24.5271 14.7569 22.8455 12.9072 14.8794 11.1081 15.8013 13.9018 31.2891 44.5694 38.6501 10.1674 9.26874
internal_count=294117 33717 24586 260400 22305 9131 22091 259192 13979 12892 3476 2834 1284 9416 1235 551 670 3837 8112 2281 2026 1208 8746 69 3384 2925 302 41 8677 3368 1788 480 1308 3148 1218 2314 3111 2077 1661 220 1441 984 221 5294 1765 1243 1123 1034 871 347 142 1108 180 321 142 1138 303 457 1087 842 197 182
is_linear=0
shrinkage=0.07


Tree=10
num_leaves=63
num_cat=0
split_feature=38 5 33 22 5 3 25 3 38 3 1 38 3 5 29 37 3 32 37 0 33 3 37 19 3 19 17 27 30 33 3 3 19 26 5 30 33 37 1 3 0 29 30 30 1 26 1 30 33 37 3 19 20 37 37 33 33 37 1 0 29 30
split_gain=3722.26 371.228 132.286 110.397 67.5104 41.9771 41.1445 28.0254 31.1461 30.2871 27.5222 27.1078 26.4795 22.5723 19.9047 21.3931 19.291 19.0626 17.3708 18.2017 16.8149 16.5684 25.4803 21.3259 14.8949 45.3507 29.6218 15.1824 14.8712 13.9856 14.3826 19.3899 28.8477 21.1705 13.7922 17.9599 13.4945 17.794 13.0665 13.1793 13.71 12.7863 12.3274 13.3824 12.0419 11.6561 11.5887 11.5591 11.5569 11.4553 12.751 22.6035 24.8613 10.7634 10.5561 10.2026 10.1968 12.6608 11.5243 10.06 10.0124 36.3729
threshold=3033.5000000000005 191.25500000000002 1068.9200000000003 1.0000000180025095e-35 65.675000000000026 17.500000000000004 1.0000000180025095e-35 33.500000000000007 296.50000000000006 10.500000000000002 451.50000000000006 110.50000000000001 8.5000000000000018 128.08000000000001 1.0000000180025095e-35 18.500000000000004 12.500000000000002 1.5000000000000002 51.500000000000007 60.500000000000007 243.84500000000003 34.500000000000007 14.500000000000002 1.0000000180025095e-35 31.500000000000004 1.0000000180025095e-35 1.0000000180025095e-35 1.0000000180025095e-35 5400.0000000000009 1116.8000000000002 42.500000000000007 34.500000000000007 1.0000000180025095e-35 1.0000000180025095e-35 29.345000000000002 23400.000000000004 328.30000000000001 22.500000000000004 359.50000000000006 32.500000000000007 132.50000000000003 1.0000000180025095e-35 16200.000000000002 34200.000000000007 3217.5000000000005 1.0000000180025095e-35 2177.5000000000005 45000.000000000007 226.93500000000003 22.500000000000004 24.500000000000004 1.0000000180025095e-35 1.0000000180025095e-35 68.500000000000014 38.500000000000007 278.11500000000007 869.16500000000008 14.500000000000002 3182.5000000000005 53.500000000000007 1.0000000180025095e-35 1.0000000180025095e-35
decision_type=2 2 2 2 2 2 2 2 2 2 2 2 2 2 2 2 2 2 2 2 2 2 2 2 2 2 2 2 2 2 2 2 2 2 2 2 2 2 2 2 2 2 2 2 2 2 2 2 2 2 2 2 2 2 2 2 2 2 2 2 2 2
left_child=1 2 4 5 6 12 10 8 16 14 -1 -12 -2 17 20 -16 -6 -14 19 44 -10 22 46 36 25 26 27 45 -24 30 31 33 -33 49 35 -5 37 55 -18 40 -40 -26 -11 -44 -13 -4 -9 -48 -21 -3 51 52 59 -25 -43 -23 57 -36 -59 -51 61 -38
right_child=3 29 24 34 7 -7 -8 21 9 42 11 18 13 -15 15 -17 38 -19 -20 48 -22 23 28 53 41 -27 -28 -29 -30 -31 -32 32 -34 -35 56 -37 60 -39 39 -41 -42 54 43 -45 -46 -47 47 -49 -50 50 -52 -53 -54 -55 -56 -57 -58 58 -60 -61 -62 -63
leaf_value=-0.05354503799070396 -0.071469518212673389 0.098311605518939152 0.085726004707642495 -0.05376816240979379 -0.00090580962428619591 -0.070698993259132925 0.055878053236889526 0.0035068274561444665 0.22961462073016353 -0.055366364564000986 0.10071763335661814 -0.02084557957019452 -0.017638326316132567 0.16629012394352344 0.015589919152032653 0.14449528511013343 0.0016346828735633516 0.17838407381741839 -0.03779237366431145 -0.0058514936787435303 -0.048172921183141988 0.057997487582804944 0.20723444338860827 -0.0608794114084499 0.090703887975335087 -0.074668944281767638 -0.075664204688222228 -0.071186520935702394 0.07951196657139753 0.099219461985540727 0.10773498097758026 0.070160359952461684 -0.059163233623794727 -0.09366931622527952 0.11018020113591616 0.30548537322959335 0.17365437051673172 0.24978541927763093 0.082589737632535978 -0.072861193024348986 0.18720671074634593 0.13204889911116691 0.20438282455306436 -0.044909208557859071 0.23613470693545238 -0.080132912755701502 0.15523570407603371 -0.0012436173222908917 0.078829026319587978 -0.011527912479262882 0.092994239081837113 -0.078828029559783103 -0.083334201666866212 0.21726765847131696 -0.078872125688553285 0.20479279595890512 0.11753906549731757 -0.052785386889379463 0.15996274308543776 0.088922364429534675 -0.037232933429077533 0.020571657235480913
leaf_weight=88.118863447569311 16.117071939632297 127.89048336911947 94.671775662340224 8.4526927229016984 22.775814317166805 2483.2229277538136 38.457347514107823 13.440222090110185 1.1523289484903205 49.298658332787454 11.014854784123598 54.977767284028232 18.097648265771575 5.6584628261625758 14.331385517492892 11.269006829708813 8.7531749047338945 2.8080801256000987 74.219273208640516 12.378627536818383 14.545715347863732 20.592966239899404 11.08998046629131 11.522678816691037 137.26694256998599 12.2424095030874 6.6342065865173927 3.2736950973048797 7.4795758947730056 606.36939614173025 81.122056171298027 26.019184436649084 12.51815018057823 3.3284154850989571 6.4073245488107231 0.74169606901705343 9.1970368186011893 3.2345897285267702 25.601112131029367 2.1052842186763874 8.0737472465261799 1.6444159559905518 1.9406679701060046 2.3124071657657623 0.90825109649449487 2.1227586809545747 6.8170410245656949 3.5012102816253901 21.813305632211268 5.5522668734192839 50.840984299778938 6.4262637840583912 5.290733288973569 0.7245742669329055 3.96887915302068 2.6145145632326594 13.698761526495217 7.6587099321186525 1.4903967566788194 40.66847937554121 7.9350125091150394 43.946455372497439
leaf_count=6933 1550 674 926 450 647 256358 480 205 50 2899 228 3039 1228 38 273 128 316 18 4933 398 1088 244 60 351 996 533 255 238 85 2977 380 164 108 43 168 35 66 32 392 65 77 15 21 42 39 43 85 51 807 30 264 349 92 26 72 32 144 367 44 213 336 917
internal_value=-0.0132653 0.0628806 0.0296558 -0.067724 0.0116952 -0.0695159 -0.0117574 0.0349654 0.0150781 -0.0107651 -0.0216313 -0.00559013 -0.000684805 0.0422618 0.0342779 0.0723326 0.0514957 0.00869162 -0.0127172 0.00794328 -0.0277817 0.0576607 0.0943575 0.0420915 0.0712359 0.052937 0.0675778 0.0770743 0.155789 0.0927328 0.0817966 0.0742421 0.0281519 0.081643 0.0499962 -0.0247878 0.054198 0.0959731 0.0782956 0.0970498 0.107672 0.0864693 -0.0455017 0.0688421 -0.0166692 0.0820886 0.0463425 0.102139 0.0481718 0.0841085 0.0674101 0.0449597 0.0604027 -0.0444236 -0.0170828 0.0745352 0.0734994 0.0347188 -0.0181285 0.0768558 0.0361128 0.0470642
internal_weight=4398.35 1833.99 867.969 2564.35 606.143 2525.9 301.888 304.255 162.159 94.8502 263.431 175.312 42.6813 26.5642 41.2984 25.6004 67.3091 20.9057 164.297 90.078 15.698 142.096 42.328 99.7678 261.825 118.945 106.702 100.068 18.5696 966.026 359.657 278.535 38.5373 239.998 38.4496 9.19439 87.5206 26.4421 44.5333 35.7801 33.6749 142.88 53.5517 4.25308 55.886 96.7945 23.7585 10.3183 34.1919 236.669 108.779 57.9377 51.5115 12.2473 5.6133 23.2075 29.2552 15.5564 9.14911 46.2207 61.0785 53.1435
internal_count=294117 33717 28423 260400 25345 259192 16857 8488 5998 4501 16377 9444 2834 1284 1539 401 1497 1246 9216 4283 1138 2490 486 2004 3078 1995 1462 1207 145 5294 2317 1937 272 1665 1208 485 1627 308 850 534 469 1083 2962 63 3078 969 341 136 1205 1622 948 684 335 377 87 276 723 579 411 243 1319 983
is_linear=0
shrinkage=0.07


Tree=11
num_leaves=63
num_cat=0
split_feature=38 5 33 22 5 1 3 3 37 0 3 38 0 3 5 3 1 3 33 1 3 38 3 3 3 26 17 30 1 38 3 33 19 30 32 0 5 38 38 37 30 0 37 18 37 29 0 3 32 30 37 3 19 20 6 1 21 3 24 10 29 32
split_gain=3386.04 354.298 119.315 80.5375 60.0346 36.7956 35.5295 26.6389 25.8687 25.4123 25.5128 28.0318 23.6624 21.2419 19.3386 19.3041 16.0322 15.825 15.6655 15.2447 15.7306 26.2542 14.1554 16.9989 25.2272 18.5305 17.5799 13.7302 13.6733 16.7261 13.0049 22.1688 17.4121 16.4418 12.8776 12.7753 12.2528 12.0004 11.7268 11.1616 11.3597 11.1557 16.7611 11.0424 11.4928 15.2505 11.0002 10.6725 31.9206 10.636 10.4663 11.7906 20.7844 21.5542 10.1312 15.7957 9.98491 19.9832 9.97654 9.9246 9.83492 29.3416
threshold=3263.5000000000005 191.25500000000002 1068.9200000000003 1.0000000180025095e-35 65.675000000000026 304.50000000000006 17.500000000000004 48.500000000000007 33.500000000000007 1.0000000180025095e-35 33.500000000000007 243.50000000000003 95.500000000000014 8.5000000000000018 164.72500000000002 10.500000000000002 3252.5000000000005 1.5000000000000002 1116.8000000000002 1774.5000000000002 31.500000000000004 418.50000000000006 42.500000000000007 34.500000000000007 39.500000000000007 1.0000000180025095e-35 1.0000000180025095e-35 16200.000000000002 359.50000000000006 35.500000000000007 34.500000000000007 357.94500000000005 1.0000000180025095e-35 5400.0000000000009 1.5000000000000002 132.50000000000003 105.42000000000002 1361.5000000000002 151.50000000000003 14.500000000000002 9000.0000000000018 129.50000000000003 15.500000000000002 1.0000000180025095e-35 11.500000000000002 1.0000000180025095e-35 85.500000000000014 3.5000000000000004 1.5000000000000002 5400.0000000000009 22.500000000000004 24.500000000000004 1.0000000180025095e-35 1.0000000180025095e-35 1.0000000180025095e-35 1126.5000000000002 1.0000000180025095e-35 28.500000000000004 1.0000000180025095e-35 1.0000000180025095e-35 1.0000000180025095e-35 1.5000000000000002
decision_type=2 2 2 2 2 2 2 2 2 2 2 2 2 2 2 2 2 2 2 2 2 2 2 2 2 2 2 2 2 2 2 2 2 2 2 2 2 2 2 2 2 2 2 2 2 2 2 2 2 2 2 2 2 2 2 2 2 2 2 2 2 2
left_child=1 2 4 6 5 -1 13 8 12 -6 11 28 16 -2 34 17 -7 -13 22 20 21 46 23 25 26 50 -25 -17 -11 -30 31 -12 60 -33 -15 -31 41 -10 -14 -23 -41 -5 -43 44 -22 -46 -4 -19 54 -26 -3 52 53 -52 -49 -56 -53 -58 -29 -48 61 -32
right_child=3 18 19 36 9 7 -8 -9 37 10 30 15 38 14 -16 27 -18 47 -20 -21 43 39 -24 24 49 -27 -28 58 29 35 32 33 -34 -35 -36 -37 -38 -39 -40 40 -42 42 -44 -45 45 -47 59 48 -50 -51 51 56 -54 -55 55 -57 57 -59 -60 -61 -62 -63
leaf_value=-0.05498397150895569 -0.071456749459301097 0.092274011021824059 0.10841729443066765 -0.022698024277307275 0.26021536151907126 -0.00058923343409467762 -0.070644976440703694 0.073116685682097907 -0.010823643197562609 -0.0069699324574613837 0.026595720072675143 -0.070688256992192236 0.20279387156222672 -0.01147949030855471 0.18510410704564034 -0.050074695961341974 0.2849090904536542 0.085459454958371525 0.095487370053152248 0.084111681070548727 0.013851882306959284 0.10031774928570079 0.10296242852966118 -0.070035861140925165 0.043125788509946021 -0.092611551621421845 0.1054281555755944 0.1591612462796626 0.20618189660506478 0.032074659865721576 0.039277709062849858 0.1796901629554124 -0.042958211110147707 0.065149149687821345 0.15072098738691656 0.12121968765319302 0.099303667080826885 -0.057732208945672686 0.063517450041052512 -0.052504951705556052 0.12311085909460641 0.47982759759410637 0.055145056606400955 -0.071621882004429649 0.096661197923931588 -0.065039275912382094 0.01408022096804811 -0.023137042288658965 0.34943002978389681 0.14939470048195466 0.070756199923727614 0.099180738655986062 -0.078170911573448368 -0.082626782021068379 0.48995747810423856 0.00094008491485508209 0.13555021814875731 -0.11276455952651269 -0.0271185828271054 0.14497478550207746 -0.02738792598308078 0.16722761427219782
leaf_weight=74.490570843219757 13.708799088373778 126.76077069528401 15.888043011538683 14.973798814229669 2.3621949153020969 74.931677896529436 2309.6276568192989 22.981342896819115 68.922360762953758 16.192302778363228 19.226170375943184 7.4829976307228199 3.6678365580737617 17.379630818031735 3.6949480324983588 51.36347973626107 0.97634671535342832 15.477110350504516 588.61757050920278 121.87680536322296 11.869240382686256 3.1443098848685649 79.20274294167757 14.157414577901365 13.890562996268274 3.1375864930450907 3.487070456147193 2.7876844350248566 3.9195093102753154 30.786938603967428 71.064793928526342 13.305322475731375 11.700419449247418 11.404105573892592 2.7824066169559947 10.585652682930229 11.557670824229715 43.645636207424104 15.398400013335047 24.037286520935599 1.9513354618102301 0.49699535500258107 5.4376934841275215 2.5314258709549895 59.922683937475085 3.0010999096557489 19.855107145383958 19.976865659467883 1.2814450794830907 6.9108906835317603 46.082577791064978 44.001562811434269 6.3822902692481867 4.9737852979451409 0.49401722103357204 0.93856110610067844 3.0296098068356505 3.3373328298330307 2.8481009416282177 3.3117779185995451 7.7624599924311033 10.020462656393645
leaf_count=6138 1402 674 150 775 47 3431 255681 114 3696 546 296 780 51 1113 22 3116 28 171 2995 1182 77 26 381 117 102 43 18 27 45 529 1234 74 375 113 16 144 67 3694 439 849 15 5 207 136 412 49 261 683 12 35 246 221 377 92 14 37 15 28 48 33 338 75
internal_value=-0.0130006 0.0586637 0.0268015 -0.0680321 0.00985207 -0.0122136 -0.0695466 0.00160708 -0.00631125 0.0314944 0.0297437 0.0108605 0.020594 -0.00201722 0.0378844 -0.011528 0.00308291 0.0223917 0.0884808 0.0658486 0.0505519 0.0260429 0.076875 0.0693929 0.0262082 0.0763774 -0.035359 -0.0386945 0.0482389 0.0679766 0.0511952 0.0829655 0.0373128 0.126826 0.0109045 0.0548834 0.041464 -0.0290114 0.0903105 -0.024248 -0.039319 0.00949176 0.0907097 0.0721649 0.0770315 0.088949 0.0635573 0.0406405 0.0100701 0.0784316 0.0786378 0.0626043 0.0409263 0.055814 -0.010242 0.169575 0.0873252 0.00539213 0.0650229 0.032792 0.0478838 0.0550897
internal_weight=4207.02 1827.36 883.384 2379.66 615.995 305.014 2347.19 230.524 207.542 310.981 308.618 164.135 94.9743 37.5658 23.857 102.65 75.908 45.651 943.972 267.389 145.512 68.1879 355.354 276.151 38.4459 237.706 17.6445 56.9993 61.4844 45.2921 144.484 43.9356 100.548 24.7094 20.162 41.3726 32.4662 112.568 19.0662 29.1329 25.9886 20.9085 5.93469 77.3245 74.793 62.9238 39.0549 38.168 22.6909 20.8015 234.568 107.807 57.4387 51.0564 21.4094 1.43258 50.3685 6.36694 5.63579 23.1669 88.8477 81.0853
internal_count=294117 34829 29485 259288 26295 17591 258234 11453 11339 8704 8657 6152 3949 2553 1151 4888 3459 1697 5344 3190 2008 1334 2349 1968 272 1696 135 3191 1264 718 2505 483 2022 187 1129 673 1054 7390 490 890 864 987 212 674 538 461 444 917 746 137 1653 979 715 338 734 51 264 43 75 294 1647 1309
is_linear=0
shrinkage=0.07


Tree=12
num_leaves=63
num_cat=0
split_feature=38 5 33 22 1 3 38 3 29 3 30 38 3 3 33 37 3 5 3 3 33 3 33 30 38 3 33 3 0 30 32 3 3 19 17 3 3 3 19 26 0 1 33 27 30 32 5 5 37 37 19 5 38 23 29 26 0 23 1 3 29 37
split_gain=3084.65 329.437 101.688 76.0022 52.2096 35.5821 56.653 34.4963 24.7661 25.7858 34.529 23.4718 22.5643 33.59 21.2512 20.5533 19.347 17.5355 16.9283 25.9635 21.6634 19.2834 16.6301 16.2746 15.9217 19.652 17.5892 25.3449 15.0267 14.7682 16.8587 14.0332 13.6324 37.7784 24.0424 13.074 12.8694 14.4457 20.6988 15.8716 12.8256 12.215 12.207 11.8888 11.8077 11.5205 10.9194 10.861 10.5211 10.448 20.5358 14.2396 13.8006 10.3357 9.68598 9.56334 9.53399 9.14041 11.5871 9.67102 22.3447 10.8401
threshold=3263.5000000000005 191.25500000000002 1068.9200000000003 1.0000000180025095e-35 359.50000000000006 33.500000000000007 360.50000000000006 17.500000000000004 1.0000000180025095e-35 23.500000000000004 12600.000000000002 196.50000000000003 35.500000000000007 48.500000000000007 191.58500000000001 7.5000000000000009 8.5000000000000018 128.08000000000001 20.500000000000004 28.500000000000004 565.96500000000015 16.500000000000004 1021.0150000000001 16200.000000000002 35.500000000000007 12.500000000000002 585.70500000000015 14.500000000000002 9.5000000000000018 1.0000000180025095e-35 2.5000000000000004 3.5000000000000004 31.500000000000004 1.0000000180025095e-35 1.0000000180025095e-35 14.500000000000002 42.500000000000007 34.500000000000007 1.0000000180025095e-35 1.0000000180025095e-35 1.5000000000000002 535.50000000000011 743.35500000000013 1.0000000180025095e-35 5400.0000000000009 1.5000000000000002 105.42000000000002 295.41000000000003 23.500000000000004 39.500000000000007 1.0000000180025095e-35 63.505000000000003 35.500000000000007 1.0000000180025095e-35 1.0000000180025095e-35 1.0000000180025095e-35 137.50000000000003 1.0000000180025095e-35 304.50000000000006 12.500000000000002 1.0000000180025095e-35 55.500000000000007
decision_type=2 2 2 2 2 2 2 2 2 2 2 2 2 2 2 2 2 2 2 2 2 2 2 2 2 2 2 2 2 2 2 2 2 2 2 2 2 2 2 2 2 2 2 2 2 2 2 2 2 2 2 2 2 2 2 2 2 2 2 2 2 2
left_child=1 2 4 7 11 6 18 16 23 15 29 -1 14 49 -7 40 -2 45 21 20 41 24 36 -8 -6 31 27 -27 -16 30 -11 -26 33 34 43 -25 37 39 -39 47 -10 -20 -17 55 -30 -18 -5 57 -15 50 51 -14 -51 -21 -34 -4 -53 58 -3 60 -60 -61
right_child=3 22 32 46 5 12 8 -9 9 10 -12 -13 13 48 28 42 17 -19 19 53 -22 -23 -24 35 25 26 -28 -29 44 -31 -32 -33 54 -35 -36 -37 -38 38 -40 -41 -42 -43 -44 -45 -46 -47 -48 -49 -50 52 -52 56 -54 -55 -56 -57 -58 -59 59 61 -62 -63
leaf_value=0.00056837461953321441 -0.071372560081764735 -0.047600087752904828 0.07148074959727363 0.0086246842277032387 0.20557799048810554 0.0075788062342971117 -0.056997094881168851 -0.070600985163738292 0.24023277078705438 0.39534321827125629 0.30094878652349299 -0.063152957435428841 0.0019505068170642471 0.042326428399184227 0.30805327456990278 0.046401954282444327 -0.018880013459997774 0.15346964842443955 0.24991690873887856 -0.042880689537822342 0.21385035707022712 -0.072621213151170122 0.091330704776765539 0.15319990205258222 0.074917355522167328 0.25633784407802895 0.14182719431458132 -0.028205351376915606 0.127557841675457 -0.062803671794782759 -0.023208461771938051 -0.039587879144608054 0.078700796601327339 -0.074376611153694344 -0.075282400886477821 -0.029077703949524261 0.098625363723501974 0.060901753664142536 -0.056246946326939086 -0.09190128793469636 -0.03196858919113079 0.049410489338011225 0.14564025840097933 -0.071064068197799923 0.057301925743233353 0.13162608931242464 0.093744176964040166 0.08918522821969653 0.10138335856400427 0.34342752041347285 -0.056263438042687054 0.069478084715103666 -0.028439580875166872 0.11897814245081464 -0.016656762553221988 -0.079985734077904186 0.23909162762327932 0.10871264504357234 -0.052949360875005118 0.087299533398831217 0.09982380005205406 0.0216244073988766
leaf_weight=52.736596718430519 12.79654415976256 5.79711122624576 100.00020889658481 20.993522906675935 2.6850245464593163 17.559315346181393 81.388588945381343 2154.776718354784 0.89024718664586799 0.74916944000869934 1.4114434635266651 61.191682883538306 20.393871079199016 37.031666561961174 1.604726206511258 21.811378525570039 15.878595849499112 4.8936793357133856 1.6931837517768169 8.1697447486221773 8.7743986602872592 8.7696543810889107 616.05869935452938 3.3497271016240111 7.1100598592311171 1.8293182402849222 11.069354655221103 9.4974371902644616 22.060808025300503 34.241848027333617 1.2724609049037097 19.98756468296051 140.60749779269099 12.012969335541127 6.4159752819687119 4.5433380231261253 65.856697730720043 21.394660890102386 11.290471296757458 2.9037872944027177 17.954077824950218 12.332802787423132 8.4175204522907716 3.0862107751891008 25.01161053776741 2.9559899494051924 11.392085537314413 100.41165618039668 24.601194426417351 0.49435542803257604 13.006415899842976 20.50804339256138 45.233805697411299 2.5323613435029975 5.4207302303984752 2.0851398762315503 1.7635015407577146 14.136377230286596 11.095511671155691 43.329466665163636 8.1272953003644943 17.204643227159977
leaf_count=2043 1402 75 953 987 34 369 6644 255681 28 45 10 5802 1035 180 14 389 1102 33 22 237 75 364 3328 74 106 14 102 152 114 2837 68 799 1032 566 255 91 325 137 104 42 503 153 86 254 300 16 67 522 117 9 513 433 2490 16 87 43 27 63 241 267 37 203
internal_value=-0.0127338 0.0553636 0.0248488 -0.0678843 0.00910574 0.0188543 0.00165774 -0.0694575 -0.0218089 0.00482807 -0.0387285 -0.0336568 0.039142 0.0251447 0.0735948 0.0382677 -0.00199847 0.0354147 0.045393 0.0853639 0.127583 0.0234215 0.0847377 -0.04769 0.0395633 0.030557 0.0790754 0.0177496 0.0974088 -0.0519494 0.131897 -0.00954321 0.0606802 0.0435718 0.0562695 0.0482788 0.0712682 0.0636241 0.0204349 0.0705778 -0.0191092 0.0736151 0.0740358 0.0642949 0.0902278 0.00474113 0.0385666 0.0729357 0.0658994 0.000373131 0.0207374 0.0442109 -0.0244194 -0.00458121 0.075161 0.068387 0.0829084 0.0565685 0.0479526 0.0548978 0.0116423 0.0686337
internal_weight=4024.6 1800.91 883.307 2223.69 613.678 499.75 270.481 2191.3 176.03 86.7481 37.6749 113.928 229.269 163.033 66.2365 49.0732 36.5248 23.7283 94.4509 33.5025 22.8004 60.9484 917.606 89.2817 52.1788 49.4937 22.3961 11.3268 48.6771 36.2635 2.02163 27.0976 269.629 123.601 111.588 7.89307 301.548 235.691 32.6851 203.006 18.8443 14.026 30.2289 105.172 47.0724 18.8346 32.3856 200.102 61.6329 101.4 55.6718 42.6654 45.7282 10.7021 146.028 102.085 22.2715 99.6904 85.554 79.7569 19.2228 60.5341
internal_count=294117 34829 29485 259288 26295 18450 12849 258234 10775 3966 2960 7845 5601 4804 797 1006 2553 1151 2074 503 250 1571 5344 6809 1207 1173 268 166 428 2950 113 905 3190 2071 1505 165 2016 1691 241 1450 531 175 475 1250 414 1118 1054 1408 297 4507 2008 1495 2499 253 1119 996 460 886 823 748 278 470
is_linear=0
shrinkage=0.07


Tree=13
num_leaves=63
num_cat=0
split_feature=38 5 33 27 25 37 28 38 0 30 3 3 29 19 3 3 5 19 3 3 30 30 1 35 37 24 35 26 0 33 37 33 19 5 7 3 1 38 1 1 33 22 3 3 3 3 0 5 1 3 38 33 37 30 33 37 33 0 3 37 5 3
split_gain=2818.36 352.327 106.752 63.0271 44.8654 44.2081 32.4488 29.4967 22.0714 19.3861 24.2255 32.965 58.3295 19.9858 43.2718 20.7946 18.4282 23.9013 36.1372 33.0485 24.4214 16.7698 14.9402 14.8534 16.3428 14.4854 14.0691 13.1181 13.5722 12.3648 28.3702 18.7835 28.5978 12.1124 12.1112 13.4858 12.1057 14.3615 14.5488 11.6672 11.4558 11.1885 11.0377 18.4658 10.8453 10.3823 10.3518 10.3251 10.2585 10.2433 10.2105 10.1645 11.735 10.918 12.859 9.76697 9.70636 12.0976 9.62975 12.6499 9.59997 9.55526
threshold=4651.5000000000009 191.25500000000002 1370.7350000000004 1.0000000180025095e-35 1.0000000180025095e-35 25.500000000000004 1.0000000180025095e-35 196.50000000000003 94.500000000000014 1.0000000180025095e-35 10.500000000000002 26.500000000000004 1.0000000180025095e-35 1.0000000180025095e-35 33.500000000000007 3.5000000000000004 295.41000000000003 1.0000000180025095e-35 33.500000000000007 35.500000000000007 5400.0000000000009 5400.0000000000009 590.50000000000011 1.0000000180025095e-35 19.500000000000004 1.0000000180025095e-35 1.5000000000000002 1.0000000180025095e-35 60.500000000000007 502.21500000000009 4.5000000000000009 852.32500000000016 1.0000000180025095e-35 81.835000000000022 1.0000000180025095e-35 40.500000000000007 55.500000000000007 35.500000000000007 1516.5000000000002 1840.5000000000002 768.81500000000017 1.0000000180025095e-35 5.5000000000000009 31.500000000000004 28.500000000000004 36.500000000000007 136.50000000000003 91.240000000000023 2433.5000000000005 40.500000000000007 1025.5000000000002 932.3850000000001 17.500000000000004 1.0000000180025095e-35 608.94500000000016 4.5000000000000009 311.62500000000006 134.50000000000003 33.500000000000007 39.500000000000007 38.975000000000001 8.5000000000000018
decision_type=2 2 2 2 2 2 2 2 2 2 2 2 2 2 2 2 2 2 2 2 2 2 2 2 2 2 2 2 2 2 2 2 2 2 2 2 2 2 2 2 2 2 2 2 2 2 2 2 2 2 2 2 2 2 2 2 2 2 2 2 2 2
left_child=1 2 3 4 5 8 7 27 29 10 61 25 45 15 -15 -11 17 51 -19 20 -20 -16 -4 34 39 -12 -24 28 -7 -1 31 32 47 -32 -10 44 -30 42 58 -25 -35 -2 -38 -44 -36 -13 -26 -31 -41 -14 -47 52 -3 -54 -55 -22 57 -17 -39 -60 -43 -9
right_child=41 16 22 -5 -6 6 -8 9 23 13 11 12 49 14 21 56 -18 18 19 -21 55 -23 26 24 46 -27 -28 -29 36 30 33 -33 -34 40 35 -37 37 38 -40 48 -42 60 43 -45 -46 50 -48 -49 -50 -51 -52 -53 53 54 -56 -57 -58 -59 59 -61 -62 -63
leaf_value=0.0044682306389788777 -0.070369182044457079 0.08558348283745966 0.018729473626464137 -0.070630464012705618 0.051845818197302433 -0.048537138632706804 0.4998484253468839 0.071395551455844558 0.074737967549987766 0.049132510862913446 -0.07105195916202757 0.12121532105517188 0.20049040815939867 -0.070615612841971792 0.127239374959354 -0.036787422017740767 0.087893986765135351 -0.081786463334465001 0.11417570090782873 -0.074391358844593539 -0.048196388304841492 0.0062925915305231273 0.052029114532292073 -0.043506219102816122 0.25669269375418458 0.30563516385586381 0.089787620502082971 -0.072111636680573174 -0.045927846747344271 0.52657838523115075 -0.013261990092107165 0.016223087551407861 0.059916089335044061 0.020750670099212498 0.19703200602119084 0.36275878496466163 -0.043365159365445952 -0.0045786572151998578 0.12226960444150983 0.14774106221332564 0.12675405960664451 -0.077310488261111018 0.31007337535852003 0.041219549703532019 -0.0051175614274407292 0.40729752221069754 0.050275278106528307 0.26554433458998716 0.0045146531052014539 -0.065532369950764571 0.17645173720829777 0.093338685172194888 0.10159649434461512 0.10152577495411501 -0.0069867249947503695 0.048024405637572133 -0.052555652480823889 0.17410331293587952 0.39600103452368995 0.061454707676966355 0.14081459251868761 0.23442994634511008
leaf_weight=125.92140043200925 1994.0140165290795 46.735876124352217 33.643384112045169 47.930024432949722 117.05174347572029 7.3093616152182213 0.60546907596290012 4.9510659528896204 16.598330495879058 11.249073589220641 23.07211246248335 6.7066759094595909 0.75575242843478996 17.684728477150202 13.040794397704305 3.6609727777540675 621.27986057382077 11.391066021285949 31.264908865094185 8.6809732615947706 6.9401291012764004 9.8681225972250086 106.07038944913074 11.128958592191344 2.2922051930800071 0.51131172850727935 88.864034264814109 5.5701439259573808 5.3318472262471905 1.3755313344299778 22.303072418086231 2.733072710223496 2.3656089631840587 13.30876654898748 4.1413050964474669 1.5888809477910397 1.0529784131795157 19.002851572819058 9.8913425756618363 3.9892980307340604 7.9974472359754136 1.742948836646973 3.2009487431496382 2.0557114342227578 1.8957483302801845 1.5103519754484298 2.4768103193491697 1.6133919032290576 6.3520097937434912 11.526325950399039 2.4811835000291467 109.90983005613089 9.2666466850787383 6.7488265801221123 25.838071789592505 20.256713189184666 156.81494513433427 2.0958953518420458 0.59421430807560582 8.1477520866319519 2.2846095636487007 2.7342994352802634
leaf_count=4439 253342 247 503 5481 1162 324 10 58 301 100 1957 74 27 2078 89 106 3337 599 165 98 44 139 834 225 48 4 564 260 346 28 1120 30 26 343 74 30 33 706 101 63 143 78 43 58 35 34 45 18 116 673 16 597 55 36 231 104 11927 46 17 258 52 20
internal_value=-0.0124779 0.0497454 0.0200988 0.00693969 0.012435 0.00419013 -0.0121328 -0.0130698 0.027909 -0.0231236 0.014259 -0.00474504 0.0549209 -0.0325818 0.0116417 -0.0429096 0.081199 0.0661848 0.0334964 0.0530546 0.071979 0.075141 0.0618072 0.0687619 0.0322721 -0.062885 0.0692419 0.030386 0.0404753 0.0163022 0.0451269 0.165541 0.241756 0.0227954 0.108287 0.181309 0.0536785 0.0657636 0.0493788 0.00623566 0.0605398 -0.0701338 0.163496 0.204933 0.133553 0.174415 0.149489 0.385675 0.0597662 -0.0491632 0.263801 0.0791175 0.0614739 0.0345518 0.0154865 0.0234706 -0.0492785 0.0399913 0.0233925 0.0841947 0.0464197 0.1294
internal_weight=3849.42 1851.38 953.068 724.49 676.56 559.508 331.426 330.821 228.082 268.664 54.2491 46.5637 22.9803 214.415 40.5936 173.821 898.313 277.033 78.5338 67.1427 58.4618 22.9089 228.578 50.4635 26.2393 23.5834 194.934 62.1572 56.587 177.618 51.6969 8.0876 5.35453 43.6093 24.2243 7.62593 49.2776 43.9458 37.6362 21.4703 21.3062 1998.04 6.30964 5.25666 6.03705 10.6982 4.76902 2.98892 10.3413 12.2821 3.99154 198.499 88.5894 41.8535 32.5869 27.1968 162.572 5.75687 27.7448 8.74197 4.02756 7.68537
internal_count=294117 40645 35132 33231 27750 26588 19504 19494 7084 17348 2863 2785 824 14485 2306 12179 5513 2176 1010 411 313 228 1901 937 497 1961 1398 2146 1886 6147 1708 102 72 1606 440 139 1562 1216 1082 404 486 253472 134 101 109 124 93 46 179 700 50 1166 569 322 267 148 12079 152 981 275 130 78
is_linear=0
shrinkage=0.07


Tree=14
num_leaves=63
num_cat=0
split_feature=38 5 33 27 3 37 30 38 0 5 19 3 3 30 24 22 3 3 29 17 3 21 19 3 3 1 35 3 30 37 33 37 33 0 37 30 0 19 37 0 33 35 37 7 1 19 3 33 37 30 33 38 0 5 3 1 1 31 35 3 1 19
split_gain=2579.14 334.986 91.6831 60.8556 40.0866 41.6825 29.6203 23.6167 22.913 19.491 21.2639 32.8717 29.0323 21.8188 18.2396 17.5571 16.3802 28.3406 62.1158 25.176 18.5206 18.4754 15.6125 35.2534 13.1908 13.1242 13.5487 13.1217 12.5716 11.9359 11.8102 13.3988 28.0596 33.2822 17.8304 13.1644 12.0504 10.8369 10.1881 9.98411 11.9208 9.90231 14.8772 11.4434 10.4242 9.84692 9.63257 9.61881 10.355 9.5029 11.0658 9.36091 9.28092 12.7312 10.4999 9.95745 9.27977 9.15382 9.14247 9.04052 9.03986 9.03497
threshold=4976.5000000000009 191.25500000000002 1370.7350000000004 1.0000000180025095e-35 48.500000000000007 28.500000000000004 1.0000000180025095e-35 360.50000000000006 94.500000000000014 295.41000000000003 1.0000000180025095e-35 33.500000000000007 35.500000000000007 5400.0000000000009 1.0000000180025095e-35 1.0000000180025095e-35 16.500000000000004 24.500000000000004 1.0000000180025095e-35 1.0000000180025095e-35 8.5000000000000018 1.0000000180025095e-35 1.0000000180025095e-35 33.500000000000007 12.500000000000002 590.50000000000011 1.5000000000000002 3.5000000000000004 5400.0000000000009 23.500000000000004 718.81500000000017 7.5000000000000009 328.30000000000001 16.500000000000004 2.5000000000000004 12600.000000000002 45.500000000000007 1.0000000180025095e-35 20.500000000000004 36.500000000000007 864.75500000000011 1.0000000180025095e-35 19.500000000000004 1.0000000180025095e-35 1800.5000000000002 1.0000000180025095e-35 35.500000000000007 932.3850000000001 17.500000000000004 1.0000000180025095e-35 559.7750000000002 35.500000000000007 1.0000000180025095e-35 115.88000000000001 40.500000000000007 3148.5000000000005 2864.5000000000005 1.0000000180025095e-35 2.5000000000000004 40.500000000000007 2548.5000000000005 1.0000000180025095e-35
decision_type=2 2 2 2 2 2 2 2 2 2 2 2 2 2 2 2 2 2 2 2 2 2 2 2 2 2 2 2 2 2 2 2 2 2 2 2 2 2 2 2 2 2 2 2 2 2 2 2 2 2 2 2 2 2 2 2 2 2 2 2 2 2
left_child=1 2 3 4 5 8 14 60 30 10 47 -12 13 -13 15 16 19 21 37 20 -7 -18 27 -24 -22 -4 61 -9 -25 -6 31 32 52 34 -34 -35 -33 57 39 40 -32 43 44 -10 -43 -36 -39 48 51 -50 -51 -3 53 -1 -54 -56 -37 -19 -15 -20 -8 -27
right_child=-2 9 25 -5 29 6 7 22 41 -11 11 12 -14 58 -16 -17 17 18 59 -21 24 -23 23 28 -26 26 -28 -29 -30 -31 38 36 33 35 45 56 -38 46 -40 -41 -42 42 -44 -45 -46 -47 -48 -49 49 50 -52 -53 54 -55 55 -57 -58 -59 -60 -61 -62 -63
