tree
version=v4
num_class=1
num_tree_per_iteration=1
label_index=0
max_feature_idx=38
objective=binary sigmoid:1
feature_names=step customer zipcodeOri merchant zipMerchant amount age_1 age_2 age_3 age_4 age_5 age_6 age_U gender_F gender_M gender_U category_es_contents category_es_fashion category_es_food category_es_health category_es_home category_es_hotelservices category_es_hyper category_es_leisure category_es_otherservices category_es_sportsandtoys category_es_tech category_es_transportation category_es_travel category_es_wellnessandbeauty time_since_last_txn is_night_txn txn_count_1h txn_amount_sum_24h amount_zscore_24h pair_txn_count_sofar is_first_interaction cust_txn_count_sofar merch_txn_count_sofar
feature_infos=[0:179] [0:3274] none [0:49] none [0:7635.4099999999999] [0:1] [0:1] [0:1] [0:1] [0:1] [0:1] [0:1] [0:1] [0:1] none [0:1] [0:1] [0:1] [0:1] [0:1] [0:1] [0:1] [0:1] [0:1] [0:1] [0:1] [0:1] [0:1] [0:1] [0:399600] [0:1] [1:5] [0.14000000000000001:24875.119999999999] none [0:162] [0:1] [1:264] [1:241492]
tree_sizes=6606 6665 6690 6716 6711 6715 6747 6753 6768 6750 6739 6767 6759 6761 6775 6809 6785 6813 6798 6782 6790 6827 6811 6806 6829 6804 6824 6804 6829 6827 6809 6814 6845 6813 6847 6832 6840 6808 6830 6836 6822 6827 6793 6838 6832 6821 6819 6809 6798 6805 6818 6795 6818 6811 6828 6837 6812 6788 6843 6819 6793 6796 6796 6822 6811 6842 6810 6802 6829 6803 6758 6805 6805 6849 6792 6854 6787 6809 6834 6771 6777 6845 6794 6827 6836 6816 6824 6839 6841 6836 6813 6848 6851 6837 6799 6860 6859 6839 6843 6809 6827 6788 6824 6766 6845 6835 6800 6782 6883 6819 6800 6800 6806 6784 6809 6847 6802 6799 6826 6818 6870 6774 6841 6782 6831 6785 6826 6875 6853 6814 6797 6815 6783 6762 6863 6860 6876 6924 6914 6850 6890 6791 6835 6873 6806 6895 6843 6859 6844 6856 6925 6905 6942 6834 6845 6820 6869 6920 6836 6840 6850 6880 6850 6953 6867 6850 6925 6788 6852 6871 6900 6904 6929 6928 6842 6923 6881 6901 6879 6868 6917 6884 6901 6863 6898 6864 6864 6913 6840 6911 6831 6922 6906 6897 6819 6936 6859 6922 6884 6867 6905 6857 6885 6933 6930 6878 6922 6919 6894 6897 6901 6887 6850 6909 6879 6919 6923 6810 6918 6913 6960 6945 6947 6915 6917 6922 6882 6926 6984 6924 6893 6968 6919 6915 6839 6893 6897 6905 6895 6913 6840 6918 6868 6932 6872 6871 6908 6881 6988 6929 6884 6948 6985 7008 6915 6938 6881 6932 6913 6937 6897 6913 6890 6933 6941 6919 6945 6987 6939 6854 6939 6888 6940 6924 6847 6949 6953 6962 6953 6949 6957 6893 6936 6967 6967 6879 6955 6947 6940 6919 6919 6952 6977 6969 6884 6921 6960 6914 6921 6886

Tree=0
num_leaves=63
num_cat=0
split_feature=5 3 3 5 33 33 5 27 38 33 33 30 23 19 3 3 22 3 5 33 20 26 30 3 33 19 32 5 19 3 17 17 1 3 33 33 33 33 0 21 33 19 3 3 33 3 37 38 3 37 38 3 35 1 25 3 3 3 3 30 0 20
split_gain=71886.3 7485.13 3061.77 3036.22 2493.74 1366.25 1298.74 719.22 675.27 1097.61 577.467 416.607 353.527 332.651 300.867 575.767 303.504 299.076 240.62 231.281 230.218 200.2 193.157 191.244 180.614 178.384 254.698 139.63 169.494 238.993 120.001 117.441 111.415 110.44 106.692 100.642 99.1862 96.2138 96.1193 94.951 86.9001 86.5337 395.263 585.983 235.052 131.717 172.878 83.0421 73.1915 83.3903 73.151 70.283 65.0617 61.1122 58.1105 56.9554 56.8651 133.673 99.4516 55.5436 54.966 54.3383
threshold=197.44000000000003 48.500000000000007 1.0000000180025095e-35 99.140000000000015 1744.8800000000003 7550.755000000001 256.94500000000005 1.0000000180025095e-35 2122.5000000000005 1744.8800000000003 1619.2750000000003 9000.0000000000018 1.0000000180025095e-35 1.0000000180025095e-35 33.500000000000007 35.500000000000007 1.0000000180025095e-35 33.500000000000007 128.57000000000002 486.44500000000005 1.0000000180025095e-35 1.0000000180025095e-35 12600.000000000002 35.500000000000007 462.31500000000005 1.0000000180025095e-35 1.5000000000000002 295.36500000000007 1.0000000180025095e-35 33.500000000000007 1.0000000180025095e-35 1.0000000180025095e-35 468.50000000000006 3.5000000000000004 640.45500000000015 577.15500000000009 775.04500000000019 4346.6200000000008 96.500000000000014 1.0000000180025095e-35 292.41500000000002 1.0000000180025095e-35 33.500000000000007 35.500000000000007 357.19500000000005 3.5000000000000004 33.500000000000007 104.50000000000001 39.500000000000007 94.500000000000014 197.50000000000003 27.500000000000004 1.5000000000000002 1576.5000000000002 1.0000000180025095e-35 12.500000000000002 20.500000000000004 15.500000000000002 8.5000000000000018 16200.000000000002 139.50000000000003 1.0000000180025095e-35
decision_type=2 2 2 2 2 2 2 2 2 2 2 2 2 2 2 2 2 2 2 2 2 2 2 2 2 2 2 2 2 2 2 2 2 2 2 2 2 2 2 2 2 2 2 2 2 2 2 2 2 2 2 2 2 2 2 2 2 2 2 2 2 2
left_child=1 3 -2 5 11 8 10 -7 9 22 13 12 14 20 25 19 -17 -15 -18 -16 21 48 39 34 -3 26 33 28 61 -30 32 56 -11 -5 -19 -31 -24 60 40 41 -13 45 -43 44 -44 46 -1 -41 49 -4 53 -22 -34 -35 -47 -56 57 58 -28 -10 -6 -8
right_child=2 24 6 4 37 7 27 -9 59 30 -12 38 -14 17 15 16 18 23 -20 -21 51 -23 36 -25 -26 -27 31 -29 29 35 -32 -33 52 50 -36 -37 -38 -39 -40 47 -42 42 43 -45 -46 54 -48 -49 -50 -51 -52 -53 -54 -55 55 -57 -58 -59 -60 -61 -62 -63
leaf_value=-2.9589822757718425 -3.069232272403994 -2.0579736826056401 -1.859993455839887 -2.2688989635187462 -1.8612757875647692 -1.7124460235276788 -1.5898222829940174 -3.069232272403994 -3.0682641561885329 -2.6576322849772946 -1.5894547946715392 -2.82711463274123 -1.5257323195538737 -3.0692322724039935 -2.6833572841914646 -2.9559863519503167 -2.7526168974603795 -2.4034087633313934 -1.5257323195538748 -1.6697923151532186 -3.0692322724039935 -2.6950504656524501 -2.8611199192107191 -3.0692322724039935 -1.5815214744761672 -3.069232272403994 -2.5269214781593572 -1.5558731060347264 -3.069232272403994 -2.377318500436699 -2.9095598634884641 -3.0692322724039935 -2.2273232072130194 -2.8419684756653258 -1.7462323128181769 -1.6426641341637318 -2.415206868653943 -1.6080523170392138 -2.239114650703089 -2.4237686557575797 -2.4077322926110853 -3.069232272403994 -2.7130399755924275 -3.0269446024628945 -1.7327871912776704 -3.0417428833232982 -2.2187322983845403 -2.9421205115810429 -1.6061229420981513 -2.4421854165586327 -2.9926046151703001 -2.2607322971015504 -1.8040683766252072 -2.3240943641315224 -3.0015349060509182 -2.631212015514095 -1.9116073077664046 -3.0177822739756563 -1.6972323143149992 -2.8726080745886917 -2.3403572946692153 -2.1045448018726702
leaf_weight=5.0793652534484854 7.8911567330360404 5.2607711553573635 7.1201816499233228 1.2244898378849018 4.172335743904112 5.6235829591751099 13.106576412916183 2.9024944305419904 4772.1543585658073 2.0408163964748347 9.8866216540336591 4.6258504986762983 0.95238098502159019 3.4467121362686175 1.632653117179873 16.689342975616459 1.7687075436115258 2.31292524933815 1.4058957397937772 3.4013606607913971 1.1791383624076837 1.4965986907482154 28.253969222307209 1.1337868869304655 15.056689858436583 33.514740377664566 1.6780045926570886 143.99093464016914 0.99773246049880882 1.31519278883934 1.3151927888393409 1.2698413133621214 4.9886623024940491 7.3922905027866346 2.5396826267242432 2.9931973814964294 2.6757370531558982 6.8027213215827942 5.3968255817890158 2.4943311512470236 5.0793652534484863 25.532880693674088 1.7687075436115245 6.6213154196739197 3.7188209891319275 239.36508756875992 2.2222222983837128 3.8548754155635834 4.3537416458129892 1.4512472152709959 31.972790211439133 0.95238098502159108 2.7664400041103363 1.31519278883934 5.1700682044029218 3.3560091853141785 1.2698413133621214 1.3605442643165586 1.2244898378849027 7.1201816499233237 1.6326531171798704 1.0884354114532477
leaf_count=112 174 116 157 27 92 124 289 64 105226 45 218 102 21 76 36 368 39 51 31 75 26 33 623 25 332 739 37 3175 22 29 29 28 110 163 56 66 59 150 119 55 112 563 39 146 82 5278 49 85 96 32 705 21 61 29 114 74 28 30 27 157 36 24
internal_value=-2.99573 -3.04588 -1.7169 -3.05106 -2.72434 -3.05971 -1.66337 -2.17433 -3.06118 -2.96605 -2.04479 -2.82032 -2.86844 -2.21802 -2.88038 -2.66719 -2.83665 -2.54979 -2.20928 -1.99852 -2.02896 -1.9286 -2.98908 -2.25071 -1.70489 -2.94493 -2.85941 -1.57968 -1.75546 -2.093 -2.28173 -2.46212 -2.19744 -2.9239 -2.05947 -1.86693 -2.82254 -1.78668 -2.47593 -3.00629 -2.60762 -3.0121 -2.91302 -2.58364 -2.04874 -3.02672 -2.73369 -2.73848 -1.83985 -1.95857 -2.94362 -2.70799 -2.07634 -2.76375 -3.03535 -2.85577 -2.32279 -2.44526 -2.1769 -3.06797 -1.99602 -1.62929
internal_weight=5492.38 5285.12 207.256 5264.81 135.782 5129.03 199.365 8.52608 5120.5 341.225 35.873 123.175 108.073 25.9864 107.12 24.898 19.8639 9.43311 3.1746 5.03401 16.5533 14.4218 330.113 5.98639 20.3175 82.2222 48.7075 163.492 19.5011 5.30612 11.1111 6.80272 9.79592 41.9048 4.85261 4.30839 30.9297 12.6077 15.102 299.184 9.70522 292.834 37.6417 12.1088 5.48753 255.193 7.30159 6.34921 12.9252 8.57143 40.6803 2.13152 7.7551 8.70748 247.891 8.52608 5.53288 4.26304 2.90249 4779.27 5.80499 14.195
internal_count=121107 116537 4570 116089 2994 113095 4396 188 112907 7524 791 2716 2383 573 2362 549 438 208 70 111 365 318 7279 132 448 1813 1074 3605 430 117 245 150 216 924 107 95 682 278 333 6597 214 6457 830 267 121 5627 161 140 285 189 897 47 171 192 5466 188 122 94 64 105383 128 313
is_linear=0
shrinkage=1


Tree=1
num_leaves=63
num_cat=0
split_feature=5 38 33 3 3 5 19 3 33 3 30 37 33 22 32 33 3 1 38 3 21 3 0 33 37 5 30 3 3 38 5 0 1 38 21 37 3 3 3 3 30 33 38 33 3 3 38 17 3 1 37 0 33 17 38 3 32 33 5 0 3 3
split_gain=22452.8 1723.53 931.09 880.172 596.495 344.722 196.873 504.984 171.621 134.049 98.2789 79.3562 75.8493 73.0789 131.645 107.099 67.546 61.9949 100.293 55.1609 61.4035 51.0179 47.6574 46.4931 71.8376 43.1957 42.7178 37.1995 37.1776 53.793 36.5637 38.9656 34.9997 33.0995 33.0045 32.6929 31.8566 30.4948 30.4218 34.6291 30.1045 27.5147 28.5916 27.4341 26.6556 186.66 34.3752 32.4517 32.1182 34.3036 28.3432 26.1401 25.2526 24.9808 23.1879 22.9453 129.106 28.3447 22.5184 22.0653 21.6228 55.4797
threshold=117.44500000000001 1429.5000000000002 1395.4450000000002 1.0000000180025095e-35 48.500000000000007 174.61000000000004 1.0000000180025095e-35 33.500000000000007 1744.8800000000003 42.500000000000007 9000.0000000000018 74.500000000000014 192.33500000000004 1.0000000180025095e-35 1.5000000000000002 1925.5200000000002 6.5000000000000009 468.50000000000006 104.50000000000001 3.5000000000000004 1.0000000180025095e-35 12.500000000000002 82.500000000000014 1259.7800000000004 119.50000000000001 336.28000000000003 16200.000000000002 11.500000000000002 33.500000000000007 231.50000000000003 224.42500000000004 113.50000000000001 388.50000000000006 3201.5000000000005 1.0000000180025095e-35 23.500000000000004 10.500000000000002 42.500000000000007 31.500000000000004 18.500000000000004 1.0000000180025095e-35 732.69500000000005 1971.5000000000002 1229.4700000000003 33.500000000000007 35.500000000000007 272.50000000000006 1.0000000180025095e-35 3.5000000000000004 1101.5000000000002 1.5000000000000002 95.500000000000014 456.55000000000001 1.0000000180025095e-35 104.50000000000001 10.500000000000002 1.5000000000000002 977.0150000000001 67.085000000000022 22.500000000000004 20.500000000000004 31.500000000000004
decision_type=2 2 2 2 2 2 2 2 2 2 2 2 2 2 2 2 2 2 2 2 2 2 2 2 2 2 2 2 2 2 2 2 2 2 2 2 2 2 2 2 2 2 2 2 2 2 2 2 2 2 2 2 2 2 2 2 2 2 2 2 2 2
left_child=1 2 4 -2 10 8 13 -8 9 11 17 22 -9 26 15 -15 -13 -1 21 58 27 -19 35 24 30 38 55 -21 29 -29 31 36 54 -28 -18 41 59 -38 39 -26 -23 42 -5 -24 46 52 60 -47 49 -48 -49 -51 -46 -34 -4 56 57 -3 -12 -7 -20 -62
right_child=3 6 32 5 -6 23 7 12 -10 -11 19 16 -14 14 -16 -17 34 18 44 20 -22 40 43 -25 25 -27 33 28 -30 -31 -32 -33 53 -35 -36 -37 37 -39 -40 -41 -42 -43 -44 -45 45 47 48 50 -50 51 -52 -53 -54 -55 -56 -57 -58 -59 -60 -61 61 -63
leaf_value=-0.04619074752059462 -0.073413539851796161 -0.059919855837536395 0.32912278020615277 0.13748253604078842 0.37876367054236426 0.679909027940656 -0.073353780054150317 0.075809238726543049 0.40488007926613001 0.37791947066520787 0.24932181846353799 0.4719865311371671 0.47900618057686029 -0.026053246783256566 0.70641934489022828 0.545350515906871 0.00062810627873354158 -0.019573511899852774 0.042908009648925854 -0.023836095181009247 0.53047769022390434 0.22452304459186115 0.2799042055552321 0.39919516819014905 0.28346327732230137 0.36251043503144426 0.4012969572287573 0.48440904265195672 0.068090860191461863 0.095118509809557869 0.38425200823364963 0.42277066217062853 0.39073014467519884 -0.012607049613576945 0.31264685449444479 0.060386314194407716 0.18873490039771662 0.36520727393886432 0.27748164333841774 -0.034935550961424339 0.52398446609451421 0.41051158183419201 0.43921998825596659 0.57803071418459584 0.12618750080297633 -0.02206198913804111 -0.073484695652809545 0.0064442568617329313 -0.046507663453271002 0.054584477436925655 0.57036229226040003 0.32853584623241577 0.46177056025039587 0.17430311069685173 0.01702412478400913 -0.073102399753638123 0.77248915828051212 0.15370797083111898 0.64777965387072756 0.34305709036671833 0.54469888889194007 -0.033007395544595884
leaf_weight=97.025341674685478 23.350842244923115 31.407077748328447 2.40183525905013 11.841989908367401 23.820581778883934 1.290914293378594 37.59644778072834 2.8027621097862712 26.26556109637022 16.598208509385586 1.7299555167555802 1.7830396182835127 12.404348779469727 35.466551426798105 1.3386155329644669 1.6835842207074154 21.373617898672823 2.5369457863271219 11.329818740487097 12.486778441816567 1.5038463249802578 3.9766831658780575 13.541926577687262 366.40443231910467 2.4997649714350718 8.9205707609653455 1.6180459409952157 3.0046349763870266 16.657492473721504 4.1300984025001526 199.0764630176127 11.132522359490393 45.378440991044044 2.2817729040980339 1.8011264763772477 10.309520043432711 17.847196720540527 6.5623214840888968 6.4167669638991356 5.0653923749923706 2.8053213395178318 3.0116839706897727 1.7685942947864521 1.7026257291436184 1.3793375231325615 34.102100439369678 4.307538650929926 0.87698467820882686 67.672028329223394 3.7781355977058411 0.86996383965015411 3.1128862649202347 5.4015821367502213 2.772925939410924 2.2678857780992985 4448.5498480089009 0.9874173142015924 3.369893290102481 1.1616399362683294 3.6386311203241348 1.5831510610878459 1.6777814477682114
leaf_count=2173 542 733 29 203 191 15 879 55 207 159 32 23 144 806 20 25 429 46 225 236 27 73 203 2599 28 62 30 53 302 78 1474 121 420 45 29 192 242 54 56 91 49 42 30 19 20 777 98 20 1542 66 20 46 42 40 40 104700 15 69 19 37 32 33
internal_value=-0.0039024 -0.0584713 0.0890601 0.349717 0.042343 0.363089 -0.0700609 0.0643213 0.248765 0.199795 0.0140369 0.155755 0.404695 -0.0716284 0.0244162 -0.00015815 0.0568204 -0.00285634 0.0260587 0.114727 0.0921758 0.248219 0.214299 0.383086 0.360597 0.242155 -0.072452 0.0740072 0.125358 0.25906 0.371921 0.311267 0.360522 0.159123 0.024878 0.158317 0.268957 0.236178 0.165368 0.0702734 0.348393 0.219056 0.176691 0.313201 0.010846 0.0567167 -0.0100767 -0.00698803 -0.0283361 0.0814733 0.28727 0.178337 0.393508 0.378267 0.17755 -0.0726534 -0.0168089 -0.0392193 0.409394 0.431269 0.0886247 0.247463
internal_weight=5701.46 4939.26 359.752 762.204 306.931 738.853 4579.51 52.8036 109.998 83.7323 283.11 67.1341 15.2071 4526.7 38.4888 37.1501 24.9578 242.436 145.41 40.6744 37.7829 9.31895 42.1763 628.855 262.451 22.9025 4488.21 36.279 23.7922 7.13473 239.548 40.4716 52.8211 3.89982 23.1747 26.9318 29.3391 24.4095 13.9819 7.56516 6.782 16.6223 13.6106 15.2446 136.091 42.63 93.4613 35.849 78.8706 11.1986 1.74695 6.89102 6.78092 48.1514 4.66972 4484.31 35.7644 34.777 2.8916 4.92955 14.5908 3.26093
internal_count=121107 114250 6729 6857 6200 6315 107521 1078 1536 1329 6009 1170 199 106443 851 831 481 5262 3089 747 696 168 689 4779 2180 237 105592 669 433 131 1943 469 529 75 458 467 348 296 175 119 122 275 233 222 2921 879 2042 817 1752 210 40 112 62 460 69 105517 817 802 51 52 290 65
is_linear=0
shrinkage=0.07


Tree=2
num_leaves=63
num_cat=0
split_feature=5 38 33 3 5 3 33 3 30 38 1 37 38 33 30 5 19 3 3 26 19 3 3 3 3 16 30 3 33 20 1 3 37 38 3 30 0 35 37 33 0 37 37 37 3 33 38 33 1 3 32 3 0 30 3 19 21 22 5 33 3 33
split_gain=16169.4 1247.42 621.126 587.958 386.237 316.759 129.345 124.693 98.7289 68.8107 54.5933 51.925 51.4386 142.732 48.686 44.9912 45.0533 82.4468 51.4886 49.8556 44.2552 110.354 56.3193 52.6508 40.7656 32.925 30.1472 68.3759 53.2762 29.0655 28.7435 26.9231 26.2128 23.7112 22.5345 22.0729 21.9914 29.1434 47.0085 23.1374 20.787 19.9212 19.4221 19.3199 28.846 29.1583 18.6927 18.6437 18.8758 22.3975 18.6383 18.0142 17.2719 17.0018 16.9772 50.7678 24.5563 22.2289 16.3624 16.213 15.9834 15.0407
threshold=99.140000000000015 2122.5000000000005 1340.095 1.0000000180025095e-35 156.60500000000005 48.500000000000007 1395.4450000000002 48.500000000000007 12600.000000000002 197.50000000000003 226.50000000000003 52.500000000000007 4947.5000000000009 1925.5200000000002 9000.0000000000018 224.42500000000004 1.0000000180025095e-35 33.500000000000007 35.500000000000007 1.0000000180025095e-35 1.0000000180025095e-35 33.500000000000007 35.500000000000007 3.5000000000000004 6.5000000000000009 1.0000000180025095e-35 1.0000000180025095e-35 33.500000000000007 210.94500000000002 1.0000000180025095e-35 388.50000000000006 27.500000000000004 5.5000000000000009 104.50000000000001 12.500000000000002 5400.0000000000009 102.50000000000001 1.0000000180025095e-35 30.500000000000004 343.51500000000004 61.500000000000007 33.500000000000007 132.50000000000003 13.500000000000002 41.500000000000007 490.65500000000003 656.50000000000011 1925.5200000000002 2161.5000000000005 33.500000000000007 2.5000000000000004 33.500000000000007 66.500000000000014 1.0000000180025095e-35 33.500000000000007 1.0000000180025095e-35 1.0000000180025095e-35 1.0000000180025095e-35 57.175000000000004 175.34500000000003 10.500000000000002 371.53500000000003
decision_type=2 2 2 2 2 2 2 2 2 2 2 2 2 2 2 2 2 2 2 2 2 2 2 2 2 2 2 2 2 2 2 2 2 2 2 2 2 2 2 2 2 2 2 2 2 2 2 2 2 2 2 2 2 2 2 2 2 2 2 2 2 2
left_child=1 2 5 -2 6 8 7 11 9 10 -1 40 13 14 26 16 19 -18 32 29 23 -22 35 41 -13 34 27 60 -29 42 33 -31 -19 -4 -12 -23 39 38 -38 -10 43 58 -6 44 45 -5 -21 48 49 -32 59 -15 -41 -25 56 57 -26 -56 -11 -36 -3 -42
right_child=3 12 30 4 15 -7 -8 -9 36 20 25 24 -14 51 -16 -17 17 18 -20 46 21 22 -24 53 54 -27 -28 28 -30 31 47 -33 -34 -35 50 -37 37 -39 -40 52 61 -43 -44 -45 -46 -47 -48 -49 -50 -51 -52 -53 -54 -55 55 -57 -58 -59 -60 -61 -62 -63
leaf_value=-0.02054009433386619 -0.073334351813399409 0.20262365689133446 0.23892896985483839 0.063836984127611615 0.29318751935451975 0.26209887729217679 0.26490262294010758 0.3074057708733956 0.028544169558216363 -0.053234394984266777 0.023816474599783165 0.29816946327088623 -0.073009110296030272 0.12053491965915625 0.10769485654483182 0.28425247158828043 -0.073736657531164929 0.096462521799719481 -0.02109250743945151 -0.053329683660645638 -0.073065136579132176 0.29544626322722339 -0.042864364918125883 0.0045819179312809747 -0.025740941583337649 -0.073623503278836114 -0.064995455777054748 0.097312212413089696 0.79133293883018263 -0.076179335472132598 0.018861909472955244 0.23688661847909565 0.2944057273247957 -0.048773487621472253 0.080491376793738786 0.085653898391884073 0.46450360611292374 0.073919907080847808 0.050182128985999191 0.24620404628611442 0.10765910724772322 0.24379059059653624 0.14136038067772183 0.035287866003000656 0.38314592353581911 0.29123055299460981 0.24452546258515723 0.28175156561787112 0.31565863167823449 0.23536447902948601 -0.03184838042513876 0.32663309017280673 0.044936028509487615 -0.058047242186992559 -0.056209921654806642 0.29413962608150751 0.20351336535879169 0.17619258929595519 0.23463900732956577 0.24765137835289838 -0.064670618315589817 0.24243366360744817
leaf_weight=22.407579082995653 26.866019774228334 1.2611888796091069 2.8350404538214198 12.0284396968782 79.791447646915913 24.195173472166061 39.258336346596479 14.669964268803595 19.688678666949276 3.3525551520287973 4.9864121340215268 2.7704781144857398 4004.0095081366599 3.5092770233750326 9.2280983217060548 702.89182008057833 5.7190253473818329 3.9813868552446428 3.7373099997639647 3.225128434598445 19.850972644984722 9.6957642547786254 4.5951606482267371 24.258897855877876 28.758732125163082 3.5029619373381129 164.6777895539999 1.231131870299577 0.96822150051593769 2.1078436560928813 4.3855465054512006 3.7241679653525352 18.559028811752796 2.7801523245871067 3.5924312286078992 3.2916835471987715 3.3671153448522073 5.63812355697155 2.2308444157242775 5.2173969410359842 6.0322460681200054 3.8950492516160011 4.3537799119949332 12.047630641609429 2.2696516178548327 3.5871729739010325 1.5185373649001119 49.215988680720329 4.0202366150915614 5.0231284089386463 1.6744134463369835 5.0954260006546974 3.4845959432423115 170.62901222333312 7.8935309164226037 4.0645408332347861 2.4874323382973662 2.7086838558316231 1.3599192425608633 13.630793809890745 8.3787217400968057 12.393616944551466
leaf_count=513 659 24 29 191 608 154 273 91 352 65 96 29 100803 62 176 4011 122 44 55 54 494 72 106 567 594 77 4099 29 13 35 65 33 129 57 60 28 50 95 36 80 74 37 45 224 30 41 20 344 36 44 36 49 55 4070 161 35 33 31 26 224 211 151
internal_value=-0.00436445 -0.0597606 0.054843 0.249738 0.25859 0.0176154 0.155605 0.117195 -0.000290763 -0.014419 0.0604909 0.0884407 -0.0713021 -0.0361332 -0.0490447 0.277331 0.238938 0.167123 0.219544 0.263197 -0.0299012 0.040048 0.167754 -0.0427685 0.0374074 0.126789 -0.0572388 0.0506517 0.402841 0.274858 0.248205 0.123736 0.259442 0.0964839 0.156183 0.242274 0.103361 0.186253 0.299392 0.0705557 0.139817 0.126656 0.285332 0.103809 0.149965 0.116073 0.0420194 0.261804 0.188698 0.134449 0.191109 0.24258 0.165609 -0.0502514 0.0216725 0.0838016 -0.00749056 0.00316493 0.0298397 0.212785 -0.0297005 0.198311
internal_weight=5628.61 4621.16 422.806 1007.45 980.58 354.546 150.97 111.712 330.35 290.724 49.7946 97.0422 4198.36 194.35 185.745 829.609 126.718 31.9968 26.2777 94.7209 240.929 37.4336 17.5826 203.495 48.6834 27.387 176.517 11.8393 2.19935 89.9772 68.2601 5.83201 22.5404 5.61519 23.8841 12.9874 39.6268 11.2361 5.59796 28.3907 48.3588 8.60752 84.1452 29.9329 17.8853 15.6156 4.74367 62.6449 13.4289 9.40867 18.8976 8.6047 8.70199 194.888 45.9129 14.6668 31.2462 10.6022 4.71247 17.2232 9.63991 18.4259
internal_count=121107 113334 7868 7773 7114 7293 1958 1685 7139 6471 1006 1594 105466 4663 4552 5156 1145 350 228 795 5465 700 206 4765 883 493 4376 277 42 721 575 68 173 86 416 100 668 181 86 487 711 128 653 486 262 232 74 489 145 109 320 111 135 4637 854 227 627 192 91 284 235 225
is_linear=0
shrinkage=0.07


Tree=3
num_leaves=63
num_cat=0
split_feature=5 38 33 3 5 25 33 3 30 38 33 21 3 3 30 5 33 37 29 3 33 37 37 3 0 3 30 3 3 3 3 17 37 17 1 19 37 24 29 17 3 3 33 38 30 36 30 1 3 24 38 1 3 3 0 33 37 36 38 38 3 30
split_gain=12735.5 1151.1 441.965 400.773 251.378 232.768 84.4214 82.3436 75.1762 51.8727 111.281 44.4005 44.1015 165.823 42.2424 36.5035 38.7324 35.7338 32.8101 77.947 49.6029 33.2137 31.7967 38.4539 37.0089 27.8463 27.035 39.1493 26.7949 24.5115 55.8858 23.805 28.9541 20.5533 20.9264 18.4685 19.5739 18.4117 18.2304 16.5837 24.7115 33.4962 16.437 16.3431 16.2799 18.8149 20.0063 16.1527 15.5361 36.3524 15.4253 22.4051 15.5754 21.8796 15.2766 15.1288 14.7781 13.9858 13.9191 13.8051 13.5257 16.6068
threshold=99.140000000000015 2122.5000000000005 1259.7800000000004 1.0000000180025095e-35 156.60500000000005 1.0000000180025095e-35 1395.4450000000002 48.500000000000007 12600.000000000002 4947.5000000000009 1925.5200000000002 1.0000000180025095e-35 31.500000000000004 35.500000000000007 9000.0000000000018 256.94500000000005 1296.0100000000002 52.500000000000007 1.0000000180025095e-35 23.500000000000004 598.49500000000012 37.500000000000007 90.500000000000014 33.500000000000007 98.500000000000014 12.500000000000002 1.0000000180025095e-35 33.500000000000007 6.5000000000000009 5.5000000000000009 28.500000000000004 1.0000000180025095e-35 9.5000000000000018 1.0000000180025095e-35 164.50000000000003 1.0000000180025095e-35 32.500000000000007 1.0000000180025095e-35 1.0000000180025095e-35 1.0000000180025095e-35 15.500000000000002 9.5000000000000018 791.3950000000001 525.50000000000011 5400.0000000000009 1.0000000180025095e-35 55800.000000000007 1472.5000000000002 28.500000000000004 1.0000000180025095e-35 320.50000000000006 2037.5000000000002 33.500000000000007 35.500000000000007 96.500000000000014 1117.9950000000001 5.5000000000000009 1.0000000180025095e-35 272.50000000000006 3747.5000000000005 35.500000000000007 5400.0000000000009
decision_type=2 2 2 2 2 2 2 2 2 2 2 2 2 2 2 2 2 2 2 2 2 2 2 2 2 2 2 2 2 2 2 2 2 2 2 2 2 2 2 2 2 2 2 2 2 2 2 2 2 2 2 2 2 2 2 2 2 2 2 2 2 2
left_child=1 2 5 -2 6 8 7 17 11 10 14 12 18 43 26 16 22 44 37 20 -20 -22 24 38 35 -7 27 -3 -19 -13 -31 -15 -33 34 -4 36 -6 -1 58 40 41 -10 -23 -14 55 46 56 -12 49 -42 51 -30 -52 -54 -47 -5 -46 -35 -24 -49 61 -37
right_child=3 9 33 4 15 25 -8 -9 39 -11 47 29 13 31 -16 -17 -18 28 19 -21 21 42 23 -25 -26 -27 -28 -29 50 30 -32 32 -34 57 -36 60 -38 -39 -40 -41 48 -43 -44 -45 45 54 -48 59 -50 -51 52 -53 53 -55 -56 -57 -58 -59 -60 -61 -62 -63
leaf_value=-0.067326684906725887 -0.073102595790494246 -0.028633710078240258 0.045952319628180902 0.075634550293250211 0.21056099744856235 0.014344052059553317 0.21163363988880318 0.2413073657467257 0.17104620233364812 -0.072794803880841683 -0.025281760321177269 -0.074873733188116562 0.34222425502524545 -0.03854897034729602 0.090792836640691987 0.23082556528473552 0.23468790899976821 0.22255090033373165 0.035864998905626999 -0.059012411972543713 0.072438400209058548 0.2554708784191641 0.077357766944655737 0.1998863908689309 0.25078558529299244 0.1940266945270642 -0.064305379648546102 0.25772591684846108 0.041161013331751192 0.43238068296321563 0.035041276127678045 -0.030812806291857602 0.41388299088233277 0.17268734144266473 0.21220726767598908 0.19648007664847997 0.11653262832114324 0.12719253246563947 0.2011447110806644 -0.043810925494098561 0.42086531884502992 -0.040867604498586771 0.54308016932214753 0.17831326310627832 -0.0042214515471305373 0.184547773208565 -0.078648683167133776 0.29062149498250128 0.10851173843199934 0.085958454965322645 -0.039262301885107681 0.28417780343721399 0.20656670897144108 0.0005784554425018087 0.38861988182611035 0.29204173537094208 0.23273376008267385 -0.077386154630036008 -0.074589935374656108 0.10347394850581791 -0.048563155333841 0.044277463432381252
leaf_weight=122.16975530236959 25.126306969672441 9.3956199586391431 3.9068436697125426 32.347434341907501 36.000822003930807 4.792422290891408 45.429105196148157 17.263702735304832 5.6339734792709359 3743.914233699441 1.4473095275461663 2.1865297779440862 3.9161813706159618 66.678530383855104 10.142337422817944 738.96865029633045 84.654716845601797 3.4220464304089537 11.966956447809936 35.01300797984004 2.3739954121410838 1.8786810114979746 5.3016844019293803 11.529443908482788 34.107755299657583 35.771351233124733 155.13448377326131 3.1149242743849745 9.526972044259308 2.873224288225174 4.3764845989644527 1.6205876879394048 1.2873305231332777 2.1980075538158408 73.523504007607698 7.4469101503491419 15.526813354343174 2.4317886754870406 2.481977403163909 4.4984200857579699 2.942444350570443 10.404516458511353 2.0212052874267101 12.477496266365049 1.8982058614492414 9.3048075288534147 2.5222737342119217 5.7181100472807866 14.073392674326895 3.4503483511507511 22.134688414633274 2.3096274994313708 3.5142929106950751 8.9908139929175359 2.2278028540313253 1.6643610075116146 4.0229490287601948 2.1853983178734779 6.6712137907743454 2.9164475090801716 2.6181681379675856 6.6489560976624489
leaf_count=3074 659 235 57 475 258 113 273 91 71 100803 31 38 32 1615 176 3605 455 29 222 887 45 23 61 79 233 251 4099 42 160 30 68 33 20 25 509 67 137 49 28 75 32 188 22 84 23 111 29 54 222 50 485 29 21 159 18 16 39 33 130 26 42 61
internal_value=-0.00457705 -0.059019 0.0488058 0.203374 0.209585 0.0149899 0.130255 0.0997399 -0.00537859 -0.0709937 -0.0351009 -0.0186402 -0.0239763 0.0171853 -0.0479301 0.223467 0.197934 0.0762144 -0.0438749 0.00211414 0.119446 0.278869 0.17369 0.104538 0.191246 0.172798 -0.0563227 0.0426652 0.0335109 0.130557 0.192516 -0.0299989 0.166053 0.195471 0.203819 0.161487 0.182227 -0.0635303 0.0284857 0.0830052 0.0986326 0.0335731 0.404531 0.217469 0.115683 0.165841 0.0864447 0.191134 0.149617 0.240108 0.0195919 0.0885799 -0.00398161 0.058467 0.223969 0.0862244 0.156771 0.0480103 -0.00730641 0.22741 0.0975481 0.124687
internal_weight=5512.1 4368.44 436.652 1143.66 1118.54 354.839 166.579 121.15 314.275 3931.78 187.869 273.272 263.836 85.9801 177.787 951.957 212.988 103.886 177.855 53.2538 18.2408 6.27388 128.334 25.9843 102.349 40.5638 167.645 12.5105 49.8984 9.43624 7.24971 69.5864 2.90792 81.8138 77.4303 68.2417 51.5276 124.602 14.4549 41.0031 36.5047 16.0385 3.89989 16.3937 53.9878 19.976 8.44343 10.0819 20.4662 6.39279 46.4764 11.8366 34.6398 12.5051 11.5326 34.0118 5.92115 4.38341 11.9729 8.63456 16.714 14.0959
internal_count=121107 113334 7868 7773 7114 7244 1958 1685 6880 105466 4663 6242 6106 1784 4552 5156 1551 1594 4322 1199 312 90 1096 298 798 364 4376 277 883 136 98 1668 53 624 566 565 395 3123 219 638 563 259 45 116 711 220 91 111 304 82 854 189 665 180 129 491 62 58 191 80 170 128
is_linear=0
shrinkage=0.07


Tree=4
num_leaves=63
num_cat=0
split_feature=5 38 33 5 25 3 33 25 30 37 3 3 22 21 38 38 3 3 33 3 1 32 29 3 0 5 26 19 3 3 20 3 30 30 0 17 0 3 33 13 1 30 38 22 1 7 37 5 5 37 0 33 37 3 3 3 38 0 38 1 30 7
split_gain=10484.6 986.992 338.649 313.714 190.62 122.181 120.59 96.5509 58.6731 53.5892 43.4306 150.242 42.2196 39.556 34.6009 30.595 34.7503 32.0743 30.4103 27.9 26.8494 25.3173 22.3703 52.2199 27.3986 22.2963 31.201 35.7654 124.611 47.1742 26.013 62.5385 21.8507 21.5598 19.9642 19.7267 19.3061 18.4834 17.2588 16.3008 18.3276 16.1502 18.0911 15.423 13.8441 14.1844 13.1265 12.8972 12.3692 12.2106 16.3964 12.0516 18.4975 13.959 21.5834 17.9807 16.2417 13.5944 11.9338 19.9201 11.9279 11.8048
threshold=92.545000000000016 2425.5000000000005 1395.4450000000002 174.61000000000004 1.0000000180025095e-35 1.0000000180025095e-35 1395.4450000000002 1.0000000180025095e-35 12600.000000000002 37.500000000000007 33.500000000000007 35.500000000000007 1.0000000180025095e-35 1.0000000180025095e-35 135.50000000000003 197.50000000000003 33.500000000000007 37.500000000000007 1925.5200000000002 12.500000000000002 1101.5000000000002 1.5000000000000002 1.0000000180025095e-35 15.500000000000002 95.500000000000014 336.28000000000003 1.0000000180025095e-35 1.0000000180025095e-35 33.500000000000007 35.500000000000007 1.0000000180025095e-35 27.500000000000004 12600.000000000002 16200.000000000002 61.500000000000007 1.0000000180025095e-35 97.500000000000014 48.500000000000007 1925.5200000000002 1.0000000180025095e-35 1549.5000000000002 5400.0000000000009 2581.5000000000005 1.0000000180025095e-35 606.50000000000011 1.0000000180025095e-35 3.5000000000000004 117.44500000000001 128.57000000000002 90.500000000000014 108.50000000000001 157.73500000000004 28.500000000000004 15.500000000000002 9.5000000000000018 33.500000000000007 1223.5000000000002 127.50000000000001 49.500000000000007 468.50000000000006 5400.0000000000009 1.0000000180025095e-35
decision_type=2 2 2 2 2 2 2 2 2 2 2 2 2 2 2 2 2 2 2 2 2 2 2 2 2 2 2 2 2 2 2 2 2 2 2 2 2 2 2 2 2 2 2 2 2 2 2 2 2 2 2 2 2 2 2 2 2 2 2 2 2 2
left_child=1 2 4 6 8 -5 7 9 10 41 14 34 33 35 20 39 32 -18 21 -9 58 -14 -16 24 -24 26 27 30 -29 46 -7 -32 -17 -3 -12 -13 -37 49 -4 40 -11 47 -43 -19 45 -40 -30 -2 -45 50 -6 57 53 54 -53 -55 -57 -10 59 -1 -39 -41
right_child=3 12 38 5 37 25 -8 19 51 15 11 13 18 -15 22 16 17 43 -20 -21 -22 -23 23 -25 -26 -27 -28 28 29 -31 31 -33 -34 -35 -36 36 -38 60 44 61 -42 42 -44 48 -46 -47 -48 -49 -50 -51 -52 52 -54 55 -56 56 -58 -59 -60 -61 -62 -63
leaf_value=0.026753871769376887 0.013558777213078271 -0.072052348580799189 0.1008311921492685 -0.072656220146003495 0.073326539202708721 0.1998953701496882 0.18024977306768286 0.0071049462505601794 0.00030901839687641426 -0.040237085398523928 0.091167773102896948 -0.040457287583070399 -0.029423756915370369 0.41346567522013505 -0.065977310499472155 -0.042374029276030928 0.19682718680279551 -0.033694845702308407 0.20014583365068528 0.19964816841967561 0.21155472392119015 0.3301559265809596 0.011473035580228897 -0.056954932158989384 0.20127206925434249 0.19960233816869516 0.072899218441846061 -0.081305358576006834 0.10226146668365511 -0.016227604550290042 -0.08708898455323634 0.19995276347714297 0.25116458076050557 0.082580709426110233 0.24330212442420837 -0.004432000911618144 0.33912808773645126 0.21279614602830951 0.15231316738829634 0.092746788952692977 0.23359286469324908 0.12309663302655374 0.33192467626158095 0.0090138881500608538 0.19508373259756012 -0.051158437292724582 0.19990521689130275 0.099026444916596804 0.23510048864748689 -0.05170174537152479 0.29036688907945968 0.19850477927651605 -0.020858457145493444 0.29508731871034655 -0.043371208599300819 0.035982484489052509 0.23497337882163033 0.17697614449910509 -0.041080466321301634 0.33871747830278343 0.12092442451497959 0.24253413137559834
leaf_weight=6.902775872498756 13.191953990608452 3615.4830397590995 15.688807778060434 8.660647399723528 9.3128821961581689 257.44026471674442 73.323681581765413 4.1638904623687258 15.755072303116323 5.7164324447512636 6.2749849706888225 68.617648720741272 22.388219121843584 0.98847144842147727 120.39278781041503 50.175714310258627 6.7666112966835525 10.489546272903679 3.7730051428079596 32.238695848733187 3.8339359834790221 1.0024086534976948 8.0786821953952295 35.19935268163681 6.9183244332671157 616.6712756305933 13.354005642235277 10.663416273891924 7.540731467306613 5.9055579639971247 5.373297747224572 12.082109846174715 1.2741536274552334 4.4235042035579673 12.947917629033325 1.989680610597133 1.3420677334070203 18.563930287957195 6.7323177419602853 6.3930524326860905 1.515113543719053 25.677175588905815 2.20750419050455 2.4516109824180594 57.466919422149658 2.2365065589547157 64.023136749863625 25.135416153818369 2.2964037954807281 2.7316214665770522 2.0879330262541762 3.0256489105522695 5.0315143764019004 4.0891134291887274 4.4908161647617817 5.00023505091667 3.3606417514383793 2.4686618931591502 10.507448498159645 1.173452168703079 11.044352352619169 4.3204045668244362
leaf_count=149 235 103964 155 248 138 1252 411 67 259 88 53 1726 558 8 3197 1151 47 229 25 187 44 6 155 940 76 2734 96 151 48 59 53 68 14 70 73 38 15 90 58 77 11 256 24 37 311 25 318 307 11 40 29 32 72 39 81 73 41 32 229 16 59 52
internal_value=-0.00468549 -0.0590919 0.0382087 0.171145 0.00981561 0.189125 0.103775 0.0748729 -0.00846891 0.051141 -0.0199882 0.0195448 -0.071211 -0.0263384 -0.0388651 0.0164001 -0.00361765 0.0700046 0.0157327 0.177624 0.042894 -0.0140139 -0.0496093 -0.0103518 0.0990299 0.191408 0.177982 0.181848 0.143044 0.173925 0.194288 0.111593 -0.0351046 -0.0718634 0.19364 -0.0323807 0.133958 0.147089 0.166866 0.0983387 0.0171343 0.0990973 0.139629 0.013686 0.18246 0.101575 0.189616 0.0696092 0.118362 0.0812258 0.113075 0.0675326 0.0990925 0.12932 0.0539926 0.174798 0.115967 0.0242411 0.00809817 0.0720813 0.178527 0.153151
internal_weight=5370.38 4101.32 454.255 1269.05 372.13 1001.71 267.337 194.014 328.389 157.611 285.168 92.1608 3647.07 72.9379 193.007 91.399 73.454 22.0042 27.1636 36.4026 22.4176 23.3906 170.589 50.1964 14.997 993.054 376.383 363.029 88.1328 77.4694 274.896 17.4554 51.4499 3619.91 19.2229 71.9494 3.33175 43.7407 82.1246 17.945 7.23155 66.212 27.8847 15.2376 66.4357 8.96882 71.5639 38.3274 4.74801 14.1324 11.4008 43.2217 24.998 19.9665 7.51647 12.45 8.36088 18.2237 18.5837 8.07623 29.6083 10.7135
internal_count=121107 112876 8253 8231 7704 5027 3204 2793 7348 2539 6719 1913 104623 1787 4806 1717 1489 324 589 254 438 564 4368 1171 231 4779 2045 1949 576 425 1373 121 1165 104034 126 1779 53 356 549 228 99 822 280 277 394 83 366 542 48 207 167 629 338 266 113 153 114 291 394 165 149 129
is_linear=0
shrinkage=0.07


Tree=5
num_leaves=63
num_cat=0
split_feature=5 38 33 5 3 25 33 30 3 5 19 3 21 3 22 3 22 3 33 3 38 3 38 3 1 30 18 3 20 3 0 33 30 30 25 33 14 3 38 30 33 0 0 0 37 35 7 33 3 3 3 32 1 30 30 13 33 3 1 0 3 1
split_gain=8858.27 927.071 284.719 255.517 144.188 133.906 90.1573 56.4456 55.5535 52.8026 42.6478 92.0249 43.7683 40.8877 40.751 34.6496 32.4357 38.9224 29.9039 30.8818 29.0877 78.4594 25.801 25.263 24.557 24.0028 22.4098 22.219 22.1236 18.31 18.1907 17.4733 16.7842 16.4368 15.9733 15.8833 17.4188 15.5458 15.354 15.261 14.3358 13.8017 12.6286 11.3513 13.8281 15.2659 12.4939 11.3506 11.1392 26.5086 11.0896 31.7635 11.0525 10.9436 10.915 10.656 12.4646 10.5551 10.5072 10.3152 10.2513 10.1883
threshold=92.545000000000016 2749.5000000000005 1073.0600000000002 224.42500000000004 1.0000000180025095e-35 1.0000000180025095e-35 1296.0100000000002 12600.000000000002 48.500000000000007 117.44500000000001 1.0000000180025095e-35 33.500000000000007 1.0000000180025095e-35 35.500000000000007 1.0000000180025095e-35 3.5000000000000004 1.0000000180025095e-35 10.500000000000002 1925.5200000000002 31.500000000000004 272.50000000000006 33.500000000000007 881.50000000000011 38.500000000000007 321.50000000000006 1.0000000180025095e-35 1.0000000180025095e-35 32.500000000000007 1.0000000180025095e-35 3.5000000000000004 52.500000000000007 1925.5200000000002 5400.0000000000009 5400.0000000000009 1.0000000180025095e-35 620.23500000000013 1.0000000180025095e-35 12.500000000000002 197.50000000000003 1.0000000180025095e-35 343.51500000000004 126.50000000000001 17.500000000000004 175.50000000000003 23.500000000000004 1.0000000180025095e-35 1.0000000180025095e-35 292.41500000000002 20.500000000000004 16.500000000000004 17.500000000000004 1.5000000000000002 1882.5000000000002 9000.0000000000018 5400.0000000000009 1.0000000180025095e-35 3322.9950000000003 33.500000000000007 164.50000000000003 102.50000000000001 5.5000000000000009 1844.5000000000002
decision_type=2 2 2 2 2 2 2 2 2 2 2 2 2 2 2 2 2 2 2 2 2 2 2 2 2 2 2 2 2 2 2 2 2 2 2 2 2 2 2 2 2 2 2 2 2 2 2 2 2 2 2 2 2 2 2 2 2 2 2 2 2 2
left_child=1 2 5 4 -2 7 8 10 9 32 12 -12 15 30 50 47 17 22 19 33 24 34 29 54 -19 28 -21 48 43 -11 42 39 -6 -4 -22 36 40 -7 61 -16 -34 -9 -13 44 45 46 -17 -1 49 -26 51 -3 -25 -41 -23 56 -8 -29 -20 -56 -31 -14
right_child=3 14 18 -5 6 37 55 41 -10 16 11 13 38 -15 31 25 -18 20 58 26 21 23 -24 52 27 -27 -28 57 -30 60 -32 -33 35 -35 -36 -37 -38 -39 -40 53 -42 -43 -44 -45 -46 -47 -48 -49 -50 -51 -52 -53 -54 -55 59 -57 -58 -59 -60 -61 -62 -63
leaf_value=-0.024099143261466137 -0.072962578497974856 -0.046393206939260238 -0.01129260174263934 0.17075139267568973 -0.0010906535653485026 0.00073081286216550463 0.093510455136857296 0.041923387286285217 0.16795776788535985 0.18949205401602209 -0.072524304793849997 0.17049684077815996 0.094553481922955207 -0.045969372832091682 0.19043231874035313 -0.035244837802635279 0.21553004468394221 0.023546954820765936 0.010520463323347036 0.16301321797951504 -0.048066764773732368 0.18106534354961185 0.26599695707836896 -0.077352258371066088 0.19183688068288784 -0.058433673189654679 -0.073090561618774003 -0.081308723187973067 0.32335681647613529 -0.080742866848135225 0.21999772451847699 0.15927729591731893 0.12278200275006963 0.16450111766863501 0.087601701472781721 -0.041812128461886658 0.033869542215032175 0.13588427090382929 -0.073210298973930499 -0.05282269570596021 0.34494957119152941 0.14395823869689631 -0.036413538224424981 0.24666715465502342 -0.044310513257748187 0.3050569101115802 0.14486281523336611 0.11915981152599864 0.22841387987143372 -0.076179966901152932 -0.07237275921597966 0.28063502689666087 0.071759129014133768 0.085435159579278983 0.052503063935815115 0.17545326539778372 0.17876622238277842 0.096551870790934691 0.16059603272709144 0.16724720854951761 0.091255298542935404 0.26189423110737153
leaf_weight=4.0397401675581923 21.299501102417707 28.906720858067278 16.262320745736364 929.93046566098928 44.164768114686012 4.700435046106576 19.785967469215393 38.301931150257587 38.897658079862595 10.005301341414457 20.134186170995235 3.0343583896756234 5.5430246107280237 5.1530564576387397 1.768671341240412 5.4714208059012979 10.716387823224066 10.503139823675154 2.3622170761227599 19.238583311438564 31.058458831161261 16.522183522582054 8.3471447303891164 3.8989946320652944 7.9252169467508811 184.77567830681801 2.1945215538144103 1.9830594621598709 1.0555644147098053 2.0876600965857497 13.629614431411026 3.7634747326374045 3.7841977253556234 3.1035735458135596 4.9269518107175818 3.7098894491791716 5.4461467824876308 36.966780245304108 1.885946750640868 14.082201082259418 2.2810215167701244 7.8224020116031161 2.7602055855095387 0.8677029013633718 19.277193952351809 1.09318072721362 2.8809835501015186 8.2330903410911542 12.887618806213139 2.3427939973771572 3334.247298642993 1.5324547514319409 6.4904708303511143 3.5031353272497645 9.3226066008210164 91.03912091255188 14.605678811669348 9.3130043409764749 70.77424493432045 6.5264480412006369 9.0960467457771284 2.6279731690883636
leaf_count=67 606 808 330 4113 867 101 117 552 172 56 600 30 60 127 19 123 56 118 32 161 537 115 73 57 57 5119 56 20 20 20 72 23 39 32 55 52 57 224 45 393 21 92 25 17 475 18 66 79 83 36 102636 18 87 63 82 444 65 93 373 39 94 20
internal_value=-0.0047345 -0.0584034 0.0321987 0.150472 0.10436 0.00242197 0.114102 -0.0125686 0.0907559 0.0773101 -0.0242925 0.0384292 -0.0360879 0.129325 -0.0713524 -0.0424 0.0977946 0.089561 0.128964 0.0809491 0.0723222 0.046675 0.161759 0.110773 0.117248 -0.0489178 0.138839 0.145814 0.00845674 0.120696 0.175828 0.0212687 0.0207564 0.0168801 -0.0294917 0.0841461 0.12474 0.120638 0.106821 -0.00556767 0.206335 0.0592279 0.0719363 -0.00277651 -0.0103121 0.0590742 0.0268795 0.0720045 0.185077 0.130685 -0.0719888 -0.029929 0.0158001 -0.0252807 0.141255 0.162913 0.129717 0.0653279 0.155749 0.0997533 0.0591484 0.148374
internal_weight=5210.89 3871.99 484.19 1338.9 408.967 370.254 387.668 328.587 262.237 223.34 282.463 44.7114 237.751 24.5772 3387.8 227.695 163.953 153.237 113.935 40.799 123.701 78.7461 29.5362 42.7607 44.9548 215.422 21.4331 34.4517 30.646 21.189 19.4242 23.1175 59.386 19.3659 35.9854 15.2213 11.5114 41.6672 10.0569 19.354 6.06522 46.1243 5.79456 29.5905 28.7228 9.44559 8.3524 12.2728 23.1556 10.268 3364.69 30.4392 10.3895 17.5853 32.3712 125.431 34.3916 11.2961 73.1365 15.8491 11.1837 8.171
internal_count=121107 112876 8916 8231 4118 7932 3512 7607 2886 2714 6963 854 6109 254 103960 5984 1678 1622 984 579 1379 972 243 380 407 5838 217 289 719 170 127 498 1036 362 592 169 117 325 125 475 60 644 55 699 682 207 189 146 176 93 103462 826 144 456 236 626 182 113 405 121 114 80
is_linear=0
shrinkage=0.07


Tree=6
num_leaves=63
num_cat=0
split_feature=5 38 33 5 3 3 33 1 38 3 3 3 5 22 3 33 22 3 37 0 30 38 29 29 37 33 0 38 1 16 3 3 3 38 33 30 38 0 37 3 33 29 3 33 5 37 5 19 3 26 20 3 33 38 33 33 13 38 13 38 3 32
split_gain=7608.89 872.79 229.682 216.181 117.468 110.962 72.8529 52.2759 54.3301 44.9735 43.0604 78.7577 42.7276 39.1616 24.1562 30.7282 23.4274 28.0752 23.6785 30.5824 22.9492 20.2794 18.6765 17.4226 18.6597 17.3488 15.3603 14.9665 14.6933 14.2169 14.0288 17.8008 14.5532 32.9508 14.0115 13.973 13.2256 13.0834 19.8207 13.0197 12.904 12.6776 31.3769 17.6833 12.6622 12.5094 12.5058 24.8723 89.9777 17.0562 12.6382 37.4098 12.1365 11.9804 11.7394 11.6852 11.5334 12.1993 11.4072 11.2303 11.2251 23.9105
threshold=92.545000000000016 2749.5000000000005 1073.0600000000002 224.42500000000004 1.0000000180025095e-35 48.500000000000007 1259.7800000000004 399.50000000000006 197.50000000000003 48.500000000000007 33.500000000000007 35.500000000000007 117.44500000000001 1.0000000180025095e-35 31.500000000000004 2581.2750000000005 1.0000000180025095e-35 10.500000000000002 113.50000000000001 150.50000000000003 12600.000000000002 1134.5000000000002 1.0000000180025095e-35 1.0000000180025095e-35 24.500000000000004 192.33500000000004 95.500000000000014 727.50000000000011 3239.5000000000005 1.0000000180025095e-35 12.500000000000002 15.500000000000002 33.500000000000007 272.50000000000006 1925.5200000000002 5400.0000000000009 197.50000000000003 154.50000000000003 128.50000000000003 37.500000000000007 638.92500000000018 1.0000000180025095e-35 15.500000000000002 598.49500000000012 35.175000000000004 8.5000000000000018 336.28000000000003 1.0000000180025095e-35 33.500000000000007 1.0000000180025095e-35 1.0000000180025095e-35 27.500000000000004 620.23500000000013 49.500000000000007 752.70500000000004 567.07500000000016 1.0000000180025095e-35 727.50000000000011 1.0000000180025095e-35 591.50000000000011 17.500000000000004 1.5000000000000002
decision_type=2 2 2 2 2 2 2 2 2 2 2 2 2 2 2 2 2 2 2 2 2 2 2 2 2 2 2 2 2 2 2 2 2 2 2 2 2 2 2 2 2 2 2 2 2 2 2 2 2 2 2 2 2 2 2 2 2 2 2 2 2 2
left_child=1 2 5 4 -2 7 9 36 29 12 20 25 35 60 15 21 17 27 19 30 28 23 -16 24 -4 -12 55 -14 41 -9 -19 -32 33 -33 37 -6 -1 45 -39 40 -34 -10 43 -43 -28 58 47 49 -49 50 -5 -52 56 -20 59 -22 -37 -58 -15 -50 61 -3
right_child=3 13 14 46 6 -7 -8 8 10 -11 11 -13 16 34 22 -17 -18 18 53 -21 26 -23 -24 -25 -26 -27 44 -29 -30 -31 31 32 39 -35 -36 52 -38 38 -40 -41 -42 42 -44 -45 -46 -47 -48 48 54 -51 51 -53 -54 -55 -56 -57 57 -59 -60 -61 -62 -63
leaf_value=-0.012028775994249594 -0.072759511058062151 -0.045097986558098234 0.19221032636739027 0.16156691639200596 -0.0029968913068810989 0.13324575012706771 0.1436268021313841 0.10390514503905374 -0.063868158178149753 0.14918007488123322 0.040080609751748514 -0.02007410025123221 0.10323759758073099 -0.038183726114477415 0.1496493177252258 0.12890974221858531 0.18495249374222805 -0.025995473377031147 0.19772870374163554 0.18727737625378479 -0.034549823582443066 -0.067031445512789445 -0.0230169729508942 0.16312601715730257 -0.035496260905774207 0.16292066647287065 0.016777288899474139 0.20357880527082181 0.24481809289349613 -0.072956342576840624 0.18346842038199598 0.09791906304234245 0.075029225387370085 -0.033976408854778727 0.13832665088569282 0.030711045164115967 -0.066813995677450208 0.36644624944090143 -0.072651348974386826 0.032614770606159575 0.16205674681703439 0.005998434058462807 -0.057919995997206514 0.16088734323580922 0.20875803615144173 -0.058313356254036434 0.15844922910741968 -0.082151550496724374 0.024386565517530448 0.065287876430298999 -0.093161891177485995 0.16382049801219789 -0.040212518647323753 -0.027495427031845453 0.16011656819281728 0.16160807756927226 0.093761314009742039 0.2848337311456125 0.19799795647419025 0.13343964877955716 -0.072198305501517318 0.2151699192773095
leaf_weight=30.661364197731018 19.912983791902661 27.699104309082035 2.2387947775423589 196.48339441418648 43.52284612134099 29.093822464346886 133.88157123327255 31.312675222754478 63.758399490267038 39.838286891579628 7.7527619786560562 44.26091180741787 20.93819747120142 1.9541441872716045 64.242360752075911 27.573457110673189 11.061056628823279 7.7296575121581546 1.2472509294748331 11.058113180100916 10.165859784930946 8.3858325481414777 3.2235835939645758 5.8942068330943576 8.3044058270752412 20.60981086269021 2.9677278734743586 11.169232405722139 0.87054820731282134 2.3975936323404303 6.5428710207343093 18.219392661005259 19.39538687095046 18.918395835906267 4.0197288990020743 5.5806418545544165 72.991834446787834 1.0863073319196694 0.93926804140210141 14.156780920922754 14.657616600394247 9.2569307424128038 28.820325052365661 5.9225737974047652 3.8898968659341335 13.138806357979773 670.87937949597836 10.686869774013756 7.1774809435009983 10.425336316227911 3.8457855582237235 9.975772485136984 3.591757681220769 16.042950566858053 40.144156947731972 1.743239752948283 4.3469032160937786 2.6267261803150177 2.0566295944154263 13.022120311856268 3116.0772035382688 1.8447842299938191
leaf_count=656 606 808 19 813 860 132 648 353 1876 169 99 1068 159 42 391 151 54 96 16 79 157 186 37 57 143 137 39 82 18 64 39 147 170 300 23 57 2185 18 27 160 79 152 871 58 46 347 2742 162 40 50 27 45 52 285 168 21 38 22 41 66 102636 18
internal_value=-0.00475059 -0.0577224 0.0295906 0.134838 0.0932199 0.00207929 0.10139 -0.00923171 0.00911771 0.0804969 -0.00473731 0.0382796 0.0686419 -0.0711229 0.113706 0.0780472 0.086426 0.0796179 0.0649338 0.076835 -0.0292597 0.0215495 0.141399 0.0667406 0.0128561 0.129343 0.04222 0.138143 -0.0416085 0.0913261 0.0645756 0.0721943 0.0636638 0.0307301 0.0194997 0.0176352 -0.0506081 -0.00541022 0.162835 0.0890339 0.112489 -0.0439225 -0.01502 0.0664313 0.125676 -0.025282 0.153188 0.141089 0.10506 0.152683 0.157016 0.0923163 0.0732505 -0.0112486 0.138216 -0.00583646 0.105712 0.165732 0.0829246 0.0946901 -0.0717911 -0.0288463
internal_weight=5042.23 3655.15 486.339 1387.08 424.439 366.476 404.526 337.382 233.729 270.644 200.019 72.6235 230.806 3168.82 119.863 52.3967 171.137 160.076 127.968 110.678 127.396 24.8232 67.4659 16.4374 10.5432 28.3626 18.7667 32.1074 108.629 33.7103 99.6201 91.8904 85.3476 37.1378 23.1949 59.6689 103.653 19.1752 2.02558 48.2098 34.053 107.758 43.9998 15.1795 6.85762 17.1496 962.64 291.761 71.0306 220.73 210.305 13.8216 16.146 17.2902 60.3438 11.9091 12.5543 6.97363 4.01077 20.1996 3145.62 29.5439
internal_count=121107 112876 8916 8231 4118 7932 3512 7800 4959 2864 4542 1304 2695 103960 984 556 1666 1612 1371 1070 3238 405 428 219 162 236 263 241 2975 417 991 895 856 447 498 1029 2841 475 45 409 249 2957 1081 210 85 430 4113 1371 436 935 885 72 169 301 274 178 117 60 83 106 103462 826
is_linear=0
shrinkage=0.07


Tree=7
num_leaves=63
num_cat=0
split_feature=38 5 33 22 25 5 3 1 3 5 38 3 3 3 5 33 29 3 30 23 3 33 38 32 0 3 37 33 3 3 26 37 30 33 3 33 16 26 3 30 29 37 0 37 5 24 37 33 33 33 9 33 32 33 33 37 3 32 3 0 37 37
split_gain=6624.3 779.926 218.111 184.331 144.334 68.6664 55.5366 52.4607 43.2209 41.005 40.7031 59.4657 59.4483 39.4365 40.4548 34.5728 28.6313 34.8083 26.0592 25.1972 28.5025 25.1616 24.3011 23.8781 21.8421 20.1219 23.0361 18.9402 21.7275 20.6047 18.4094 44.0226 18.1328 16.8002 16.2588 16.2327 14.6277 14.6332 13.7587 12.7819 12.7034 14.1189 11.9478 16.1992 11.5311 11.2089 11.0793 14.8349 10.6274 10.1086 9.96946 9.74314 9.41817 9.65513 9.29179 9.1516 8.94551 49.793 16.3762 8.92834 11.3197 10.9832
threshold=2749.5000000000005 128.57000000000002 1259.7800000000004 1.0000000180025095e-35 1.0000000180025095e-35 256.94500000000005 17.500000000000004 453.50000000000006 1.0000000180025095e-35 82.665000000000006 197.50000000000003 33.500000000000007 35.500000000000007 8.5000000000000018 99.140000000000015 1619.2750000000003 1.0000000180025095e-35 15.500000000000002 9000.0000000000018 1.0000000180025095e-35 42.500000000000007 192.33500000000004 367.50000000000006 1.5000000000000002 95.500000000000014 4.5000000000000009 52.500000000000007 4346.6200000000008 33.500000000000007 22.500000000000004 1.0000000180025095e-35 20.500000000000004 34200.000000000007 797.29500000000007 20.500000000000004 716.16500000000008 1.0000000180025095e-35 1.0000000180025095e-35 48.500000000000007 9000.0000000000018 1.0000000180025095e-35 20.500000000000004 94.500000000000014 113.50000000000001 224.42500000000004 1.0000000180025095e-35 10.500000000000002 276.07000000000005 1073.0600000000002 436.44500000000011 1.0000000180025095e-35 1259.7800000000004 1.5000000000000002 1925.5200000000002 806.40500000000009 6.5000000000000009 16.500000000000004 1.5000000000000002 12.500000000000002 154.50000000000003 137.50000000000003 8.5000000000000018
decision_type=2 2 2 2 2 2 2 2 2 2 2 2 2 2 2 2 2 2 2 2 2 2 2 2 2 2 2 2 2 2 2 2 2 2 2 2 2 2 2 2 2 2 2 2 2 2 2 2 2 2 2 2 2 2 2 2 2 2 2 2 2 2
left_child=1 2 4 6 7 8 13 22 -3 52 36 16 21 -2 23 19 32 24 46 20 25 -13 -1 51 35 -10 33 28 29 34 48 -32 45 -27 40 -18 37 -9 56 -23 41 -4 -28 -44 -8 -12 47 -19 -14 -47 -26 -15 53 59 -41 -40 57 58 -6 61 -61 -5
right_child=3 5 27 9 38 -7 44 10 15 -11 11 12 30 14 -16 -17 17 18 -20 -21 -22 39 -24 -25 50 26 42 -29 -30 -31 31 -33 -34 -35 -36 -37 -38 -39 55 54 -42 -43 43 -45 -46 49 -48 -49 -50 -51 -52 -53 -54 -55 -56 -57 -58 -59 -60 60 -62 -63
leaf_value=-0.0078208203061786667 -0.072490017321024863 -0.07232705872038564 0.17053178082255735 0.060023427633201884 -0.052362355157153345 0.1421541751463383 -0.072030090031774019 0.10651747992721029 0.16103757154195997 0.15292730802738033 -0.067013657749887504 0.013729931747539387 -0.024111354785133023 -0.046233950628387227 0.17059313623451494 0.1418175976983253 -0.021943383145083629 -0.034026414956460249 0.34524926356655261 0.18509835060455479 0.13419636901519155 0.17692370685094969 -0.071365939114408583 0.23231748001112973 0.088479886306784633 0.069413903052202811 -0.027334277712362062 0.1379963247871506 0.12024288334376616 -0.033989191170037854 0.41627540559807852 0.00044234581618065628 0.1040557009388815 0.13222832102343551 0.23636534196237088 0.14608728347401154 -0.073474741531781559 -0.074914105282137669 0.079380438923525906 0.11659538036102132 0.12630338422853049 -0.019129042114512548 0.083847760793698267 0.0029664743742128332 0.13038482180910338 -0.04827984051853916 -0.065568947797709082 0.31333918074426492 0.12667159459857982 0.16128906509395438 0.22718905860982339 0.13058056092889231 0.15711759518786667 0.11710956610759433 -0.037299850414127374 0.14712857337511046 -0.056568465793211384 0.38783685909593446 0.09199139926526459 0.29059504085800131 -0.072479173921770765 -0.072731796380722552
leaf_weight=53.535958578810096 20.134383391588926 6.5706565491855136 2.3636907264590308 4.1596646755933859 6.4236175231635668 883.05072099715471 2925.8304984420538 31.552166473120451 12.223146341741083 19.186522025614977 72.890660049393773 9.9436486847698671 45.902562163770199 15.855634428560743 9.821225341409443 107.48450665920973 16.779965925961736 1.798308972269296 0.82368351146578689 13.970251217484472 50.829260744154453 19.072672396898273 65.650926902890205 1.8955335244536389 13.22981231287122 66.286710314452648 12.26872159168124 66.130730502307415 43.456227835267782 10.849257199093698 1.6896446011960495 4.766986683011055 3.4326482713222495 30.446843024343252 2.9405106455087653 3.3855501748621455 2.7641755901277056 2.3397875130176535 13.823273047804831 8.7248733416199666 8.6286111511290073 10.322258297353981 28.814753048121929 20.959677658975124 1.3797084353864182 2.5025060065090647 30.132948130369186 0.90590650215744961 2.4107350818812838 2.0530678443610668 3.141950260847806 1.6898198015987862 2.0287436991929999 2.9017086774110785 2.4656877368688574 33.320605561137199 2.8296413570642462 2.2207939065992823 9.6145427040755731 0.9578813537955273 0.75038532540202141 11.4848042614758
leaf_count=1193 645 216 15 80 134 3598 102938 323 62 109 2204 120 1037 475 72 445 279 51 12 60 225 93 2075 12 124 509 148 297 246 124 22 126 37 196 18 38 71 41 62 74 47 107 245 293 7 39 924 24 41 32 29 30 9 17 14 140 25 19 85 18 23 333
internal_value=-0.00474429 0.0996405 0.0352389 -0.0686507 0.0121089 0.131756 -0.0706926 -0.00387237 0.105511 0.0779134 0.0125487 0.00229691 0.0456986 0.00291207 0.0547938 0.108914 -0.0249882 0.00772132 -0.0436336 0.0939162 0.0881738 0.110335 -0.042823 -0.00370585 0.0550333 0.0744937 0.0678313 0.110392 0.0871561 0.0461974 -0.0017516 0.109262 -0.0533782 0.0891847 0.0820648 0.00626697 0.0813637 0.093992 0.10624 0.142077 0.0607778 0.0162092 0.0345384 0.0497892 -0.0719347 -0.0603561 -0.0533883 0.0823403 -0.0165876 0.0461669 0.1151 -0.0292048 0.0133241 -0.00107863 0.0826867 0.127264 0.0592423 0.0771898 0.0341747 -0.020842 0.131108 -0.0374339
internal_weight=4865.8 1847.73 614.821 3018.08 470.129 1232.91 2976.61 401.897 349.855 41.4697 282.71 246.054 94.9768 49.3966 29.2622 343.284 151.077 70.1981 33.6608 235.799 221.829 40.2069 119.187 19.441 36.5373 171 158.777 144.691 78.5606 35.1043 54.7699 6.45663 80.8789 96.7336 24.2551 20.1655 36.6561 33.892 68.2325 30.2632 21.3146 12.6859 62.0432 49.7744 2927.21 77.4462 32.8372 2.70422 48.3133 4.55557 16.3718 17.5455 22.2832 20.2544 11.1906 47.1439 21.0886 18.259 16.0382 17.3527 1.70827 15.6445
internal_count=121107 16339 10342 104768 9488 5997 104179 9023 2399 589 5755 5320 1527 1234 589 2183 3793 1481 1011 1738 1678 301 3268 517 470 1453 1391 854 557 311 1226 148 2312 705 187 317 435 364 465 181 169 122 686 538 102945 2275 999 75 1078 71 153 505 480 471 88 202 263 238 219 454 41 413
is_linear=0
shrinkage=0.07


Tree=8
num_leaves=63
num_cat=0
split_feature=38 5 33 22 3 1 3 5 38 3 3 3 5 33 5 38 19 3 3 30 33 26 29 3 32 33 32 35 17 30 24 25 30 30 30 26 16 17 0 1 21 20 3 3 30 38 3 0 5 3 0 29 33 32 3 1 1 33 0 1 37 33
split_gain=5882.46 662.023 183.78 169.83 138.494 60.132 53.6225 51.7653 44.1625 58.4991 54.8592 35.2049 33.9022 33.2414 32.1762 26.5475 26.5274 52.5718 30.9496 23.5954 20.3407 19.8578 19.4502 45.2041 18.8859 18.4068 15.4062 15.2705 15.1483 14.7909 13.7241 14.0659 16.364 13.5012 13.0623 12.8192 13.4251 12.5001 12.2096 11.8213 10.7255 13.1074 10.6996 31.5669 20.2759 10.5116 10.4582 12.8442 10.4396 10.1317 10.8277 10.0668 16.6977 16.7908 9.81657 9.5889 9.36355 14.8634 19.7606 9.19312 9.09843 9.54593
threshold=2749.5000000000005 141.37500000000003 1395.4450000000002 1.0000000180025095e-35 48.500000000000007 453.50000000000006 17.500000000000004 256.94500000000005 197.50000000000003 33.500000000000007 35.500000000000007 8.5000000000000018 82.665000000000006 1619.2750000000003 99.140000000000015 367.50000000000006 1.0000000180025095e-35 33.500000000000007 35.500000000000007 12600.000000000002 192.33500000000004 1.0000000180025095e-35 1.0000000180025095e-35 15.500000000000002 1.5000000000000002 467.52500000000009 1.5000000000000002 1.5000000000000002 1.0000000180025095e-35 5400.0000000000009 1.0000000180025095e-35 1.0000000180025095e-35 1.0000000180025095e-35 9000.0000000000018 5400.0000000000009 1.0000000180025095e-35 1.0000000180025095e-35 1.0000000180025095e-35 16.500000000000004 388.50000000000006 1.0000000180025095e-35 1.0000000180025095e-35 33.500000000000007 35.500000000000007 5400.0000000000009 25.500000000000004 9.5000000000000018 100.50000000000001 224.42500000000004 9.5000000000000018 134.50000000000003 1.0000000180025095e-35 812.68500000000006 1.5000000000000002 27.500000000000004 1446.5000000000002 1033.5000000000002 436.44500000000011 22.500000000000004 2573.5000000000005 10.500000000000002 276.07000000000005
decision_type=2 2 2 2 2 2 2 2 2 2 2 2 2 2 2 2 2 2 2 2 2 2 2 2 2 2 2 2 2 2 2 2 2 2 2 2 2 2 2 2 2 2 2 2 2 2 2 2 2 2 2 2 2 2 2 2 2 2 2 2 2 2
left_child=1 2 4 6 5 15 11 13 35 19 20 -2 -5 16 24 42 21 -18 29 22 -11 26 30 25 -13 -24 34 28 38 -19 31 -10 -33 59 37 36 -7 40 -4 -29 41 -3 45 44 -44 -1 -27 -48 -8 -21 -51 52 56 55 -43 -54 57 58 -12 -22 61 -25
right_child=3 7 27 12 -6 8 48 -9 9 10 51 14 -14 -15 -16 -17 17 18 -20 49 33 -23 23 60 -26 46 -28 39 -30 -31 -32 32 -34 -35 -36 -37 -38 -39 -40 -41 -42 54 43 -45 -46 -47 47 -49 -50 50 -52 -53 53 -55 -56 -57 -58 -59 -60 -61 -62 -63
leaf_value=0.048487916611938187 -0.072318030586629348 0.10705756249223321 0.1725932203931449 0.012167660998970315 0.12021972476451394 0.090292460408357797 -0.071875985076330765 0.1314865306140964 -0.066975847254289969 0.01865506290170162 0.027657240527141535 -0.028026807952507359 0.13833013497408173 0.13223715912802242 0.14912353117017951 -0.071168229430318142 -0.07389999462949734 0.14000123215648233 -0.058185942824360681 0.10621262739916588 0.14000170768740569 0.00092515677321719904 0.0038930879966459042 -0.035721827723765177 0.19463203809016999 0.094944071291293897 0.14545336755881119 -0.00084527579064044573 -0.022375669932657449 0.057416650779760561 0.10050407703705402 0.23863311659694009 -0.017928492698486842 0.073517309047696391 0.11897765726830134 -0.074769240604482382 -0.07323423934042636 -0.060411831083589773 0.080702477144873996 0.13238239293065981 0.007987352571458925 -0.076256563060761923 0.25360791181827574 -0.022028408265967071 -0.012178335003250286 -0.045267337073852443 0.10186392384416583 0.38871857655993686 0.11896543408878391 -0.0092912097943314547 0.13898521952736353 -0.055464164114873135 0.14340663120774957 0.35416988526937854 0.095222217856540031 -0.0088589266355197146 -0.021259531682290635 -0.00036245750947814034 0.42274964654767799 0.25505224485489036 -0.063325454919846952 0.21692450614642586
leaf_weight=7.205357087776064 18.81623743288219 39.106293592602015 7.9599159359931937 22.188714943826199 55.088976174592972 50.693658199161291 2733.667893897742 887.63610512763262 73.080219285562634 10.819215100258587 1.3819312974810585 17.072701480239637 19.705315638333559 97.782889811322093 10.424302022904156 62.528952034190297 14.145899333059786 22.706993527710438 6.9249611645936957 8.0891867652535456 18.71384816616774 9.4930559359490854 10.252241794019939 1.875913176685571 2.0957487970590583 10.440447367727755 35.478762377053499 3.4234438054263583 6.2989167831838122 19.97424279153347 2.7876504212617865 1.5142082907259462 6.2303927876055232 13.934383168816565 48.626279648393393 2.6718378774821749 2.5854638312011948 3.4007067382335654 64.477899294346571 69.80777770280838 8.9858309365808946 3.6536579448729745 4.2189847752451923 14.673081897199152 2.1096676513552666 31.376012362539768 1.5647184699773782 1.4962451010942457 1.4052573442459095 16.248328071087602 2.8340888060629359 11.844340249896048 3.9843185953795892 1.1283048652112473 2.9619418084621429 4.1243753135204315 30.614693596959114 5.5480838976800442 1.1254819072782991 4.1595853492617598 30.346562506631017 1.2025792747735975
leaf_count=112 645 238 36 480 230 449 102938 3598 2313 126 33 505 109 400 72 2102 360 104 79 69 80 107 159 53 12 71 184 48 57 117 50 15 131 102 240 48 71 46 349 312 65 52 24 328 28 782 25 17 7 222 27 295 68 14 17 79 627 142 23 28 963 24
internal_value=-0.00472704 0.0918933 0.0356012 -0.0683799 0.0154149 0.00268107 -0.0704854 0.122853 0.0181579 0.00663696 0.0469908 0.0025442 0.0715096 0.0983879 0.0501446 -0.0393078 0.0830259 0.0451365 0.0790814 -0.0191612 0.103033 0.0989483 -0.0306871 0.00077522 -0.00368279 0.0746066 0.105492 0.103146 0.081746 0.101353 -0.0522027 -0.0574696 0.0322339 0.127834 0.0922083 0.0748538 0.082357 0.0698071 0.0908 0.126154 0.0779017 0.0916421 -0.00587221 0.0343329 0.165008 -0.0277578 0.128303 0.242083 -0.0717779 0.0405609 0.0127306 0.00232074 0.0166072 0.101164 0.000518059 0.0659589 -0.00359056 0.0635599 0.204999 0.160924 -0.0516933 0.0629717
internal_weight=4686.72 1861.34 660.461 2825.38 508.493 453.404 2783.48 1200.88 331.292 275.341 107.379 48.409 41.894 313.242 29.5928 122.112 215.459 63.7521 49.6062 167.963 47.627 151.707 140.791 57.1787 19.1685 23.7537 142.213 151.968 78.7367 42.6812 83.6125 80.8248 7.7446 36.8078 106.735 55.951 53.2791 58.1084 72.4378 73.2312 54.7077 45.7219 59.5831 21.0017 6.32865 38.5814 13.5014 3.06096 2735.07 27.1716 19.0824 59.7515 47.9072 9.237 6.6156 8.10869 38.6702 8.0555 2.50741 22.8734 33.4251 3.07849
internal_count=121107 16339 10732 104768 9930 9700 104179 5607 6324 5756 1617 1234 589 2009 589 3376 1609 660 300 4139 336 949 3821 1312 517 272 842 802 442 221 2509 2459 146 210 658 568 520 418 385 360 372 307 1274 380 52 894 113 42 102945 318 249 1281 986 161 69 147 825 198 56 108 1040 77
is_linear=0
shrinkage=0.07


Tree=9
num_leaves=63
num_cat=0
split_feature=38 5 22 33 3 1 3 5 33 38 3 3 3 19 3 3 5 5 38 26 37 38 1 33 20 3 32 0 30 29 33 37 30 37 35 26 16 1 17 3 5 37 30 26 37 33 38 33 0 37 0 30 1 21 3 25 38 33 37 3 3 33
split_gain=5254.14 573.31 157.376 154.069 117.913 53.2484 51.8463 50.633 35.2065 32.5847 53.0339 49.0567 31.5959 29.2111 57.952 33.7587 28.6482 26.0329 25.9568 24.8693 21.3139 15.6922 23.8261 15.6786 15.4205 22.496 15.3404 14.8611 14.5522 14.4653 14.3415 12.5847 12.3717 11.8586 10.1177 10.0832 10.6774 9.83915 9.53241 22.9215 9.50598 9.28779 9.1307 9.11661 26.9162 8.73478 10.008 8.27843 7.96371 12.0278 7.93108 7.58889 7.42589 7.38736 20.2892 7.29897 10.4763 7.2332 10.3894 9.33807 8.93039 7.21671
threshold=2749.5000000000005 141.37500000000003 1.0000000180025095e-35 1395.4450000000002 48.500000000000007 425.50000000000006 17.500000000000004 295.36500000000007 1619.2750000000003 197.50000000000003 33.500000000000007 35.500000000000007 8.5000000000000018 1.0000000180025095e-35 33.500000000000007 35.500000000000007 82.665000000000006 99.140000000000015 197.50000000000003 1.0000000180025095e-35 22.500000000000004 1325.5000000000002 1907.5000000000002 192.33500000000004 1.0000000180025095e-35 27.500000000000004 1.5000000000000002 92.500000000000014 5400.0000000000009 1.0000000180025095e-35 4346.6200000000008 61.500000000000007 5400.0000000000009 45.500000000000007 6.5000000000000009 1.0000000180025095e-35 1.0000000180025095e-35 1181.5000000000002 1.0000000180025095e-35 36.500000000000007 224.42500000000004 16.500000000000004 9000.0000000000018 1.0000000180025095e-35 20.500000000000004 1023.6300000000002 3747.5000000000005 600.32500000000016 125.50000000000001 104.50000000000001 120.50000000000001 16200.000000000002 3160.5000000000005 1.0000000180025095e-35 28.500000000000004 1.0000000180025095e-35 367.50000000000006 192.33500000000004 3.5000000000000004 20.500000000000004 32.500000000000007 794.2600000000001
decision_type=2 2 2 2 2 2 2 2 2 2 2 2 2 2 2 2 2 2 2 2 2 2 2 2 2 2 2 2 2 2 2 2 2 2 2 2 2 2 2 2 2 2 2 2 2 2 2 2 2 2 2 2 2 2 2 2 2 2 2 2 2 2
left_child=1 3 6 4 5 18 12 8 13 35 20 23 -2 19 -15 28 48 26 -1 24 27 22 -22 -12 38 -26 45 52 -16 55 31 -5 -25 -21 -33 36 50 -30 53 -40 -8 -27 -6 -13 -45 -14 -47 -31 -4 -50 57 -20 -11 61 -55 -24 -57 -7 -59 -60 -61 -3
right_child=2 7 16 30 42 9 40 -9 -10 10 11 43 17 14 15 -17 -18 -19 51 33 21 -23 29 32 25 41 -28 -29 37 47 -32 34 -34 -35 -36 -37 -38 -39 39 -41 -42 -43 -44 44 -46 46 -48 -49 49 -51 -52 -53 -54 54 -56 56 -58 58 59 60 -62 -63
leaf_value=0.0036534745034558784 -0.072158191166374008 0.10089843863417934 -0.01620000437634965 0.095159006724697362 0.13041501038873551 0.0029306766408569041 -0.071731891470176404 0.12470458259056159 0.12403219390049505 -0.0096274497842592146 0.021851727279597305 -0.0093889220069231609 -0.047842920144670703 -0.074415585764462971 0.12508847313744692 -0.057845772381308343 0.12641235916223931 0.13224293390782563 -0.068267674124669178 0.079937963320124109 -0.043107184488837373 -0.066593245726704248 -0.045818727711690169 0.15399546336888464 -0.08087054882615842 0.031796560730209818 0.1678304365571798 0.084115787504578821 -0.015412729256051177 0.034893173306809258 0.11605864845405936 0.020026694327851056 0.07492766580571146 -0.06146349269893446 0.1296211715632386 -0.074428930591138434 -0.072992679716160982 0.081329876652787403 -0.081479259559188721 0.15708524117988554 0.10939451332926252 0.16062788987331755 0.070630699547744799 0.26873776388410964 -0.01198954023830778 0.2588163902215479 -0.027123611737295193 0.16620938685795478 0.14525010289805085 -0.049173824162700067 0.11471200374102285 0.11969272519636019 0.1292562031862115 0.11894493698549058 -0.031425817176423523 0.23089299958945006 -0.014994086233246299 0.23018721194824793 0.024031611041739575 0.16374008196902345 0.04557473093078751 0.13205977208248437
leaf_weight=42.995706897228956 17.58162771910429 74.370083965361118 15.650161704048516 49.536608420312405 36.946920439600945 9.0466978028416616 2553.7938783727586 783.1179515644908 134.4991641510278 39.102284785360098 11.140724487602709 52.287030264735222 14.189531022682795 15.970195302739738 31.71231884509325 8.2715766914188844 20.040015757083893 10.912574294954537 69.155456036329269 4.9541992805898172 43.506845083087683 47.807069627568126 7.5029258728027344 20.205485850572586 5.4046658556908396 5.7187643498182279 2.2538046091794959 12.546360228210686 7.1804176121950176 4.0713321752846241 75.009261183440685 25.346084382385019 18.644272342324257 7.0300668701529503 4.9305684678256503 2.5021908506751052 2.4786843154579392 18.229025974869728 4.1483918726444236 3.7641101405024529 1.4205966219305981 5.2676995471119881 18.931943833827972 2.371017422527073 5.689278282225132 1.0487850978970521 1.4009854719042776 5.5715968906879425 4.3014613129198542 2.4455659557133913 17.330259349197149 1.0688140206038941 1.9820592608302821 13.800995297729971 6.4524321444332591 1.3367318063974383 2.3272108398377895 1.9624436423182512 14.027039736509325 6.5418567657470685 6.0158162899315357 71.359891299158335
leaf_count=840 645 367 367 267 150 87 102938 3163 547 815 127 1130 459 394 139 87 109 72 2437 44 1212 1649 204 90 68 28 12 141 41 40 323 185 124 73 27 48 73 97 59 22 7 25 80 23 140 21 25 35 45 68 136 15 28 70 46 13 51 13 126 39 64 337
internal_value=-0.00470092 0.0854076 -0.0681054 0.0329907 0.0142649 0.00233636 -0.0702857 0.114203 0.0945356 0.0163263 0.00617224 0.0437748 0.00226398 0.0805484 0.0451287 0.0743235 0.0656099 0.0461638 -0.039181 0.0947959 -0.0188587 -0.0362189 -0.0136414 0.0950575 0.100956 0.0360499 -0.00355519 0.0174356 0.0934625 0.0479623 0.0940821 0.0734284 0.11605 -0.00300927 0.0378742 0.0631249 0.0691209 0.0539915 0.107074 0.0320099 -0.0716312 0.0935675 0.11016 0.00129337 0.0705892 -0.0267695 0.0952918 0.110766 0.0112066 0.0747781 0.0755343 -0.0654069 -0.00292719 0.110652 0.0710391 -0.00627095 0.0747139 0.057474 0.0747589 0.0632855 0.107132 0.116157
internal_weight=4506.21 1861.17 2645.04 659.919 505.096 449.217 2602.6 1201.25 418.134 335.997 276.092 110.338 47.3873 283.635 81.3635 65.3933 42.4372 29.8057 113.22 202.271 165.754 112.124 64.3166 49.9905 190.287 16.3911 18.8931 53.6307 57.1218 20.8098 154.823 79.8133 38.8498 11.9843 30.2767 59.905 57.4028 25.4094 173.896 7.9125 2555.21 10.9865 55.8789 60.3473 8.0603 16.6393 2.44977 9.64293 22.3972 6.74703 54.9241 70.2243 41.0843 165.983 20.2534 11.1669 3.66394 37.5939 28.5472 26.5847 12.5577 145.73
internal_count=121107 16339 104768 10732 9930 9700 104179 5607 2444 6408 5822 1634 1234 1897 758 364 589 589 3292 1139 4188 3204 1555 341 1022 121 517 984 277 343 802 479 214 117 212 586 538 138 901 81 102945 53 230 1293 163 505 46 75 480 113 465 2452 843 820 116 268 64 329 242 229 103 704
is_linear=0
shrinkage=0.07


Tree=10
num_leaves=63
num_cat=0
split_feature=38 5 33 22 25 3 1 38 3 3 30 38 1 3 38 5 5 5 33 30 3 3 3 32 38 29 37 19 3 3 26 35 33 33 20 3 3 38 32 17 38 38 37 37 19 0 5 1 3 0 0 37 0 5 3 30 33 32 37 0 37 33
split_gain=4715.81 510.405 150.452 146.214 109.301 50.0794 47.9324 34.2982 41.8744 48.6433 43.6538 29.583 34.6504 28.4035 27.3078 26.2205 24.6069 21.3973 19.7969 19.3829 15.9708 16.1401 15.4811 40.7143 15.3785 16.1592 15.9564 14.4707 41.2007 19.5407 18.5644 14.1409 13.5962 13.5758 13.485 16.1749 13.019 12.8771 12.713 11.0456 10.8822 19.3075 14.1763 10.7708 18.8664 24.2269 13.67 10.2487 10.1094 9.8997 9.37048 9.0213 8.71119 8.69519 8.44852 8.42195 8.41816 8.95817 8.2503 9.49434 8.30354 7.95268
threshold=2749.5000000000005 174.61000000000004 1744.8800000000003 1.0000000180025095e-35 1.0000000180025095e-35 17.500000000000004 361.50000000000006 49.500000000000007 33.500000000000007 35.500000000000007 12600.000000000002 1325.5000000000002 1907.5000000000002 8.5000000000000018 197.50000000000003 295.36500000000007 92.545000000000016 99.140000000000015 1925.5200000000002 9000.0000000000018 24.500000000000004 9.5000000000000018 12.500000000000002 1.5000000000000002 591.50000000000011 1.0000000180025095e-35 95.500000000000014 1.0000000180025095e-35 33.500000000000007 35.500000000000007 1.0000000180025095e-35 1.5000000000000002 192.33500000000004 462.31500000000005 1.0000000180025095e-35 27.500000000000004 20.500000000000004 231.50000000000003 1.5000000000000002 1.0000000180025095e-35 591.50000000000011 197.50000000000003 11.500000000000002 71.500000000000014 1.0000000180025095e-35 122.50000000000001 82.665000000000006 1075.5000000000002 20.500000000000004 122.50000000000001 134.50000000000003 6.5000000000000009 16.500000000000004 224.42500000000004 28.500000000000004 16200.000000000002 1925.5200000000002 1.5000000000000002 8.5000000000000018 154.50000000000003 122.50000000000001 210.94500000000002
decision_type=2 2 2 2 2 2 2 2 2 2 2 2 2 2 2 2 2 2 2 2 2 2 2 2 2 2 2 2 2 2 2 2 2 2 2 2 2 2 2 2 2 2 2 2 2 2 2 2 2 2 2 2 2 2 2 2 2 2 2 2 2 2
left_child=1 2 4 5 6 13 14 54 10 19 11 12 24 -2 -1 18 56 38 27 32 21 -12 23 -6 25 36 -27 30 -29 51 34 39 -10 49 -3 -36 -9 -23 -15 52 41 48 -42 44 45 46 -11 -38 -14 -24 -39 -30 -4 -7 -8 -16 57 58 61 -60 -61 -5
right_child=3 15 31 16 22 53 7 8 9 43 20 -13 40 17 55 -17 -18 -19 -20 -21 -22 37 33 -25 -26 26 -28 28 29 -31 -32 -33 -34 -35 35 -37 47 50 -40 -41 42 -43 -44 -45 -46 -47 -48 -49 -50 -51 -52 -53 -54 -55 -56 -57 -58 -59 59 60 -62 -63
leaf_value=0.0057979062198031161 -0.072009604223555804 0.10570582500106708 0.15390518681553603 0.0069393657367683489 -0.050998483075230715 -0.071596978040598433 0.18827514956641925 -0.075107907902400919 0.019432805162843632 -0.0045130405490521356 0.10951167968755403 -0.059499948828148061 0.001224095128041317 -0.025700344516652943 -0.068781409767289234 0.1175492958671588 0.12020736089421444 0.11848114941977353 0.12027762617982748 0.044180595952404547 0.16082366661095029 0.11329423936309542 0.039524121206606297 0.38990824222211667 -0.057814584676765479 0.027584784100011025 0.2144043337952779 -0.075937077106743217 0.044601257553931829 -0.056217846499812471 -0.0043704654664824122 0.1167525194101755 0.13766288519798409 0.11357795443249666 -0.084261627616503063 0.083762337674447809 -0.040622899907072199 -0.044187701783821823 0.14756183186034552 -0.014768415106132313 0.0020199355832388184 -0.049021330532793589 0.13101470214610406 -0.02957340903785563 -0.050645245074726238 0.17351702866131299 0.077174548540821133 0.075979586150716094 0.15016342115364842 0.132402438580557 0.08857019221231803 0.11173832984375802 0.074448257436796103 0.10118828918259393 0.053402625513737069 0.14605336694703927 0.099358899375877913 0.17974987799965331 -0.072608143384857576 0.20679392225450458 -0.072577268903157632 0.21627578361241809
leaf_weight=45.607333416119218 16.425627753138542 136.76150470972061 7.5510728731751433 3.4117696434259512 8.663991302251814 2385.4695363845676 6.8843497298657876 14.343528851866724 5.5950697474181643 27.631559312343597 11.267770759761332 61.226573891937733 3.7287392169237155 16.248906487599022 60.836273699998856 772.97233988717198 18.919448710978031 11.311675645411013 95.444407403469086 29.176618687808514 6.5623828247189513 4.4253548756241825 27.472050584852695 1.1641318798065174 38.569060523062944 12.146917046979068 2.7467730473726979 10.090871149674056 13.845439568161963 4.7880125008523455 8.9864169806241971 81.251114789396524 32.164904549717903 60.260744355618954 4.0823009293526402 8.9888315647840482 7.283212296664713 14.454318292438986 2.3788826614618293 6.1769197285175315 6.0317431297153261 10.20910416357219 13.558585584163664 26.2798160482198 13.174475014209746 6.1593139562755814 15.765438899397848 7.494184996932745 5.567108653485775 7.0705565363168708 3.1779566109180442 33.623605243861675 64.616252180188894 1.4279789999127377 3.399587357416749 0.90746533870696922 4.4992797970771781 1.1811274141073216 11.286225004121659 1.229851342737674 0.90486389771103848 1.2027178443968294
leaf_count=837 645 603 32 61 167 102938 49 309 53 620 83 2075 39 505 2257 3163 91 72 389 229 37 33 141 9 1178 173 30 235 70 51 71 356 146 286 47 41 151 202 12 40 83 254 108 609 210 75 174 69 28 31 26 142 293 7 26 9 23 5 344 15 28 22
internal_value=-0.00466361 0.0798813 0.0358766 -0.0678423 0.0198335 -0.070094 0.00612795 0.0175547 0.0141297 0.0419501 -0.00534354 -0.0198134 0.000156129 0.00195939 -0.0352809 0.1106 0.0606677 0.0425408 0.0936325 0.0870328 0.061008 0.0413525 0.0848532 0.0012265 -0.0255454 0.00273131 0.062039 0.0821338 0.0535563 0.0785616 0.0933525 0.0962921 0.120144 0.0935226 0.0992136 0.0312861 -0.0276012 0.00653453 -0.0035737 0.0750724 0.0544473 0.0174354 0.091298 0.00804765 0.0238082 0.0436016 0.0251628 0.0185107 0.0904211 0.0585355 -0.0202601 0.0921563 0.0827621 -0.0714936 0.14369 -0.0656239 0.0131695 -0.00701046 -0.0192413 -0.0470026 0.088374 0.0615007
internal_weight=4326.08 1850.19 760.602 2475.9 601.007 2433.26 496.376 389.024 378.741 155.947 222.793 182.906 121.679 46.3651 107.351 1089.58 42.6353 29.9395 316.611 66.9366 39.8878 33.3254 104.631 9.82812 82.5837 44.0146 14.8937 221.167 62.3479 52.2571 158.819 159.595 37.76 94.8034 149.833 13.0711 29.1209 22.0576 18.6278 78.3442 39.0953 19.505 19.5903 89.0106 62.7308 49.5563 43.397 14.7774 9.29585 34.5426 17.6323 47.469 72.1673 2386.9 10.2839 61.7437 23.7158 19.2166 18.0354 13.4209 2.13472 4.61449
internal_count=121107 16339 11527 104768 10806 104179 10172 7069 6994 2116 4878 4497 2422 1234 3103 4812 589 589 1649 428 381 344 634 176 1910 732 203 1260 498 263 762 721 199 458 691 88 529 261 517 365 512 321 191 1688 1079 869 794 220 67 172 228 212 325 102945 75 2266 498 475 470 387 43 83
is_linear=0
shrinkage=0.07


Tree=11
num_leaves=63
num_cat=0
split_feature=38 5 33 22 25 5 3 1 5 3 37 0 5 38 33 5 3 3 30 33 23 3 29 3 3 32 38 37 35 33 32 38 33 37 0 23 17 29 24 0 5 0 0 3 22 33 33 38 1 38 1 33 33 35 3 37 38 3 0 19 37 0
split_gain=4251.65 472.56 137.673 125.476 96.2449 44.9125 42.3486 32.3229 26.4909 22.7074 21.5487 21.8067 20.9067 20.7293 18.9839 16.7008 15.9405 24.014 20.284 14.3958 13.7793 18.3241 13.4176 19.6116 13.1004 29.2941 12.9723 12.5194 12.3152 11.9052 11.5856 11.5471 11.4559 10.1798 11.9534 9.83517 9.67909 8.85038 10.3282 8.64376 8.41488 8.1946 8.17881 8.75884 8.13377 7.87997 7.84865 7.63927 8.49688 7.47227 7.431 7.41216 7.38174 7.21829 9.08253 9.46362 9.1046 7.60071 7.19829 8.0207 7.11145 10.0267
threshold=2961.5000000000005 174.61000000000004 1744.8800000000003 1.0000000180025095e-35 1.0000000180025095e-35 73.785000000000011 17.500000000000004 453.50000000000006 295.36500000000007 8.5000000000000018 96.500000000000014 94.500000000000014 107.13500000000002 75.500000000000014 1925.5200000000002 117.44500000000001 33.500000000000007 35.500000000000007 12600.000000000002 481.9550000000001 1.0000000180025095e-35 42.500000000000007 1.0000000180025095e-35 8.5000000000000018 12.500000000000002 1.5000000000000002 414.50000000000006 68.500000000000014 1.5000000000000002 462.31500000000005 1.5000000000000002 1134.5000000000002 512.62500000000011 104.50000000000001 109.50000000000001 1.0000000180025095e-35 1.0000000180025095e-35 1.0000000180025095e-35 1.0000000180025095e-35 126.50000000000001 44.465000000000011 122.50000000000001 92.500000000000014 15.500000000000002 1.0000000180025095e-35 490.65500000000003 567.07500000000016 104.50000000000001 731.50000000000011 75.500000000000014 2357.5000000000005 1925.5200000000002 934.12000000000012 1.0000000180025095e-35 39.500000000000007 53.500000000000007 414.50000000000006 38.500000000000007 16.500000000000004 1.0000000180025095e-35 35.500000000000007 77.500000000000014
decision_type=2 2 2 2 2 2 2 2 2 2 2 2 2 2 2 2 2 2 2 2 2 2 2 2 2 2 2 2 2 2 2 2 2 2 2 2 2 2 2 2 2 2 2 2 2 2 2 2 2 2 2 2 2 2 2 2 2 2 2 2 2 2
left_child=1 2 4 6 5 7 9 26 14 -2 11 27 51 -9 20 30 18 32 31 -12 21 22 23 45 25 -6 -1 35 36 41 -11 37 40 34 -25 52 58 38 -15 46 -18 -26 -39 -44 47 -3 -20 48 -21 -31 -34 -5 60 54 56 -56 -13 -55 -4 -60 61 -7
right_child=3 8 28 12 24 10 -8 13 -10 15 19 53 -14 16 -16 -17 17 -19 39 44 -22 -23 -24 33 29 -27 -28 -29 -30 49 -32 -33 50 -35 -36 -37 -38 42 -40 -41 -42 -43 43 -45 -46 -47 -48 -49 -50 -51 -52 -53 -54 57 55 -57 -58 -59 59 -61 -62 -63
leaf_value=-0.018063724122408992 -0.071882913254673261 0.16058168239894297 0.14217728212325664 -0.0059662828700558571 -0.049653991148935768 0.036194367623960964 -0.071591765182136557 0.11481939275248233 0.11152120327663509 -0.020050406860165189 0.16213211519864221 0.12220288066942624 0.11841350693646904 -0.050637108868268908 0.11374701128414251 0.12206269915569487 0.066804840796411247 -0.0092194804990248392 -0.010330751846093736 -0.011689522159492826 0.12758975372351661 0.10815443151990978 0.10879707993315421 0.049793406111992643 0.036285722526920139 0.29410379495484334 -0.071847444188061493 -0.051731683558326531 0.10931461030522537 0.041640389682414701 0.13592872647978227 -0.058401678422951915 0.083073644977430514 0.0068308682548492436 0.10153344749980968 0.19067064733843711 -0.01382104882216242 -0.023932264718990869 0.10381638008013212 0.12023112555583906 -0.045841753018974349 0.11979940531445503 0.09387770705906115 -0.034773537056003452 0.12501116205838447 -0.074581472405350319 0.10280384843374919 -0.041352316002837702 0.17040745643937691 0.11434227932062413 0.19133470533755015 0.091165415413257719 0.076795207138986327 0.063939978593288455 0.2965575176072886 0.077100205568618588 0.037601788112703524 -0.04375512847321273 0.078807774545637699 0.00098355515556341274 -0.023307778357300305 -0.067664404101330594
leaf_weight=39.061143923550844 14.27646519616246 0.76800441741943171 7.599434368312358 18.595681784674529 8.2892423383891565 64.682387242093682 2219.8319587223232 7.7149297166615716 759.24021470546722 16.627074223011739 2.1661456339061251 13.919823413714772 15.750528432428835 24.305765742436055 94.413960255682468 8.0051187723875028 8.4544186964631098 46.162652298808098 12.25252809002996 4.0375152975320807 23.014357686042786 47.886871010065079 22.195263437926769 73.206243185326457 27.815994314849377 1.4232721924781788 50.232685681432486 10.207296956330536 81.264961937442422 7.9744893237948409 2.7142733335494986 44.53427722863853 12.578904412686827 16.990138715133071 31.205891940742731 1.8250467628240574 6.1396875753998748 10.632470631971957 2.3242856711149207 5.3192846179008475 5.2780315801501265 7.2597305327653876 9.4975415021181089 3.5669383369386187 1.7495815139263857 7.6822413988411427 3.9809386208653441 35.370854126289487 1.8222998306155203 52.746178492903709 4.1256322860717765 4.8546173721551886 12.545437503606079 25.955837868154052 2.1683192681521173 1.731872947886586 11.287513578310607 3.664487909525632 59.026164852082729 7.2904949262738219 15.676202218979595 4.8997971862554541
leaf_count=1019 599 5 32 442 167 788 102617 61 3168 486 16 110 69 716 391 39 76 1047 168 67 94 199 99 418 141 9 2061 242 360 47 13 1724 58 160 147 8 40 227 36 40 49 31 64 102 18 157 31 874 11 239 24 24 127 223 19 23 149 56 264 37 321 58
internal_value=-0.00462485 0.0744684 0.0326182 -0.0681278 0.0173928 0.00465964 -0.0702801 -0.0132827 0.104422 -0.000325287 0.0290088 0.0405122 0.0560371 0.00230363 0.0874384 0.037032 -0.00219372 0.0226058 -0.0185117 -0.0139416 0.0762973 0.0703931 0.0585003 0.0499032 0.078185 0.000720286 -0.04832 0.0221019 0.0901183 0.0860389 0.00183897 -0.0324393 0.0708741 0.0570804 0.0652571 0.0296664 0.070632 -0.00946533 -0.0371563 0.042789 0.0235094 0.0535708 0.0216531 0.0587526 -0.0228154 -0.0532086 0.0174133 -0.0290883 0.0449394 0.104794 0.109812 0.0141417 0.026662 0.0749441 0.0997004 0.199108 0.0843196 0.0506164 0.0776469 0.0702522 0.0192851 0.0288809
internal_weight=4147.82 1847.17 770.562 2300.66 609.242 503.733 2261.45 290.022 1076.6 41.6229 213.71 168.564 39.2008 200.729 317.363 27.3465 193.014 76.5996 116.414 45.1464 222.949 199.935 152.048 129.853 105.509 9.71251 89.2938 109.836 161.321 95.7964 19.3413 94.8613 30.437 121.402 104.412 99.6289 80.0558 50.327 26.6301 21.5528 13.7325 35.0757 23.697 13.0645 42.9803 8.45025 16.2335 41.2307 5.85982 60.7207 16.7045 23.4503 97.8038 58.7279 29.1075 3.90019 25.2073 29.6203 73.9161 66.3167 85.2584 69.5822
internal_count=121107 16818 11980 104289 11247 10613 103754 7503 4838 1137 3110 2124 535 4423 1670 538 4362 1254 3108 986 1279 1185 986 887 634 176 3080 1544 733 458 499 2869 207 725 565 1302 373 1145 752 239 125 172 393 166 970 162 199 952 78 286 82 466 1294 580 301 42 259 279 333 301 1167 846
is_linear=0
shrinkage=0.07


Tree=12
num_leaves=63
num_cat=0
split_feature=38 5 33 22 25 3 27 37 0 5 38 3 5 33 3 3 37 33 33 29 3 5 23 3 1 30 3 32 32 37 33 1 35 29 3 37 0 37 1 1 35 38 30 38 38 37 3 3 26 3 38 1 0 29 37 1 5 33 31 1 7 33
split_gain=3840.39 427.512 118.932 117.294 82.9195 41.0112 40.7348 28.1882 32.2937 27.0742 23.0563 20.6495 18.5413 18.4719 17.9582 59.4159 17.7057 18.4244 17.0475 15.3545 29.617 14.4553 12.3107 13.4757 12.2687 11.3525 11.126 22.8035 10.948 10.8588 9.9624 9.53319 9.51067 9.32286 11.0464 9.45935 13.299 9.12779 8.69888 7.21653 7.19092 9.59083 8.05182 6.95345 6.88765 10.7555 8.68574 6.87134 7.16885 8.27393 13.2462 8.88217 7.67216 7.02042 6.87045 6.6615 8.6053 7.82719 8.22653 6.59069 6.48325 6.26892
threshold=2961.5000000000005 174.61000000000004 1744.8800000000003 1.0000000180025095e-35 1.0000000180025095e-35 17.500000000000004 1.0000000180025095e-35 52.500000000000007 60.500000000000007 295.36500000000007 197.50000000000003 8.5000000000000018 107.13500000000002 1117.9950000000001 33.500000000000007 40.500000000000007 7.5000000000000009 502.14500000000004 836.72500000000014 1.0000000180025095e-35 15.500000000000002 128.57000000000002 1.0000000180025095e-35 42.500000000000007 591.50000000000011 5400.0000000000009 12.500000000000002 1.5000000000000002 1.5000000000000002 17.500000000000004 809.66500000000008 1701.5000000000002 1.5000000000000002 1.0000000180025095e-35 5.5000000000000009 106.50000000000001 109.50000000000001 3.5000000000000004 3195.5000000000005 253.50000000000003 1.0000000180025095e-35 467.50000000000006 55800.000000000007 49.500000000000007 231.50000000000003 66.500000000000014 46.500000000000007 44.500000000000007 1.0000000180025095e-35 33.500000000000007 25.500000000000004 58.500000000000007 169.50000000000003 1.0000000180025095e-35 54.500000000000007 2212.5000000000005 117.44500000000001 371.53500000000003 1.0000000180025095e-35 1923.5000000000002 1.0000000180025095e-35 1925.5200000000002
decision_type=2 2 2 2 2 2 2 2 2 2 2 2 2 2 2 2 2 2 2 2 2 2 2 2 2 2 2 2 2 2 2 2 2 2 2 2 2 2 2 2 2 2 2 2 2 2 2 2 2 2 2 2 2 2 2 2 2 2 2 2 2 2
left_child=1 2 4 5 6 11 7 8 16 13 31 -2 61 22 19 25 17 38 -18 -12 30 28 23 33 60 -16 27 -6 -13 59 -21 47 -26 34 -3 36 39 -19 -1 -36 -10 43 55 -42 45 -31 -47 48 49 50 51 -9 -52 -51 -41 -43 57 -57 -59 -28 -4 -5
right_child=3 9 24 12 26 -7 -8 10 40 -11 14 21 -14 -15 15 -17 18 37 -20 20 -22 -23 -24 -25 32 -27 29 -29 -30 44 -32 -33 -34 -35 35 -37 -38 -39 -40 54 41 42 -44 -45 -46 46 -48 -49 -50 53 52 -53 -54 -55 -56 56 -58 58 -60 -61 -62 -63
leaf_value=0.0066462703665773858 -0.071753690640475182 -0.080080295557003467 0.053622076954967249 -0.005577576187435658 -0.048300799556671097 -0.071481943534798323 -0.071711804388722822 -0.0020146157457079554 0.071055399205130917 0.10636520707549009 -0.063604478364849934 -0.01764191835101879 0.11175237591100798 0.10083170886114699 0.12979106061944629 -0.041826363867604882 -0.040902243490317791 0.19577157168822429 0.041863293216674487 0.032270188030781084 -0.054567637587286826 0.12023249186875729 0.12104776406596862 0.097588528914610839 0.072325518338588732 0.0089599994929971533 0.077387841063078541 0.24066493737750952 0.12656825269306821 0.11390186096944246 0.15737879050776082 0.10744043237129496 0.10875167664926766 0.096289112231754931 -0.061949271387657677 -0.010687689579797393 0.10006531481839612 0.066026116247773978 0.16714742879779437 0.052646591788100258 0.1069688017982295 0.040297465030393984 -0.021618603216537448 -0.026059085257263744 0.12070132608340364 -0.047291634336011176 0.096971985203086808 -0.075035217409529023 -0.074738205252674675 0.13254491757900491 -0.022514554842701796 0.19226912361324294 0.10931067020846334 -0.030474151489105213 -0.014633840345617053 -0.031531036294233108 0.1918567408203237 0.052531169660338849 0.20907680672279838 0.022472971828294223 -0.042763842269322741 0.083128019978690557
leaf_weight=65.486407369375229 13.334410820156334 3.5615643803030244 16.301809171214703 18.50269855000079 7.9376968890428525 2072.8247417602688 32.333683190867305 1.8213094454258705 56.500365348532796 740.9671690762043 59.230111744254827 17.041967526078231 15.528794154524801 140.01276165433228 16.363514877855781 41.961501389741898 53.806725824251771 3.5529201086610547 15.767776830121873 9.2903260402381402 23.323948225006461 7.1261562705039969 18.310363352298737 36.602446779608727 67.747400790452957 4.9664380103349677 25.016698718070984 1.6094785407185552 3.0395980626344672 11.062981881201269 4.6948664784431449 7.2009627707302561 72.932132359594107 17.517833568155766 3.3892606310546389 12.834104750305412 22.454185113310814 10.535409001633523 1.6975295674055804 51.929779142141342 2.2177404798567322 17.381713652983311 5.6534365937113753 14.603838292881845 32.862921580672264 5.2004750967025739 3.3702702969312668 3.4142570309340945 3.0046595931053153 6.4541196096688491 17.876271910965446 3.1424642577767372 2.4611333999782792 1.6191860772669313 8.6802431643009168 2.6935703046619874 4.0065759345889083 4.6055546049028635 2.5587038286030293 18.724298521876335 4.3271687589585772 4.9476768374443045
leaf_count=950 599 107 87 442 167 102617 1417 31 690 3168 2138 491 69 645 107 1242 1433 27 268 62 859 33 76 154 306 39 118 9 14 57 22 50 308 79 21 122 108 71 23 285 28 200 57 163 142 37 14 73 58 64 311 27 37 37 73 36 22 51 20 90 32 24
internal_value=-0.00457424 0.070167 0.0304015 -0.0678989 0.0161832 -0.0701182 0.0042759 0.00952702 0.0248197 0.0990547 -0.00977637 -0.000393024 0.0524247 0.0818743 -0.0224495 0.00652916 0.00377487 0.025964 -0.022145 -0.041448 -0.00627352 0.0345806 0.0667312 0.0603952 0.0838173 0.101657 0.0724896 0.00041352 0.00418611 0.0796399 0.0742695 0.0333257 0.0912098 0.0490851 0.041045 0.0453899 0.0537147 0.0987465 0.0107016 0.0374526 0.0536211 0.0352849 0.0552548 -0.00852082 0.101103 0.0682997 0.00943708 0.019914 0.0288252 0.0381489 0.0184609 0.120982 -0.00656171 0.0998497 0.043011 0.0691637 0.105353 0.0701949 0.108441 0.0538803 0.033404 0.013138
internal_weight=3975.93 1823.58 767.32 2152.35 606.012 2113.37 500.227 467.893 261.068 1056.26 206.825 40.5421 38.9792 315.293 159.831 63.2915 150.847 81.2723 69.5745 96.5393 37.3091 27.2077 175.28 156.969 161.309 21.33 105.785 9.54718 20.0816 96.2376 13.9852 46.9944 140.68 120.367 102.849 99.2876 86.4535 14.0883 67.1839 63.9993 110.221 53.7211 36.8996 16.8216 52.4966 19.6337 8.57075 39.7934 36.3791 33.3745 25.3012 4.96377 20.3374 8.07331 60.61 31.2461 13.8644 9.85783 7.16426 43.741 20.629 23.4504
internal_count=121107 16818 11980 104289 11247 103754 10613 9196 4039 4838 5157 1137 535 1670 4469 1388 2772 1071 1701 3081 943 538 1025 949 733 146 634 176 505 458 84 688 614 795 716 609 487 98 973 379 1267 577 386 191 250 108 51 638 565 507 406 58 348 101 358 329 129 107 71 208 119 466
is_linear=0
shrinkage=0.07


Tree=13
num_leaves=63
num_cat=0
split_feature=38 5 22 33 3 3 27 37 0 5 3 33 38 5 33 37 5 23 3 1 30 29 3 3 32 21 3 35 3 3 33 30 3 3 29 3 33 37 30 37 0 30 30 33 33 1 30 38 3 29 5 33 3 33 33 5 3 29 1 30 33 3
split_gain=3477.24 388.855 109.854 103.289 72.8101 39.6957 39.692 29.5441 37.6184 27.9068 18.8238 18.6007 17.285 16.6323 15.8649 19.6846 12.8407 12.1964 15.9858 10.9589 10.6898 10.3984 15.4313 10.0299 9.93989 9.93667 9.93421 9.23925 8.88561 39.2564 8.64668 8.17709 8.03847 13.4549 8.33037 14.583 7.98534 16.9866 7.89022 7.73548 9.15663 7.73157 7.56088 7.53528 7.23059 7.14567 6.93724 6.79432 13.8635 7.43136 9.82074 9.11114 7.25948 6.73808 6.67389 6.63012 6.58793 15.6432 6.44773 6.31552 7.99119 6.25788
threshold=2961.5000000000005 174.61000000000004 1.0000000180025095e-35 1744.8800000000003 48.500000000000007 17.500000000000004 1.0000000180025095e-35 74.500000000000014 95.500000000000014 295.36500000000007 8.5000000000000018 1925.5200000000002 197.50000000000003 128.57000000000002 764.83000000000004 21.500000000000004 141.37500000000003 1.0000000180025095e-35 42.500000000000007 591.50000000000011 34200.000000000007 1.0000000180025095e-35 8.5000000000000018 43.500000000000007 1.5000000000000002 1.0000000180025095e-35 32.500000000000007 1.5000000000000002 33.500000000000007 40.500000000000007 1023.6300000000002 9000.0000000000018 27.500000000000004 37.500000000000007 1.0000000180025095e-35 23.500000000000004 502.14500000000004 4.5000000000000009 9000.0000000000018 52.500000000000007 110.50000000000001 1.0000000180025095e-35 23400.000000000004 1925.5200000000002 529.81500000000017 226.50000000000003 5400.0000000000009 166.50000000000003 33.500000000000007 1.0000000180025095e-35 92.545000000000016 777.66500000000008 9.5000000000000018 577.15500000000009 490.65500000000003 2.2950000000000004 22.500000000000004 1.0000000180025095e-35 3183.5000000000005 23400.000000000004 625.18500000000017 11.500000000000002
decision_type=2 2 2 2 2 2 2 2 2 2 2 2 2 2 2 2 2 2 2 2 2 2 2 2 2 2 2 2 2 2 2 2 2 2 2 2 2 2 2 2 2 2 2 2 2 2 2 2 2 2 2 2 2 2 2 2 2 2 2 2 2 2
left_child=1 3 5 4 6 10 7 8 14 11 -2 17 25 41 15 36 24 18 21 -5 28 22 54 47 30 32 -27 -21 56 -30 38 -6 34 45 -9 -36 -1 -38 -12 40 53 -4 43 58 -44 -34 -39 -16 49 51 52 -49 -51 -24 -3 -10 57 61 -43 60 -48 -14
right_child=2 9 13 19 31 -7 -8 12 55 -11 16 -13 20 -15 23 -17 -18 -19 -20 27 -22 -23 39 -25 -26 26 -28 -29 29 -31 -32 -33 33 -35 35 -37 37 46 -40 -41 -42 42 44 -45 -46 -47 59 48 -50 50 -52 -53 -54 -55 -56 -57 -58 -59 -60 -61 -62 -63
leaf_value=0.0043696206160442107 -0.071633475328265611 0.1397823337776915 0.1110840420463204 0.030816622186012346 0.10034088926164277 -0.071379849073724702 -0.071593505111130634 -0.051550192750515499 -0.082064839059493452 0.10189939935041882 -0.057025828955329941 0.10365935265425112 -0.068905658975767684 0.11165591020561819 0.096446613253349869 -0.037590047360083749 0.12344472393041565 0.11531440351776043 0.096425061423749889 0.066838844838368355 0.10481190344080732 0.093798290779570387 0.025305145525557706 -0.075821381917125411 0.11717199059535634 0.13309689493589297 -0.010009242770749136 0.10282401962349866 0.09715649402238441 -0.049294847626684027 0.094193254287095823 0.049199568738455636 0.016685158109272295 -0.025654852701588321 0.16454521952245721 -0.075171019620597204 0.15691776499473403 -0.0114515760385627 0.0902587249974557 0.024451355527807615 0.1066230282001546 -0.054038983859931472 0.00055477614450121881 0.071382985818191802 0.20483534045000154 0.17933251461825808 0.23124355740435956 0.15433641739390402 0.076994557534163025 0.11173587153957698 0.12963652992397243 -0.047582413135278501 -0.058592076028474147 0.071188050744078663 -0.073604901948301049 0.062471756231024758 -0.065229172812568459 0.052436100556883802 0.12563886364626314 -0.019035877796314042 0.036825669699011264 0.01169932635765529
leaf_weight=107.55576986633241 12.45304751396179 0.79804506897926231 3.55575868487358 20.778485063463449 45.302046328783035 1935.355343574658 30.195775780826807 13.643894309178 1.5813878141343582 720.04457426071167 12.629790220409641 90.204324975609779 21.185430686920885 13.551625311374663 10.819317417219279 53.718161635100842 5.9250210002064696 22.104618862271309 46.618233919143677 68.160517759621143 2.9401317089796057 22.317034631967545 30.635489895939827 3.4840514101088038 3.3602195382118216 6.9478468969464284 3.6129158809781075 71.777478773146868 12.89730669185519 29.441265331581235 2.9980678260326377 23.147474750876427 1.9923624433577041 5.7284213770180941 2.6973794214427462 2.3070778138935566 5.5018963143229511 13.111678697168829 2.075086571276187 43.451528675854206 17.063702240586281 13.440875526517639 1.8314290419220918 3.6654651910066596 1.5827486366033552 3.9429168589413166 1.9565550014376629 1.1894489061087377 20.852082785218954 1.7068717032670973 4.1023608297109604 13.790416119620202 4.3531244043260813 32.13244166597724 7.1772143598645926 93.595676090568304 38.070356952026486 9.7318485267460328 1.0554670132696617 2.169052466750145 2.2016588561236858 6.0722725596278897
leaf_count=1626 599 5 25 119 191 102617 1417 241 23 3168 415 391 874 59 97 1462 27 94 199 306 25 99 167 98 15 37 34 308 86 956 45 95 31 130 20 56 39 252 36 320 77 360 28 18 15 24 21 24 198 12 36 359 121 161 157 985 1462 54 30 23 24 114
internal_value=-0.00452281 0.0663231 -0.0676747 0.0284017 0.0150828 -0.0699631 0.00635624 0.0110366 0.0226906 0.0943181 -0.000442448 0.0768498 -0.0136642 0.0491491 0.0082585 -0.00184661 0.0324069 0.065971 0.0605227 0.078253 -0.0270224 0.0496244 0.0421138 0.0394657 0.00679821 0.0256654 0.0841392 0.0852965 -0.0303241 -0.00468239 -0.014152 0.0830465 0.00529309 0.0508736 -0.0232155 0.0540349 0.0126449 0.0483313 -0.0362417 0.0482184 0.0611545 0.015444 -0.000317614 -0.0182841 0.0952554 0.124735 0.0175976 0.0465356 0.0347949 -0.000204038 0.0460007 -0.0315494 -0.0106171 0.0487937 -0.0522523 0.0600702 -0.0447876 -0.0237487 -0.0409568 0.0777948 0.128305 -0.0509491
internal_weight=3808.29 1794.81 2013.48 762.263 601.546 1974.8 533.097 502.901 341.69 1032.55 39.4412 312.503 161.211 38.6834 246.512 186.215 26.9882 222.298 200.194 160.716 120.339 153.575 131.258 60.2977 21.0632 40.8728 10.5608 139.938 117.398 42.3386 17.7029 68.4495 30.3121 11.6637 18.6484 5.00446 132.497 24.9408 14.7049 123.283 79.8316 25.1317 21.576 18.1618 3.41418 5.93528 19.4389 56.8136 45.9943 25.1422 10.1624 14.9799 6.06 62.7679 7.97526 95.1771 75.0599 36.9896 14.4963 6.32727 4.15821 27.2577
internal_count=121107 16818 104289 11980 11247 103754 10961 9544 5400 4838 1137 1670 4144 535 4392 3447 538 1279 1185 733 3571 986 887 945 511 573 71 614 3546 1042 496 286 502 185 317 76 1985 359 451 725 405 476 451 408 43 55 320 847 750 552 169 383 133 328 162 1008 2504 1042 390 68 45 988
is_linear=0
shrinkage=0.07


Tree=14
num_leaves=63
num_cat=0
split_feature=38 5 22 33 3 3 5 5 33 1 33 3 3 19 29 38 5 38 23 3 3 3 3 38 3 3 30 37 19 5 37 21 30 37 37 0 37 33 1 0 33 37 3 32 38 32 0 1 38 5 5 29 3 26 3 19 30 37 0 35 37 13
split_gain=3154.82 356.477 102.821 90.2842 53.759 38.2875 36.9677 28.8067 22.3724 21.0753 17.9216 17.177 16.2556 17.8354 16.77 15.4905 15.2006 14.4885 14.2259 15.5769 13.3972 18.1625 12.5472 20.9489 17.2995 13.7148 12.5751 12.338 12.0498 11.7751 11.6631 10.777 10.3588 10.1812 10.031 12.7523 11.9003 14.6472 11.0635 9.46498 9.14349 8.94967 8.59012 12.6318 8.51839 8.80387 8.33921 8.49631 8.18233 10.6 8.66621 7.36334 9.41513 7.32678 7.91469 8.53996 7.16606 6.93939 6.66588 6.60045 6.5989 6.56617
threshold=2961.5000000000005 174.61000000000004 1.0000000180025095e-35 1073.0600000000002 48.500000000000007 17.500000000000004 63.595000000000006 336.28000000000003 1259.7800000000004 294.50000000000006 2581.2750000000005 8.5000000000000018 33.500000000000007 1.0000000180025095e-35 1.0000000180025095e-35 104.50000000000001 128.57000000000002 1134.5000000000002 1.0000000180025095e-35 42.500000000000007 1.0000000180025095e-35 3.5000000000000004 33.500000000000007 272.50000000000006 12.500000000000002 34.500000000000007 5400.0000000000009 112.50000000000001 1.0000000180025095e-35 79.095000000000013 30.500000000000004 1.0000000180025095e-35 12600.000000000002 111.50000000000001 51.500000000000007 60.500000000000007 7.5000000000000009 577.15500000000009 468.50000000000006 109.50000000000001 210.94500000000002 6.5000000000000009 10.500000000000002 1.5000000000000002 75.500000000000014 1.5000000000000002 7.5000000000000009 1739.5000000000002 970.50000000000011 12.405000000000003 7.785000000000001 1.0000000180025095e-35 8.5000000000000018 1.0000000180025095e-35 33.500000000000007 1.0000000180025095e-35 23400.000000000004 14.500000000000002 27.500000000000004 1.5000000000000002 16.500000000000004 1.0000000180025095e-35
decision_type=2 2 2 2 2 2 2 2 2 2 2 2 2 2 2 2 2 2 2 2 2 2 2 2 2 2 2 2 2 2 2 2 2 2 2 2 2 2 2 2 2 2 2 2 2 2 2 2 2 2 2 2 2 2 2 2 2 2 2 2 2 2
left_child=1 3 5 4 6 11 9 8 18 31 12 -2 13 17 -14 -11 -4 33 19 27 -8 58 23 24 -23 26 40 39 30 -13 44 -1 42 -5 35 36 37 38 -17 51 -24 -6 43 -25 -27 57 -26 -48 -40 50 -50 52 60 54 55 -29 -34 61 -22 -12 -3 -46
right_child=2 7 16 10 41 -7 20 -9 -10 15 59 29 14 -15 -16 34 -18 -19 -20 -21 21 22 25 32 46 28 -28 53 -30 -31 -32 -33 56 -35 -36 -37 -38 -39 48 -41 -42 -43 -44 -45 45 -47 47 -49 49 -51 -52 -53 -54 -55 -56 -57 -58 -59 -60 -61 -62 -63
