tree
version=v4
num_class=1
num_tree_per_iteration=1
label_index=0
max_feature_idx=38
objective=binary sigmoid:1
feature_names=step customer zipcodeOri merchant zipMerchant amount age_1 age_2 age_3 age_4 age_5 age_6 age_U gender_F gender_M gender_U category_es_contents category_es_fashion category_es_food category_es_health category_es_home category_es_hotelservices category_es_hyper category_es_leisure category_es_otherservices category_es_sportsandtoys category_es_tech category_es_transportation category_es_travel category_es_wellnessandbeauty time_since_last_txn is_night_txn txn_count_1h txn_amount_sum_24h amount_zscore_24h pair_txn_count_sofar is_first_interaction cust_txn_count_sofar merch_txn_count_sofar
feature_infos=[0:179] [0:3274] none [0:49] none [0:7635.4099999999999] [0:1] [0:1] [0:1] [0:1] [0:1] [0:1] [0:1] [0:1] [0:1] none [0:1] [0:1] [0:1] [0:1] [0:1] [0:1] [0:1] [0:1] [0:1] [0:1] [0:1] [0:1] [0:1] [0:1] [0:399600] [0:1] [1:5] [0.13:24875.119999999999] none [0:158] [0:1] [1:262] [1:241488]
tree_sizes=6629 6667 6708 6701 6718 6700 6745 6772 6766 6749 6774 6792 6759 6782 6787 6797 6788 6788 6804 6795 6804 6784 6798 6809 6784 6815 6843 6819 6816 6837 6816 6832 6808 6822 6817 6864 6810 6844 6847 6839 6804 6848 6819 6847 6847 6819 6878 6820 6814 6805 6833 6817 6822 6830 6829 6825 6827 6847 6802 6772 6814 6808 6826 6767 6859 6776 6780 6802 6813 6768 6838 6832 6799 6803 6819 6791 6835 6799 6778 6811 6837 6808 6843 6850 6832 6851 6785 6844 6820 6834 6838 6877 6839 6808 6852 6791 6867 6816 6843 6847 6758 6792 6828 6797 6803 6812 6816 6843 6834 6822 6784 6796 6797 6807 6818 6860 6820 6787 6805 6821 6893 6782 6809 6821 6823 6826 6818 6796 6786 6871 6793 6816 6794 6850 6827 6895 6856 6904 6849 6872 6812 6824 6842 6913 6858 6910 6867 6852 6955 6852 6819 6841 6857 6835 6864 6918 6867 6888 6811 6932 6859 6844 6832 6912 6911 6905 6822 6884 6887 6890 6925 6875 6832 6894 6949 6849 6932 6855 6929 6869 6845 6874 6899 6899 6906 6929 6862 6890 6908 6867 6895 6903 6907 6891 6843 6894 6882 6855 6876 6920 6899 6971 6902 6925 6890 6912 6950 6881 6890 6953 6866 6866 6959 6873 6916 6869 6927 6939 6922 6934 6893 6960 6874 6872 6911 6908 6923 6896 6939 6938 6893 6942 6895 6933 6926 6908 6937 6926 6928 6874 6938 6875 6878 6875 6891 6900 6908 6870 6906 6884 6937 6879 6928 6895 6964 6942 6834 6896 6941 6935 6965 6947 6925 6931 6998 6898 6921 6957 6957 6904 6927 6931 6907 6954 6960 6889 6910 6944 6963 6860 6928 6963 6939 6959 6887 6961 6927 6930 6931 6977 6926 6916 6904 6943 6959 6959 6953 6896 6894 6977

Tree=0
num_leaves=63
num_cat=0
split_feature=5 3 5 3 33 33 5 38 33 27 33 22 3 23 23 29 3 30 37 0 30 37 3 5 19 3 26 33 19 3 21 38 3 3 3 3 38 1 30 19 3 3 33 3 37 38 20 21 3 3 33 25 3 33 3 29 3 3 21 36 19 5
split_gain=71620.7 7450.37 3011.66 2827.24 1902.77 1470.13 1297.38 840.244 1359.97 763.166 649.869 578.802 369.206 366.714 253.57 268.556 228.347 201.789 184.287 185.89 168.438 164.145 155.394 138.802 131.108 420.422 150.128 122.09 110.356 159.035 101.261 103.171 99.1011 112.066 96.4855 88.3966 88.0593 86.6949 79.1499 77.7498 374.198 616.863 439.701 76.1139 93.8205 75.0312 72.7115 71.9707 66.7852 64.2615 63.8154 61.4342 68.6131 61.4135 60.9966 108.077 78.3472 235.143 76.1469 57.1481 53.3255 49.68
threshold=197.72000000000003 48.500000000000007 117.63000000000001 1.5000000000000002 1765.9850000000004 7638.0749999999998 257.94500000000005 2079.5000000000005 1404.6650000000002 1.0000000180025095e-35 1404.6650000000002 1.0000000180025095e-35 42.500000000000007 1.0000000180025095e-35 1.0000000180025095e-35 1.0000000180025095e-35 1.5000000000000002 9000.0000000000018 67.500000000000014 81.500000000000014 12600.000000000002 52.500000000000007 33.500000000000007 336.35000000000008 1.0000000180025095e-35 33.500000000000007 1.0000000180025095e-35 4353.7750000000005 1.0000000180025095e-35 3.5000000000000004 1.0000000180025095e-35 190.50000000000003 5.5000000000000009 28.500000000000004 35.500000000000007 35.500000000000007 73.500000000000014 1710.5000000000002 16200.000000000002 1.0000000180025095e-35 33.500000000000007 35.500000000000007 191.59500000000003 3.5000000000000004 30.500000000000004 775.50000000000011 1.0000000180025095e-35 1.0000000180025095e-35 35.500000000000007 16.500000000000004 460.56499999999994 1.0000000180025095e-35 13.000000000000002 1023.0950000000001 22.500000000000004 1.0000000180025095e-35 33.500000000000007 35.500000000000007 1.0000000180025095e-35 1.0000000180025095e-35 1.0000000180025095e-35 156.16500000000005
decision_type=2 2 2 2 2 2 2 2 2 2 2 2 2 2 2 2 2 2 2 2 2 2 2 2 2 2 2 2 2 2 2 2 2 2 2 2 2 2 2 2 2 2 2 2 2 2 2 2 2 2 2 2 2 2 2 2 2 2 2 2 2 2
left_child=1 2 5 -2 11 7 10 8 17 -7 12 13 14 16 15 21 -4 30 19 49 -3 35 -23 24 26 -26 46 28 29 -10 39 32 -32 -34 -24 -5 -31 -38 -9 43 -41 42 -42 44 -1 -39 -8 -19 61 -18 -27 -45 -53 -48 55 58 -56 -58 -20 -6 -50 -21
right_child=3 20 4 6 59 9 23 38 27 -11 -12 -13 -14 -15 -16 -17 18 47 54 48 -22 22 34 -25 25 50 -28 -29 -30 36 31 -33 33 -35 -36 -37 37 45 -40 40 41 -43 -44 51 -46 -47 53 -49 60 -51 -52 52 -54 -55 56 -57 57 -59 -60 -61 -62 -63
leaf_value=-2.9822745285814518 -3.069232272403994 -1.5979428436638212 -3.069232272403994 -2.2149681475561298 -1.6492123157818832 -1.7462323128181767 -1.5624199245452182 -3.0680467548456929 -1.8450771373849364 -3.069232272403994 -1.606316654441631 -1.7004681632727552 -1.6431725333576872 -1.5257323195538737 -1.5257323195538737 -1.7335111593606207 -2.5781186510425922 -2.8531040262180416 -2.9298885266605801 -2.4672672907924467 -2.0688156362974346 -2.9406072763331506 -1.7829823116955614 -1.5505274995193374 -3.069232272403994 -2.1527791753992354 -2.2410127855088073 -2.0224909250688548 -2.0990323020410613 -2.1431323006939218 -3.069232272403994 -3.0692322724039935 -1.8344323101238991 -2.706055812909848 -2.7605322818339699 -2.7461741427376896 -2.9074137289600297 -2.1259823012178098 -2.8448863490246157 -3.069232272403994 -2.9289140948721646 -3.0411686368976278 -1.6513660366463256 -3.0413826638797263 -2.5079595622766777 -2.8762947782977291 -2.4077322926110853 -2.2974822959789338 -2.3939510430320667 -2.823907776586756 -1.6375801422241725 -3.005363308837782 -2.6334205210110189 -1.6029073171963812 -3.0381848595593075 -2.1193861475731515 -1.8344323101238977 -2.9910803760571523 -2.2974822959789343 -1.9946436976349231 -2.9810322750982725 -2.1146994068256304
leaf_weight=6.4399095177650434 7.3469390273094168 15.510204613208773 14.693878054618834 7.2108846008777743 6.8027213215827924 6.3492065668106079 26.712019056081779 4782.7212523519993 1.3151927888393427 3.2199547588825208 11.292517393827437 2.4036282002925864 4.1723357439041129 1.088435411453246 1.6326531171798695 2.3582767248153678 6.9841272234916714 36.598640710115433 6.5306124687194842 4.535147547721861 4.8979593515396109 5.986394762992858 1.0884354114532468 124.21769133210182 1.3605442643165568 1.4512472152709959 1.8594104945659626 3.9455783665180197 3.1746032834053031 1.3605442643165577 1.1337868869304646 2.7664400041103363 1.3605442643165591 1.5419501662254331 0.90702950954437245 1.9501134455204008 5.6235829591751081 1.6326531171798708 7.8004537820816031 28.027211844921112 1.9954649209976176 7.4829934537410736 3.900226891040802 243.80953216552734 2.9931973814964294 1.0884354114532468 0.95238098502159008 1.1791383624076832 1.4512472152709961 20.544218391180038 6.2585036158561707 6.5759639441966993 3.8548754155635834 0.90702950954437256 15.782313466072084 1.1791383624076841 1.1337868869304646 3.5827665627002716 1.0884354114532468 3.5827665627002716 1.587301641702652 3.4467121362686157
leaf_count=142 162 342 324 159 150 140 589 105459 29 71 249 53 92 24 36 52 154 807 144 100 108 132 24 2739 30 32 41 87 70 30 25 61 30 34 20 43 124 36 172 618 44 165 86 5376 66 24 21 26 32 453 138 145 85 20 348 26 25 79 24 79 35 76
internal_value=-2.99573 -3.04584 -3.05102 -1.72057 -2.66339 -3.05825 -1.6711 -3.05986 -2.95789 -2.19141 -2.04788 -2.77144 -2.24493 -2.80222 -2.36373 -2.43388 -2.81905 -2.98855 -2.76487 -2.66429 -1.71095 -2.53023 -2.76229 -1.58687 -1.70117 -1.93476 -1.63155 -2.36694 -2.46268 -2.56744 -3.00706 -2.73995 -2.51427 -2.29748 -2.22732 -2.32805 -2.66533 -2.75047 -3.06768 -3.01302 -2.92384 -2.61926 -2.08377 -3.02702 -2.83177 -2.42611 -1.59188 -2.83576 -2.42134 -2.76155 -1.73456 -3.03427 -2.86791 -2.01513 -2.8972 -2.74303 -2.96337 -2.71304 -2.83954 -1.76838 -2.70064 -2.31502
internal_weight=5492.38 5284.72 5264.31 207.664 96.4172 5167.89 200.317 5158.32 367.8 9.56916 36.5986 86.0317 25.3061 83.6281 21.1338 19.5011 82.5397 349.66 67.8458 38.5488 20.4082 17.1429 7.98186 163.719 39.5011 9.0703 30.4308 18.1406 14.195 11.0204 311.882 6.80272 4.03628 2.90249 1.99546 9.161 9.70522 8.34467 4790.52 305.079 41.4059 13.3787 5.89569 263.673 9.43311 2.72109 28.5714 37.7778 11.0204 27.5283 7.70975 254.24 10.4308 1.85941 29.2971 8.79819 20.4989 4.71655 7.61905 10.3855 3.03855 7.98186
internal_count=121107 116528 116078 4579 2126 113952 4417 113741 8110 211 807 1897 558 1844 466 430 1820 7710 1496 850 450 378 176 3610 871 200 671 400 313 243 6877 150 89 64 44 202 214 184 105631 6727 913 295 130 5814 208 60 630 833 243 607 170 5606 230 41 646 194 452 104 168 229 67 176
is_linear=0
shrinkage=1


Tree=1
num_leaves=63
num_cat=0
split_feature=5 38 33 3 3 5 33 19 3 33 30 3 30 1 1 38 3 30 3 3 0 22 32 33 38 33 1 1 33 5 19 3 20 3 26 33 5 37 3 3 38 3 0 33 3 37 3 3 17 33 3 38 30 1 3 33 37 38 37 0 38 3
split_gain=22374.2 1709.87 915.784 782.449 571.329 408.954 203.394 195.673 529.448 124.314 112.598 109.543 86.806 64.2706 63.1167 91.6106 55.7898 59.7874 68.6599 125.608 52.7108 52.5951 144.244 98.3371 51.3617 49.8018 47.9523 47.5527 45.2725 44.015 60.8474 100.408 64.339 60.6298 54.9208 48.8513 39.1332 38.0147 37.9097 33.4355 31.31 29.617 27.7799 27.0095 26.1754 35.8446 25.4988 137.994 36.3692 30.4847 29.3985 28.6787 29.7931 30.1066 27.4149 42.5377 25.7186 24.5742 24.1831 23.614 23.0564 23.0412
threshold=117.63000000000001 1395.5000000000002 1404.6650000000002 1.5000000000000002 48.500000000000007 174.54000000000005 1349.3250000000003 1.0000000180025095e-35 33.500000000000007 296.02000000000004 9000.0000000000018 42.500000000000007 16200.000000000002 2731.5000000000005 465.50000000000006 130.50000000000003 3.5000000000000004 9000.0000000000018 33.500000000000007 35.500000000000007 126.50000000000001 1.0000000180025095e-35 1.5000000000000002 1961.8250000000003 159.50000000000003 505.42500000000007 385.50000000000006 1229.5000000000002 774.07500000000016 224.32000000000002 1.0000000180025095e-35 33.500000000000007 1.0000000180025095e-35 35.500000000000007 1.0000000180025095e-35 639.47000000000014 88.080000000000013 12.500000000000002 27.500000000000004 13.000000000000002 509.50000000000006 22.500000000000004 102.50000000000001 4353.7750000000005 34.500000000000007 29.500000000000004 33.500000000000007 35.500000000000007 1.0000000180025095e-35 425.79500000000007 3.5000000000000004 398.50000000000006 1.0000000180025095e-35 2279.5000000000005 1.5000000000000002 406.25000000000006 65.500000000000014 190.50000000000003 5.5000000000000009 100.50000000000001 1798.5000000000002 10.500000000000002
decision_type=2 2 2 2 2 2 2 2 2 2 2 2 2 2 2 2 2 2 2 2 2 2 2 2 2 2 2 2 2 2 2 2 2 2 2 2 2 2 2 2 2 2 2 2 2 2 2 2 2 2 2 2 2 2 2 2 2 2 2 2 2 2
left_child=1 2 4 -2 10 6 11 12 -9 -10 14 16 21 -11 -1 39 -5 18 24 -20 -14 61 23 -23 27 59 57 -18 36 30 32 -32 34 35 -7 -33 42 -27 -34 -16 -30 60 -12 -15 45 -44 50 49 -49 -48 54 52 53 -52 -17 -56 -57 -4 -28 -19 -26 -3
right_child=3 7 26 5 -6 29 -8 8 9 13 28 -13 20 43 15 46 17 25 19 -21 -22 22 -24 -25 41 37 58 -29 40 -31 31 33 38 -35 -36 -37 -38 -39 -40 -41 -42 -43 44 -45 -46 -47 47 48 -50 -51 51 -53 -54 -55 55 56 -58 -59 -60 -61 -62 -63
leaf_value=-0.046693044923544383 -0.073346737370623374 -0.016650824243900804 0.27340550069621788 0.38060876737847638 0.37188196990168354 0.4115813105867876 0.39240075172993022 -0.07332083115634988 0.098641582903633299 0.43572339349615219 0.027919142015501525 0.34108216522641488 0.069589530452353554 1.0005983305561128 -0.020182268457637105 -0.073251975899496863 0.10832612272576291 0.079549627858983826 0.53464851695905158 0.063403710521282172 0.52210061384504658 -0.039832333523589079 0.74449937888506779 0.54930877509318121 0.051370521670509178 0.70568657669773871 0.10320802471533529 0.51833694709242017 0.56305491791673534 0.38928025241435049 -0.074678789660407585 0.18080660593147299 -0.07546049811766789 -0.041540753374117625 0.083521707480138721 0.46324660201245044 0.26230590549424021 0.26439552861819265 0.33752217426179815 0.26215755005397151 0.10308650112262399 -0.058147425371398095 0.42306174948217268 0.5655927497231763 -0.013264041720005611 0.053326796160734588 0.025963134907668082 -0.023004305052732585 0.31797023146150055 0.38990750209567787 0.45148013219447347 -0.053811755725287243 0.0019352592256975459 0.052196848351768445 0.00012376211781099381 0.1677315605113904 0.50427446189508374 -0.040474498600181416 0.38616977437431815 0.32528212052851874 0.36898409264997101 -0.073086086001190348
leaf_weight=98.570405922830105 20.934099979698658 35.733838319778442 3.1844207271933547 4.4209535866975775 23.708921015262604 45.701504170894623 30.552775003015995 39.940024375915527 4.4488770477473727 8.0098616331815702 21.254459023475651 16.712211277335882 7.3026678375899774 1.6943180821835988 2.5753891468048087 3.8605406805872891 6.4705939963459951 5.4409951567649824 4.3509573861956579 7.6350142247974873 1.5247110836207864 31.390088804066181 1.2770403176546086 1.4525116458535183 9.9785344153642672 1.7933458387851708 1.5281661525368679 1.7638992592692373 1.8670822679996484 557.40023428201675 4.2623081170022514 4.6058291047811499 2.3781336434185496 2.0826823823153964 2.6452358588576308 8.6101630181074125 6.2399361580610266 2.0498877763748169 2.0094019621610641 10.175656639039515 1.1856164336204527 17.781306430697441 3.0954751819372168 1.1910468824207781 2.299577459692955 2.1964803785085678 1.377914786338805 31.982747584581375 1.6099600493907917 6.2112765610218048 1.5992905795574199 57.339862521737814 15.7213433124125 2.1957666352391243 4.7345606721937656 2.8869151920080185 1.8104233145713804 1.9835164546966551 46.925963960587978 2.9579134471714497 1.2615084163844574 4443.1781665422022
leaf_count=2207 489 824 37 51 187 425 269 934 87 88 405 150 139 37 53 91 108 94 63 150 28 734 20 24 171 30 15 26 35 4021 85 55 41 36 47 76 118 29 21 188 23 373 57 12 44 42 25 735 37 46 34 1318 345 41 99 51 26 33 449 38 21 104570
internal_value=-0.00385822 -0.058422 0.0888794 0.348704 0.0419054 0.360597 0.238085 -0.069947 0.0609483 0.410445 0.0140434 0.181017 -0.0715473 0.537764 -0.00353028 0.0259986 0.140427 0.123157 0.0887395 0.234468 0.14775 -0.0719763 0.0146043 -0.0137767 0.0418557 0.261597 0.355627 0.196154 0.125853 0.382615 0.331227 0.225785 0.370339 0.309496 0.393632 0.364815 0.103357 0.470313 0.113677 0.205132 0.384411 -0.00192473 0.0689736 0.821033 0.183916 0.269599 0.00860632 0.0542417 -0.0066628 0.323829 -0.0122409 -0.0288652 0.0444285 0.22046 0.0838801 0.148195 0.29744 0.152935 0.377246 0.166091 0.0870174 -0.0726358
internal_weight=5699.06 4935.26 358.122 763.799 304.5 742.865 113.17 4577.14 55.2841 15.3441 280.791 82.6171 4521.86 10.8952 242.652 144.082 65.9049 61.484 49.2418 11.986 8.82738 4513.03 34.1196 32.8426 37.2558 12.2421 53.6221 8.23449 38.1386 629.695 72.2953 19.561 52.7343 15.2987 48.3467 13.216 35.0859 3.84323 4.38754 12.751 3.0527 29.0213 28.846 2.88536 7.59153 5.29196 131.331 41.1819 33.5927 7.58919 90.1487 76.8563 19.5164 3.79506 13.2924 9.4319 4.69734 5.16794 48.4541 8.39891 11.24 4478.91
internal_count=121107 114238 6741 6869 6207 6380 1573 107497 1158 224 6020 1304 106339 137 5296 3089 1154 1103 912 213 167 106172 778 758 699 191 534 134 724 4807 786 252 534 167 472 131 666 59 62 241 58 565 548 49 143 99 2848 843 772 71 2005 1738 420 75 267 176 77 70 464 132 192 105394
is_linear=0
shrinkage=0.07


Tree=2
num_leaves=63
num_cat=0
split_feature=5 38 33 3 5 3 33 3 30 22 33 32 21 33 5 1 19 3 37 3 3 38 17 3 37 19 3 30 26 20 38 1 3 28 17 33 33 3 38 0 33 3 30 33 38 3 3 0 19 3 38 37 3 35 1 29 3 0 25 32 3 3
split_gain=16172 1267.86 612.864 525.123 388.719 318.484 143.789 111.159 96.9611 57.5164 62.8877 58.8791 50.081 46.743 59.9632 41.9141 39.3237 50.8305 39.1743 38.933 167.899 54.3143 38.6084 37.9347 38.5042 36.7466 126.281 48.0123 35.2937 37.4102 33.6425 33.6152 30.9447 29.6481 29.1972 29.3227 24.991 23.6252 23.3101 20.1532 20.0815 21.0964 19.6334 46.0735 23.3046 20.8203 35.793 29.2705 21.6432 19.9181 21.4438 19.2501 24.9159 22.6563 19.1767 19.1213 59.0689 48.6475 21.1966 42.251 19.4776 18.8134
threshold=100.22000000000001 2079.5000000000005 1262.1700000000003 1.5000000000000002 156.16500000000005 48.500000000000007 1404.6650000000002 48.500000000000007 9000.0000000000018 1.0000000180025095e-35 1961.8250000000003 1.5000000000000002 1.0000000180025095e-35 1298.2600000000002 224.32000000000002 225.50000000000003 1.0000000180025095e-35 33.500000000000007 52.500000000000007 33.500000000000007 35.500000000000007 101.50000000000001 1.0000000180025095e-35 35.500000000000007 6.5000000000000009 1.0000000180025095e-35 33.500000000000007 9000.0000000000018 1.0000000180025095e-35 1.0000000180025095e-35 190.50000000000003 385.50000000000006 27.500000000000004 1.0000000180025095e-35 1.0000000180025095e-35 191.59500000000003 774.07500000000016 13.000000000000002 73.500000000000014 102.50000000000001 1961.8250000000003 27.500000000000004 9000.0000000000018 279.12000000000006 1105.5000000000002 31.500000000000004 35.500000000000007 125.50000000000001 1.0000000180025095e-35 10.500000000000002 701.50000000000011 29.500000000000004 33.500000000000007 1.0000000180025095e-35 2161.5000000000005 1.0000000180025095e-35 15.500000000000002 95.500000000000014 1.0000000180025095e-35 1.5000000000000002 13.000000000000002 3.5000000000000004
decision_type=2 2 2 2 2 2 2 2 2 2 2 2 2 2 2 2 2 2 2 2 2 2 2 2 2 2 2 2 2 2 2 2 2 2 2 2 2 2 2 2 2 2 2 2 2 2 2 2 2 2 2 2 2 2 2 2 2 2 2 2 2 2
left_child=1 2 5 -2 6 8 7 18 12 25 11 -11 15 14 16 -1 28 -18 42 21 -21 37 31 24 -19 -3 -27 -28 29 -6 -14 38 -31 -16 -22 -36 39 -17 -4 -10 41 54 45 -44 -45 47 -47 49 -48 50 -5 52 53 -41 -33 58 57 -57 -23 60 -60 -20
right_child=3 9 22 4 13 -7 -8 -9 36 10 -12 -13 30 -15 33 19 17 23 61 20 34 55 -24 -25 -26 26 27 -29 -30 32 -32 40 -34 -35 35 -37 -38 -39 -40 51 -42 -43 43 44 -46 46 48 -49 -50 -51 -52 -53 -54 -55 -56 56 -58 -59 59 -61 -62 -63
leaf_value=-0.063547665777912696 -0.073144124100493674 -0.072523648904126603 0.27493204891026451 -0.0081121743406789501 0.26729349684222753 0.26348432647298897 0.27310588515422857 0.28870857001771655 0.045328084252214393 -0.027977383221833546 0.32543754841620226 0.54982395331786782 0.2369688560309833 0.29170522901722845 0.27732747818640596 -0.011276358743644282 -0.073586153668358883 0.063468474195192956 0.23966886399417509 0.2647748024179889 -0.028746447834655367 -0.06498609020631603 0.043635391616118159 -0.03168010987583432 0.31371539578401914 -0.073025659943976334 0.41540517186736908 0.062013662838020858 0.0319635189639704 -0.074857528230295775 -0.073240471043190244 0.019804906084383442 0.27117914439245033 0.14520392299363416 -0.016359109424998027 0.4793962121331995 0.25253726426150885 0.26914624055336717 -0.0041546052272264516 0.45673785365427122 0.29388054043040523 0.26824094993838765 0.061945995885912493 0.23558130894814872 0.50157364753327804 0.32801277716012456 0.1637133559844583 0.33133138454193545 -0.073963706455294945 -0.023179967717103681 0.24715095214601665 0.036067641363690853 0.06256977354951021 0.1506025158157929 0.30143871916207593 0.0171650569727252 -0.053702503503583833 0.28627432016062188 -0.073337540683545796 0.48102880329971504 0.22186488135563617 0.028506026099590753
leaf_weight=79.224944930523634 23.985749017447233 4137.4789440557361 2.3492767661809912 3.0135350339114728 50.946427393704653 24.076761528849602 36.780848920345306 15.233610078692434 28.053838890045881 26.240690313279636 3.0674549378454676 0.89359982311725517 6.2006487622857076 462.98730371892452 278.90070582181215 2.2466790080070487 4.8899501077830818 4.4419268891215351 2.1701455861330023 13.13690699636936 47.113296639174223 76.69304347038269 4.5038002803921691 3.2784339971840373 9.3639323748648149 25.497732818126678 4.0837310701608649 3.496915265917778 3.9267890788614741 3.0206506066024295 2.3670048266649246 4.2780081853270522 2.180329691618681 8.578046075999735 1.2029401250183576 1.1373315863311289 4.4673691354691973 4.2700655460357666 3.9022386595606804 2.6237511560320836 46.255024209618568 8.9273476637899858 7.0798586942255488 6.2658017128705961 2.1739650294184685 4.4739537276327601 5.5054084882140142 1.7148900069296349 2.8487681224942207 12.283732727169989 3.4687682092189789 4.4167931340634823 3.05301134288311 2.1595472097396851 1.6383888423442838 8.4194265194237214 28.758010700345039 5.4043432362377635 4.905767358839511 1.0058952569961546 1.4099673777818678 43.674385689198971
leaf_count=1894 597 104074 21 43 443 151 265 96 509 617 29 11 75 2609 1655 50 110 50 18 105 1099 1842 51 61 81 642 44 45 67 55 56 58 22 49 21 20 61 71 69 34 330 78 103 80 26 52 85 24 57 235 56 76 51 29 14 170 694 83 113 15 20 846
internal_value=-0.00432949 -0.0595925 0.0557415 0.250447 0.258374 0.0177458 0.153304 0.113211 -0.00027769 -0.0712391 0.0250132 -0.00894894 -0.0153966 0.276887 0.258321 -0.0205904 0.205539 0.125412 0.0849725 -0.0032004 0.0423313 -0.0246096 0.242059 0.18237 0.2332 -0.0719361 0.00154998 0.252387 0.234848 0.249037 0.151267 0.255328 0.0702063 0.273385 -0.0167589 0.224569 0.0954506 0.172469 0.100724 0.0780401 0.271147 0.200305 0.128603 0.193631 0.304097 0.0983048 0.168233 0.0545055 0.0826657 0.0292084 0.128483 0.152935 0.218805 0.318525 0.0977959 -0.0347546 0.00345846 0.122372 -0.0541223 0.0596739 -0.00743455 0.0385019
internal_weight=5628.15 4624.96 424.201 1003.19 979.202 352.347 146.688 109.907 328.271 4200.76 30.2017 27.1343 283.496 832.514 369.527 274.929 82.0484 21.9742 94.6732 195.704 62.5905 133.113 71.8541 17.0843 13.8059 4170.56 33.0784 7.58065 60.0742 56.1474 8.56765 67.3503 5.20098 287.479 49.4536 2.34027 44.7743 6.51674 6.25152 40.3069 61.0988 14.8437 48.8287 15.5196 8.43977 33.3091 12.8281 20.4809 8.35418 18.766 6.4823 12.2531 7.83631 4.7833 5.9164 126.596 42.5818 13.8238 84.0147 7.32163 6.31573 45.8445
internal_count=121107 113322 7860 7785 7188 7239 1986 1721 7088 105462 657 628 6328 5202 2593 6197 889 302 1625 4303 1245 3058 621 192 131 104805 731 89 587 520 131 570 77 1704 1140 41 760 121 90 699 480 150 761 209 106 552 194 358 142 334 99 190 114 63 72 2937 947 253 1990 148 133 864
is_linear=0
shrinkage=0.07


Tree=3
num_leaves=63
num_cat=0
split_feature=5 38 33 5 25 3 33 3 30 38 33 3 21 19 3 3 30 5 19 3 3 20 26 3 37 3 30 3 33 30 3 3 30 20 1 38 0 38 1 37 37 38 35 0 3 3 0 38 30 0 30 33 38 33 37 1 3 5 33 0 13 0
split_gain=12752.9 1069.15 407.62 406.495 221.745 192.005 149.236 109.995 65.2736 50.0545 123.035 44.2099 40.5177 44.1989 94.1574 60.86 39.7972 36.9005 47.1388 108.585 47.2318 40.0194 44.8508 44.3818 34.9954 34.6283 30.8209 30.5505 27.8898 25.977 33.0898 25.825 21.7643 25.3004 21.4448 21.1178 20.6632 20.487 41.8456 19.4006 19.2153 20.2128 19.0804 18.3536 17.6184 19.8043 17.0692 16.1043 15.9574 22.8175 19.6027 16.3561 17.8485 15.595 15.4791 15.4369 15.2874 15.1498 15.3982 14.52 13.3888 13.9057
threshold=93.720000000000013 2079.5000000000005 1180.5850000000003 156.16500000000005 1.0000000180025095e-35 1.5000000000000002 1349.3250000000003 48.500000000000007 12600.000000000002 4923.5000000000009 1961.8250000000003 1.5000000000000002 1.0000000180025095e-35 1.0000000180025095e-35 33.500000000000007 35.500000000000007 9000.0000000000018 257.94500000000005 1.0000000180025095e-35 33.500000000000007 35.500000000000007 1.0000000180025095e-35 1.0000000180025095e-35 27.500000000000004 67.500000000000014 3.5000000000000004 5400.0000000000009 13.000000000000002 1645.8700000000001 1.0000000180025095e-35 33.500000000000007 10.500000000000002 1.0000000180025095e-35 1.0000000180025095e-35 1413.5000000000002 190.50000000000003 49.500000000000007 303.50000000000006 2036.5000000000002 11.500000000000002 86.500000000000014 351.50000000000006 2.5000000000000004 105.50000000000001 31.500000000000004 22.500000000000004 16.500000000000004 632.50000000000011 5400.0000000000009 71.500000000000014 45000.000000000007 537.62500000000011 1798.5000000000002 5725.7350000000015 26.500000000000004 1174.5000000000002 24.500000000000004 63.005000000000003 342.33500000000004 139.50000000000003 1.0000000180025095e-35 102.50000000000001
decision_type=2 2 2 2 2 2 2 2 2 2 2 2 2 2 2 2 2 2 2 2 2 2 2 2 2 2 2 2 2 2 2 2 2 2 2 2 2 2 2 2 2 2 2 2 2 2 2 2 2 2 2 2 2 2 2 2 2 2 2 2 2 2
left_child=1 2 4 6 8 -5 7 11 12 10 16 -2 13 25 -15 36 29 18 21 -20 26 22 -7 -23 48 43 -21 -6 40 30 31 -3 33 -27 -12 -14 -16 38 -26 -32 41 -4 46 -1 45 -8 -30 -24 49 -13 54 -51 -53 -48 -50 -28 -47 -10 60 -18 -59 -62
right_child=3 9 28 5 27 17 44 -9 57 -11 34 24 35 14 15 -17 59 -19 19 20 -22 23 47 -25 37 32 55 -29 42 -31 39 -33 -34 -35 -36 -37 -38 -39 -40 -41 -42 -43 -44 -45 -46 56 53 -49 50 51 -52 52 -54 -55 -56 -57 -58 58 -60 -61 61 -63
leaf_value=0.0024469459909641066 -0.072837151599932481 0.34025432841488906 0.33717940459033069 -0.07280884467333415 0.010701544092597749 0.23485060169973301 0.20383085188615127 0.23104671074935973 0.049579832723738115 -0.072797360302804898 -0.072814497506706113 0.039595212397811178 0.17925978029474107 -0.072868033962540602 0.092580471225784014 -0.048718763530171898 0.053599910500482163 0.23057817339482536 -0.077930159371653554 0.2598419368267299 -0.020977552977168634 -0.077663996901876156 -0.011274978727580282 0.20557759585738594 0.036431964108792667 -0.0026466987209725363 0.036086355296249838 0.1968394417477986 0.32102886478450471 -0.064247673508027736 0.072604950750055075 -0.064724562771629607 -0.055308747085528652 0.36189313045490085 0.272744206350583 -0.07301366167497321 0.27354564339844056 -0.010548378349928063 0.37554182449338908 0.40495429043008724 0.026781453554518424 0.11637904077137359 0.25304483920967313 0.17446817820898089 0.24936128119511108 -0.08152898470026014 0.12132326051568128 0.23200177606630509 0.2205561931119697 0.0093013180825291322 0.056331022413338309 0.2393646339401099 0.028774266591863475 0.2171837212928803 0.056754746241213273 0.18045858003981716 0.16427201533860708 -0.027461919794596269 0.27007156171884295 0.30477222760182349 0.080720349758303223 0.33879473706830626
leaf_weight=7.2301930971443635 12.506201688200234 0.8470851443707933 2.683188050985339 10.867374297231434 4.9786286279559127 143.79369004070759 15.530200853943827 19.371432617306709 26.854591280221939 3743.4548164457083 1.0032915584743003 32.641028471291065 7.2451604604721052 18.259785417467356 4.3860382288694408 5.7103872299194327 9.2381869815289956 737.16240165382624 9.1581610329449159 24.631701432168484 4.8685538209974757 4.5972043909132463 5.1045907437801352 6.6058919243514538 10.52039900049567 29.678054995834831 5.1104324609041241 32.690021701157093 3.5778303593397132 152.14097924903035 1.8899992145597928 8.6541767157614213 168.99683370813727 0.96317321807145972 7.1598872765898705 2.0963990464806557 10.477096967399119 33.619675014168024 2.1469330266118041 1.5802115388214586 7.8525610268115988 8.3647659905254823 26.312345169484615 5.2430314347147942 29.624469835311174 2.4438957795500746 20.405883885920048 1.8047183081507681 13.081652842462068 3.2662730291485778 8.8602839931845647 8.1193798035383207 2.6046967208385459 14.035547226667402 3.6061453744769087 12.519098944962023 2.5165042467415333 2.878782279789446 3.4335528910160065 1.2845856212079514 3.151472844183445 1.5147944688796995
leaf_count=130 335 22 34 293 115 883 110 104 432 100719 27 559 71 483 50 136 164 3610 157 145 74 71 68 43 183 693 38 226 23 3991 35 233 4199 19 71 53 59 706 27 13 117 97 158 58 169 27 169 23 157 54 110 101 39 79 49 90 21 46 47 18 54 20
internal_value=-0.00454534 -0.0597058 0.0465824 0.200945 0.0122091 0.219765 0.110231 0.0753602 -0.00801121 -0.0710463 -0.0353814 0.0523335 -0.0204989 -0.0258276 0.042831 0.145518 -0.0477285 0.223094 0.197807 0.142626 0.185484 0.216991 0.22648 0.0893491 0.0655474 -0.0383975 0.209268 0.172238 0.185257 -0.0561404 0.0389488 -0.0286187 -0.0454672 0.00881221 0.230273 0.122645 0.220144 0.0180377 0.0939063 0.223945 0.1105 0.170004 0.20722 0.0747549 0.214843 0.164938 0.175505 0.0522691 0.0960144 0.0716524 0.140481 0.146445 0.188216 0.160388 0.18516 0.138608 0.0431705 0.0779021 0.147181 0.0842622 0.0912566 0.164498
internal_weight=5512.96 4346.27 419.02 1166.68 335.788 966.224 200.459 150.344 298.119 3927.25 183.798 130.973 260.286 250.945 38.8333 20.5735 175.635 955.356 218.194 56.2879 47.1298 161.906 150.703 11.2031 118.466 212.111 42.2612 37.6687 83.2321 165.112 12.9715 9.50126 199.638 30.6412 8.16318 9.34156 14.8631 46.287 12.6673 3.47021 18.9005 11.048 64.3316 12.4732 50.1151 20.4906 38.0193 6.90931 72.1795 46.6314 25.5481 13.9903 10.7241 34.4414 16.6878 17.6295 4.9604 37.8332 10.9786 10.5228 7.54505 4.66627
internal_count=121107 112861 7568 8246 6891 5495 2751 2424 6550 105293 4574 2320 5951 5827 728 245 4476 5202 1592 504 347 1088 974 114 1985 5099 273 341 677 4294 303 255 4911 712 98 124 109 916 210 48 248 131 429 188 327 158 271 91 1069 753 316 194 140 248 206 128 48 599 167 182 120 74
is_linear=0
shrinkage=0.07


Tree=4
num_leaves=63
num_cat=0
split_feature=5 38 33 5 25 33 3 25 30 38 33 3 3 3 30 21 19 3 3 30 21 3 25 33 3 18 38 3 38 30 3 3 5 37 30 33 33 30 3 38 3 20 3 38 24 38 3 38 3 33 0 37 0 0 0 0 3 29 1 3 3 3
split_gain=10488.5 995.422 309.312 303.417 155.541 136.932 112.271 87.3941 52.4852 50.3764 97.8516 47.332 36.8352 42.8036 55.2289 35.5238 38.4798 71.2929 42.193 35.1053 33.5546 60.7866 33.2498 35.8095 31.7169 31.6383 43.9049 25.7742 25.7178 23.8767 23.9858 23.314 23.0246 23.2911 20.0749 19.8396 18.6141 18.3775 18.1601 19.065 17.7641 16.8817 16.5125 28.4592 18.9097 15.6451 15.3357 15.3079 14.6075 14.3097 14.8914 18.535 14.2936 13.645 13.0839 12.9604 15.6463 12.9491 12.8643 12.0662 24.5302 25.0197
threshold=93.720000000000013 2079.5000000000005 1072.4400000000003 174.54000000000005 1.0000000180025095e-35 1349.3250000000003 1.5000000000000002 1.0000000180025095e-35 12600.000000000002 4923.5000000000009 1961.8250000000003 1.5000000000000002 3.5000000000000004 31.500000000000004 9000.0000000000018 1.0000000180025095e-35 1.0000000180025095e-35 33.500000000000007 35.500000000000007 9000.0000000000018 1.0000000180025095e-35 5.5000000000000009 1.0000000180025095e-35 1961.8250000000003 3.5000000000000004 1.0000000180025095e-35 855.50000000000011 13.000000000000002 261.50000000000006 1.0000000180025095e-35 33.500000000000007 13.000000000000002 295.99000000000007 111.50000000000001 1.0000000180025095e-35 2220.8700000000003 191.59500000000003 5400.0000000000009 33.500000000000007 130.50000000000003 10.500000000000002 1.0000000180025095e-35 10.500000000000002 775.50000000000011 1.0000000180025095e-35 190.50000000000003 33.500000000000007 1021.5000000000001 32.500000000000007 1102.0950000000005 111.50000000000001 22.500000000000004 52.500000000000007 73.500000000000014 143.50000000000003 157.50000000000003 40.500000000000007 1.0000000180025095e-35 385.50000000000006 3.5000000000000004 15.500000000000002 34.500000000000007
decision_type=2 2 2 2 2 2 2 2 2 2 2 2 2 2 2 2 2 2 2 2 2 2 2 2 2 2 2 2 2 2 2 2 2 2 2 2 2 2 2 2 2 2 2 2 2 2 2 2 2 2 2 2 2 2 2 2 2 2 2 2 2 2
left_child=1 2 4 5 8 7 -5 11 15 10 19 -2 -13 14 20 16 24 -18 52 29 42 -22 23 37 53 26 48 -9 -16 30 40 -6 33 49 41 38 -28 46 39 -35 -3 -26 43 -14 -44 -17 57 -30 -15 50 51 -8 -19 -1 -21 56 -48 -4 -25 -10 -61 -62
right_child=3 9 22 6 31 -7 32 27 59 -11 -12 12 13 25 28 45 17 18 -20 54 21 -23 -24 58 34 -27 36 -29 47 -31 -32 -33 -34 35 -36 -37 -38 -39 -40 -41 -42 -43 44 -45 -46 -47 55 -49 -50 -51 -52 -53 -54 -55 -56 -57 -58 -59 -60 60 61 -63
leaf_value=-0.029262949509320329 -0.07263382787651311 0.22954596696910098 -0.054098558374235849 -0.072611606070851958 -0.0025455985593064328 0.1869515040254926 0.17351356639884158 0.0073870440416073978 0.19175084885026064 -0.07259835954373868 0.18656985190755557 0.19421495867834568 -0.074852728253516243 0.26614428244158739 0.30375629738497778 0.15120100725997832 -0.07266649510002561 0.073274144664957089 -0.047071663148023191 0.044332794033382313 -0.078314489017733399 0.35971828934227978 0.21886485847418707 0.034752169725008414 -0.0043270644442256496 -0.073650155016585714 0.035067030399986092 0.19190624803494025 0.010801711898944142 -0.06353046739264738 0.17618548050427665 0.16043905965138655 0.19777137883457416 0.15988006526059495 -0.056012431476189006 0.20371964846880619 0.20534729050390912 0.17540565147145668 0.16254161485588337 -0.019519928898384654 -0.064049146159207981 0.2576535996047733 -0.054316667278469434 0.15834050095969826 0.19342922035088528 -0.072800944330854239 0.18921557730689303 0.24508122410141103 0.044341536234418479 0.19896872767199314 0.20355498470932654 0.10860113893120327 0.22075175895270926 0.1199095592189314 0.27376758926124589 0.26042935587290678 -0.025774849116792068 0.10347360772616268 0.17236512944724525 -0.025613570900927581 0.15457124917435186 0.0095713324695807841
leaf_weight=4.671951610594987 13.841286592185496 1.1526063792407502 9.8950968272984081 7.9748143628239623 4.9202494882047167 72.134502958506346 61.55969550088048 4.1857627332210532 3.3886361978948107 3499.602253858 9.3077104464173299 9.7591246999800187 4.6875624135136587 1.5312778502702737 4.0045302473008615 8.0475059673190099 16.081314135342836 4.4699609428644207 5.3823564872145644 9.9261968135833722 3.0468106754124156 3.164851326495409 24.98747218772769 3.5944859758019438 28.381031237542633 4.9209580533206454 3.6887653879821327 32.591033160686493 4.6926526576280594 143.400570448488 4.0629403442144385 34.142503939568996 713.49337519705296 4.1092008985579076 157.02828613296151 9.3171511590480787 21.364339701831341 5.6606185026466838 8.5714415013790113 9.8851135373115522 8.1512089371681196 1.2586935199797142 42.547559343278408 5.6617489233613014 1.5651503987610329 1.8858355283737172 2.7472980357706529 1.9281180761754511 29.175082895904779 118.32725362479687 36.224209070205688 33.167406611144543 11.517747737467287 8.41926336660981 1.3882372230291355 2.0322932824492455 4.1861399225890636 3.445276513695716 45.001062247902155 12.562419742345808 14.201869834214451 9.8927288018167001
leaf_count=92 397 22 201 230 113 408 366 66 48 100719 98 83 85 8 40 70 455 49 134 167 38 28 127 37 665 113 43 197 53 3991 48 215 3183 33 4105 43 191 53 48 124 233 18 909 88 27 51 20 20 415 573 204 233 57 94 15 23 76 54 264 193 195 159
internal_value=-0.00465141 -0.0589957 0.0420646 0.171395 0.00885702 0.104703 0.188988 0.0738597 -0.00896843 -0.0707537 -0.0343613 0.0509196 0.062985 0.0532813 0.016505 -0.0210142 -0.026445 0.0386679 0.122449 -0.0465956 -0.00927656 0.144864 0.148752 0.125869 -0.0386525 0.0964931 0.111509 0.170905 0.163726 -0.0551899 0.0342887 0.13991 0.191086 0.17412 -0.0460391 0.117785 0.180276 0.0627636 0.0823034 0.0331579 -0.027677 0.00679832 -0.026857 0.0527192 -0.0455265 0.108674 0.0341784 0.0790292 0.0554025 0.181325 0.165383 0.150785 0.179519 0.0666733 0.0724836 0.104978 0.0594127 -0.0134041 0.162186 0.0653727 0.0536901 0.0950374
internal_weight=5371.91 4104.79 427.802 1267.12 326.252 264.491 1002.63 192.357 287.19 3676.99 177.389 155.58 141.739 131.979 71.299 247.144 237.211 37.4514 21.3701 168.082 60.6737 6.21166 101.55 76.5623 199.759 60.6804 55.7595 36.7768 10.6253 156.767 13.3668 39.0628 994.655 281.161 186.668 31.8829 25.0531 27.9667 22.5658 13.9943 9.30382 29.6397 54.462 10.3493 44.1127 9.93334 22.3061 6.62077 30.7064 249.279 130.951 94.7271 15.9877 13.0912 11.3144 8.96573 6.93344 13.3404 48.5955 40.0457 36.657 24.0946
internal_count=121107 112861 7568 8246 6713 3209 5037 2801 6385 105293 4574 2538 2141 2058 1288 5790 5669 695 240 4476 1175 66 855 728 4974 770 657 263 113 4294 303 328 4807 1624 4788 248 234 427 205 157 255 683 1109 173 936 121 374 73 423 1376 803 599 106 186 182 119 96 255 301 595 547 354
is_linear=0
shrinkage=0.07


Tree=5
num_leaves=63
num_cat=0
split_feature=5 38 33 5 25 33 3 19 17 30 32 30 3 3 22 33 18 3 21 38 29 3 3 33 3 38 33 38 33 1 24 32 3 1 38 38 3 1 3 3 3 0 33 3 30 33 3 0 0 33 3 5 35 38 3 3 1 33 3 3 32 33
split_gain=8850.46 934.783 280.735 245.255 150.77 125.426 83.6274 94.8109 56.9657 56.5968 48.8633 48.8644 42.0092 129.311 40.6329 38.1561 36.9089 34.3114 32.4126 25.5234 22.766 40.8568 21.8915 24.7048 19.469 26.3774 19.3874 19.3624 17.7061 17.3114 16.9285 16.4017 15.6642 14.3663 14.2975 13.8253 20.2571 16.7257 16.7707 20.7244 17.3425 13.3789 15.8685 13.174 12.9296 12.6029 28.1349 13.5456 13.1717 12.1211 12.0479 15.5958 11.9982 11.8755 16.3084 30.9233 11.436 12.4564 11.4105 11.082 42.7631 11.8371
threshold=93.720000000000013 2746.5000000000005 1180.5850000000003 224.32000000000002 1.0000000180025095e-35 1262.1700000000003 33.500000000000007 1.0000000180025095e-35 1.0000000180025095e-35 12600.000000000002 1.5000000000000002 5400.0000000000009 33.500000000000007 37.500000000000007 1.0000000180025095e-35 425.79500000000007 1.0000000180025095e-35 3.5000000000000004 1.0000000180025095e-35 190.50000000000003 1.0000000180025095e-35 15.500000000000002 31.500000000000004 2684.9750000000004 48.500000000000007 1105.5000000000002 465.99500000000006 1196.5000000000002 1961.8250000000003 1109.5000000000002 1.0000000180025095e-35 1.5000000000000002 13.000000000000002 1885.5000000000002 47.500000000000007 261.50000000000006 13.000000000000002 225.50000000000003 18.500000000000004 20.500000000000004 28.500000000000004 100.50000000000001 653.0150000000001 11.500000000000002 1.0000000180025095e-35 702.44500000000016 37.500000000000007 6.5000000000000009 139.50000000000003 663.44500000000016 8.5000000000000018 174.54000000000005 2.5000000000000004 450.50000000000006 20.500000000000004 16.500000000000004 2744.5000000000005 370.39500000000004 20.500000000000004 17.500000000000004 1.5000000000000002 1262.1700000000003
decision_type=2 2 2 2 2 2 2 2 2 2 2 2 2 2 2 2 2 2 2 2 2 2 2 2 2 2 2 2 2 2 2 2 2 2 2 2 2 2 2 2 2 2 2 2 2 2 2 2 2 2 2 2 2 2 2 2 2 2 2 2 2 2
left_child=1 2 4 5 9 6 7 8 10 12 11 17 19 15 59 -14 24 -2 -15 29 -21 26 23 27 25 45 -22 33 44 34 -13 56 -6 -4 -1 36 -19 -38 -39 -40 -41 -28 -43 50 -16 47 -47 -8 -49 -12 -37 -52 -24 54 55 -51 57 -27 -31 60 61 -3
right_child=3 14 22 -5 32 -7 16 -9 -10 -11 49 30 13 18 28 -17 -18 35 -20 20 21 -23 52 -25 -26 31 41 -29 -30 58 -32 -33 -34 -35 -36 43 37 38 39 40 -42 42 -44 -45 -46 46 -48 48 -50 53 51 -53 -54 -55 -56 -57 -58 -59 -60 -61 -62 -63
leaf_value=0.064853495667498276 0.17456486193917287 -0.057881239896422985 0.036889482410648676 0.17024026862035435 0.0096484858294111787 0.16299706270671208 0.20334294254908214 -0.072739084590584965 -0.075309049538536538 0.059041633630115803 0.10326261253464057 0.15801995599336774 0.034824151320180088 -0.042954609789722466 0.16326535815241183 0.20743526364140696 -0.073394168628391168 -0.041736807712450939 0.37516637055762853 -0.069075977886064843 0.0029726315244854133 -0.056157133780452215 0.1295148887659571 0.14265326200195061 0.1700179698428585 0.046023483763353135 0.040254852786065852 -0.074843569401548765 0.15993575117994596 0.023206250532456486 0.0049910407679411286 0.26257801617145715 0.14076268011079179 0.1896710975148764 -0.051334888025583739 -0.075346003813392196 -0.03898893564269873 0.27572054539665952 -0.074827352398782521 0.25753044204911629 0.035591625371779533 0.39713936964840385 0.13515729858610245 -0.043064512731905709 -0.025186841996478668 0.23245346320777885 0.054897113385772876 0.010581019746907854 0.14490867325797835 0.244130674373151 0.043657387732439927 0.29134392427210354 0.19230912562143879 0.3534092316583059 0.30469807959794287 -0.079626911344208226 0.21105706135621013 0.1519400968392525 0.1997770996753572 -0.07237334762380794 0.37144184744247277 0.13377110567090975
leaf_weight=7.8661015555262628 7.2228759713470927 28.246106602251537 10.601782608777286 932.56561084836721 5.0378573499619952 126.22653571143746 2.4751011170446899 27.795023869723082 11.947933904826639 47.850875101983547 5.5066771693527725 26.781608078628782 9.8802545741200465 65.262044060975313 1.9867391139268935 17.197677820920944 4.6037059351801863 7.4578385427594212 0.921284019947051 116.85853968560696 8.0817689411342162 33.936054136604071 29.404733747243881 25.605597335845232 38.068554118275642 9.0323035418987327 3.0057226978242388 5.3658125549554816 3.762352541089057 3.5395336709916583 4.0820560641586772 5.8253181017935267 39.253100246191025 4.2146698534488669 15.251547571271656 2.5560893490910512 3.4544052891433266 3.1194955110549918 2.7174138128757459 3.6726846247911453 3.2535095252096653 1.7481554336845873 3.2189301960170269 24.457549203187227 17.475511837750673 6.9223030284047153 11.873533204197882 22.301126103848222 4.2601982504129401 3.7866074554622156 5.2257236391305923 1.6355156600475309 30.246218524873257 2.8512615449726573 3.8290135338902473 2.3382236398756504 7.201518189162015 13.682919163256882 3.6351266279816628 3333.3027108497918 1.2455561533570279 1.6726284287869919
leaf_count=153 45 801 127 4121 115 661 28 789 239 663 52 235 149 1727 23 118 113 99 8 3329 151 967 200 147 170 78 47 108 23 66 42 36 226 28 360 47 47 27 49 31 29 15 32 446 452 54 157 271 44 33 77 9 153 26 22 27 54 88 25 102594 18 36
internal_value=-0.00470199 -0.0583004 0.032279 0.150467 0.00440475 0.105068 0.0789473 0.0442716 0.0701048 -0.0114972 0.085352 0.065294 -0.0231202 0.0155885 -0.0713479 0.144453 0.121161 0.0307551 -0.0371343 -0.041432 -0.052164 -0.0126306 0.13341 0.0970043 0.128525 0.109624 0.0793756 0.0390887 0.0209238 0.0176798 0.13778 0.155117 0.125849 0.0803496 -0.0118002 0.0127062 0.0537457 0.0976546 0.134638 0.0890008 0.153277 0.156823 0.227361 -0.0159766 -0.00594933 0.0756297 0.120289 0.0467207 0.032126 0.190109 0.0543729 0.102699 0.161355 0.227456 0.191377 0.120533 0.134193 0.109824 0.112668 -0.0719849 -0.0304361 -0.0471668
internal_weight=5214.41 3875.67 487.983 1338.73 382.545 406.165 279.938 153.692 125.896 338.254 113.949 95.6368 290.403 93.2613 3387.69 27.0779 126.247 64.7731 66.1833 197.141 166.849 49.9906 105.439 45.7879 121.643 83.5743 16.0546 20.1823 23.2246 30.2923 30.8637 35.7421 44.291 14.8165 23.1176 57.5502 23.6753 16.2175 12.7631 9.64361 6.92619 7.97281 4.96709 33.8749 19.4623 47.8323 18.7958 29.0364 26.5613 18.3118 9.41733 6.86124 59.651 12.8051 9.95384 6.12483 29.9167 22.7152 7.17466 3364.47 31.1643 29.9187
internal_count=121107 112861 8914 8246 8151 4125 3464 2371 1582 7810 1343 1183 7147 2002 103947 267 1093 906 1735 5145 4541 1212 763 410 980 810 245 263 498 604 277 256 341 155 513 861 282 183 136 109 60 94 47 579 475 554 211 343 315 160 133 86 353 108 82 60 220 166 91 103449 855 837
is_linear=0
shrinkage=0.07


Tree=6
num_leaves=63
num_cat=0
split_feature=5 38 33 5 3 33 3 25 1 38 22 3 3 3 30 3 33 37 0 5 19 3 3 26 20 3 33 29 37 37 3 30 3 3 33 0 38 33 38 0 37 37 13 1 38 30 3 5 38 3 32 29 3 33 22 1 1 5 33 3 17 30
split_gain=7595.33 880.047 228.243 209.788 112.902 84.1643 78.2953 55.727 48.8017 47.3068 39.1508 37.2867 64.0167 36.022 27.5534 26.5223 27.3732 26.3141 24.2827 23.6642 23.7652 74.6369 32.2407 25.7152 19.638 36.317 19.0038 19.0018 17.7383 17.7368 16.8855 16.8638 16.4624 15.943 15.7495 14.9505 14.1897 14.1535 11.9642 11.6862 17.2795 11.9181 13.7003 11.6802 26.2042 11.7264 11.502 11.4523 12.6347 11.2132 29.2506 10.9617 19.7285 10.7611 11.8083 10.3987 10.3638 10.1115 10.0202 9.83035 8.94274 8.85
threshold=93.720000000000013 2746.5000000000005 1072.4400000000003 174.54000000000005 48.500000000000007 1540.0650000000001 1.5000000000000002 1.0000000180025095e-35 397.50000000000006 130.50000000000003 1.0000000180025095e-35 33.500000000000007 35.500000000000007 1.5000000000000002 12600.000000000002 33.500000000000007 2220.8700000000003 96.500000000000014 94.500000000000014 295.99000000000007 1.0000000180025095e-35 33.500000000000007 35.500000000000007 1.0000000180025095e-35 1.0000000180025095e-35 27.500000000000004 191.59500000000003 1.0000000180025095e-35 12.500000000000002 37.500000000000007 9.5000000000000018 23400.000000000004 20.500000000000004 13.000000000000002 311.74000000000007 1.0000000180025095e-35 936.50000000000011 1961.8250000000003 190.50000000000003 154.50000000000003 119.50000000000001 8.5000000000000018 1.0000000180025095e-35 731.50000000000011 47.500000000000007 1.0000000180025095e-35 3.5000000000000004 128.00000000000003 2079.5000000000005 17.500000000000004 1.5000000000000002 1.0000000180025095e-35 23.500000000000004 481.12000000000006 1.0000000180025095e-35 3066.5000000000005 1283.5000000000002 46.205000000000005 1262.1700000000003 41.500000000000007 1.0000000180025095e-35 27000.000000000004
decision_type=2 2 2 2 2 2 2 2 2 2 2 2 2 2 2 2 2 2 2 2 2 2 2 2 2 2 2 2 2 2 2 2 2 2 2 2 2 2 2 2 2 2 2 2 2 2 2 2 2 2 2 2 2 2 2 2 2 2 2 2 2 2
left_child=1 2 4 5 8 7 -5 13 38 43 49 14 26 -2 35 16 28 18 29 20 23 -22 31 24 -8 -26 -13 60 -4 47 57 -23 -32 -9 -34 -11 46 39 -1 41 -41 42 -12 44 -10 56 -37 55 -49 50 58 -30 -53 -19 -55 -15 -45 -16 -3 -25 -17 -28
right_child=3 10 15 6 -6 -7 19 33 9 11 37 12 -14 17 30 27 -18 53 -20 -21 21 22 -24 59 25 -27 61 -29 51 -31 32 -33 34 -35 -36 36 -38 -39 -40 40 -42 -43 -44 45 -46 -47 -48 48 -50 -51 -52 52 -54 54 -56 -57 -58 -59 -60 -61 -62 -63
leaf_value=-0.013086803678921828 -0.072551456964866506 -0.056907958441427542 0.18448388989446066 -0.072581520057395141 0.1342006723018731 0.14579241247884908 0.15581761600922692 0.0032297568228759452 0.23566999006120426 0.25679111857546094 -0.04235300928689216 0.029210023198371817 -0.014032074163000712 0.020388848442501249 0.071640815283465636 0.15675066672075619 0.11911491309444644 0.15728317472754422 0.10979187899360371 0.15678656885314751 -0.080457548926435613 0.15673483366492058 -0.030475657037725829 -0.083933108830220815 -0.083956710667024981 0.14744124857022076 0.17406456090719241 -0.024266255260210656 -0.035194487431982939 -0.0074227818236960175 -0.032208714286433647 0.059113115358457577 -0.0054494625061798814 0.14404138577932027 0.27350196837934082 0.059082057197103049 -0.059597251628217433 0.13862018513868773 -0.065816705634682962 0.32429961455733292 -0.072610848307107387 -0.057785942405556047 0.21430780031669808 0.17216623710826789 -0.050261336148336742 0.19403176442523812 -0.026989578704145513 0.071126474395986655 0.18238375075480673 -0.072198855589450731 0.25653589376610264 0.21299529129867992 -0.049762872679880957 -0.021490022723398824 0.14109649924093695 0.19509384030532456 -0.0071650456692717961 0.25882898195628962 0.11048894878631114 0.075713656796958462 0.053015751465350411 0.058830549980313909
leaf_weight=30.03987093269825 12.582645067945121 26.771088343113668 2.7830900736153152 7.7827190551906815 29.19261223077774 74.516372449696064 208.94030945003033 4.3778012841939917 2.22212762013078 0.84239430353045364 2.1516959741711714 8.6241095438599604 46.97827197983861 25.376205392181877 3.2898475974798229 60.581242505460978 30.926583506166935 1.9797187037765969 41.291408270597458 776.98051451891661 9.7543346472084504 53.217911437153816 5.8814698308706275 2.4737443104386303 4.878894515335559 10.42439830303192 17.319712802767757 3.2264697179198256 14.917386926710607 23.490062780678272 11.155507940798996 10.358526602387427 1.9864827767014497 39.392048954963684 1.9805688001215456 9.4895249456167203 68.518403479829431 4.0262934789061537 70.727865375578403 1.2043620534241193 0.97058619558811177 13.034611623734234 1.9360024742782114 2.74625262990594 5.3558572679758072 8.5407357253134215 38.360896749421954 23.704023651778702 6.3391186669468871 3115.1959882844239 1.657056901603936 2.7590028457343569 2.8429005518555641 32.393249586224556 2.3474667556583872 1.7869832701981057 3.71543800085783 2.4799385666847229 1.8748933188617218 8.0079476535320282 4.3655224293470374 4.0245645940303794
leaf_count=661 403 801 19 230 131 352 937 67 29 18 44 116 1121 364 42 354 176 17 415 3183 137 241 55 28 60 50 97 33 289 394 163 58 28 205 20 120 2016 23 2102 18 28 345 40 27 86 84 965 241 44 102594 18 22 61 668 17 22 39 27 36 58 28 40
internal_value=-0.00472139 -0.0576169 0.0296872 0.134685 0.00211867 0.0816811 0.148655 0.0594672 -0.00927564 0.0080349 -0.0711167 -0.00208566 0.0369636 0.0414548 -0.0238426 0.112479 0.0759451 0.0504934 0.0661317 0.150233 0.134014 0.10086 0.126324 0.145202 0.150211 0.0736685 0.116904 0.141541 0.0186509 0.0437912 0.0502159 0.140829 0.0113446 0.129958 0.133818 -0.0370432 -0.0391702 0.0192414 -0.0500974 -0.00566654 0.147175 -0.0250812 0.0792059 0.104421 0.0335836 0.140202 -0.00992016 0.0648207 0.0946018 -0.0717866 -0.0294109 -0.00384156 0.0796486 -0.00145793 -0.0105039 0.0318822 0.0690517 0.152097 -0.0459518 0.038036 0.149778 0.152337
internal_weight=5047.09 3658.82 489.993 1388.28 367.591 289.577 1098.7 215.061 338.398 237.631 3168.82 215.05 76.9467 171.291 138.104 122.402 54.229 158.708 121.988 1090.92 313.938 79.2122 69.4579 234.725 224.244 15.3033 29.9684 68.1732 23.3024 80.6964 20.8923 63.5764 15.1226 43.7699 3.96705 117.211 116.369 23.3236 100.768 19.2973 2.17495 17.1223 4.0877 22.5804 7.57798 15.0024 47.8504 57.2063 30.0431 3145.5 30.303 20.5193 5.6019 36.7204 34.7407 27.1632 6.46169 5.76979 28.646 10.4817 64.9468 21.3443
internal_count=121107 112861 8914 8246 7932 3209 5037 2857 7801 5038 103947 4773 1374 2585 3399 982 567 2182 1480 4807 1624 491 354 1133 1047 110 253 415 391 1065 280 299 211 272 48 3119 3101 498 2763 475 46 429 84 265 115 150 1085 671 285 103449 855 372 83 702 685 386 66 69 837 86 382 137
is_linear=0
shrinkage=0.07


Tree=7
num_leaves=63
num_cat=0
split_feature=38 5 33 5 3 22 1 19 5 38 3 3 33 3 19 30 3 33 3 3 32 29 3 33 3 3 38 38 30 3 37 0 3 3 0 29 37 33 30 3 3 33 30 3 30 26 37 24 33 19 33 5 5 25 30 33 3 37 30 38 30 30
split_gain=6609.34 779.467 224.369 179.313 135.234 62.8807 58.0961 54.3601 52.8361 43.8261 55.8562 65.816 37.5517 34.0004 38.0027 31.0008 29.9682 28.063 25.5356 23.7445 37.933 20.7732 46.8389 27.5675 19.0779 21.3662 18.0983 17.7517 16.8135 15.2138 14.6823 17.913 14.4794 19.2768 19.7751 14.3365 14.1815 18.5099 18.108 16.2195 14.9021 13.7942 14.5235 13.2025 12.673 12.3532 46.0851 12.1503 11.737 15.5236 11.5329 11.4934 11.2161 11.0607 39.2578 10.2571 9.81762 13.2042 9.53176 9.04089 8.71865 8.66239
threshold=2746.5000000000005 140.27500000000003 1072.4400000000003 140.27500000000003 48.500000000000007 1.0000000180025095e-35 385.50000000000006 1.0000000180025095e-35 257.94500000000005 190.50000000000003 33.500000000000007 35.500000000000007 1298.2600000000002 31.500000000000004 1.0000000180025095e-35 12600.000000000002 28.500000000000004 191.59500000000003 1.5000000000000002 17.500000000000004 1.5000000000000002 1.0000000180025095e-35 15.500000000000002 465.99500000000006 42.500000000000007 4.5000000000000009 1196.5000000000002 223.50000000000003 1.0000000180025095e-35 9.5000000000000018 132.50000000000003 126.50000000000001 13.000000000000002 28.500000000000004 127.50000000000001 1.0000000180025095e-35 21.500000000000004 639.47000000000014 1.0000000180025095e-35 24.500000000000004 16.500000000000004 1961.8250000000003 9000.0000000000018 9.5000000000000018 1.0000000180025095e-35 1.0000000180025095e-35 20.500000000000004 1.0000000180025095e-35 1262.1700000000003 1.0000000180025095e-35 2684.9750000000004 117.63000000000001 224.32000000000002 1.0000000180025095e-35 1.0000000180025095e-35 573.19500000000016 11.500000000000002 4.5000000000000009 45000.000000000007 2079.5000000000005 1.0000000180025095e-35 5400.0000000000009
decision_type=2 2 2 2 2 2 2 2 2 2 2 2 2 2 2 2 2 2 2 2 2 2 2 2 2 2 2 2 2 2 2 2 2 2 2 2 2 2 2 2 2 2 2 2 2 2 2 2 2 2 2 2 2 2 2 2 2 2 2 2 2 2
left_child=1 2 4 5 6 19 27 -5 12 32 15 17 18 14 16 21 26 -12 -3 20 48 47 23 -23 25 -20 -4 -1 -7 -17 31 36 -8 34 44 -15 37 52 39 40 -38 42 -30 -25 -34 51 -47 53 -2 -50 -28 -13 59 -11 -55 -49 -31 -58 -19 -27 -24 -6
right_child=3 8 13 7 61 28 9 -9 -10 10 11 45 -14 35 -16 29 -18 58 24 -21 -22 22 60 43 -26 30 50 -29 41 56 -32 -33 33 -35 -36 -37 38 -39 -40 -41 -42 -43 -44 -45 -46 46 -48 55 49 -51 -52 -53 -54 54 -56 -57 57 -59 -60 -61 -62 -63
leaf_value=-0.0087448469472828378 -0.048105736132706044 -0.072220470276225121 0.11339684728750742 0.15300338990637766 0.14903758878160614 0.15472809947692237 -0.010939140363164219 -0.06091821676186647 0.14180249012053542 -0.068151019529426968 0.016834480888341136 -0.027672613185911236 0.13975140801861047 0.13645620472186309 -0.078032575322518741 0.13252252689694316 -0.079091663772068041 0.15552901086448578 0.16403383271306379 -0.072047132822739501 0.24509989581891248 -0.0012382651555857965 0.07686551711356536 0.11681407039880015 0.13618629268555588 0.028390378791632396 -0.062434616177232762 -0.06711466878154225 -0.044891441105024181 -0.02433010597811618 -0.016771723571773291 0.12525445837233593 0.023189172951601437 0.03140007338149748 0.23116207044565237 -0.00014293771306532656 0.16728071077315174 0.15564047318517363 0.0069141723549914083 0.17797526933982671 -0.038709293285716262 0.12881646585663695 0.099933438574968239 0.30803265718488015 0.13773980526325177 0.41944708131159658 -0.01756647664057099 -0.024411972254080403 0.22921199210307733 -0.076874825722391432 0.088496578826465236 0.078740450100728943 0.13421701197506269 0.39095207064108389 -0.045198056240923642 0.26735726821033501 -0.032488733028258679 0.15574945583037197 0.03384583408034092 0.16975280585511351 -0.063432831898868933 0.089086493363679548
leaf_weight=42.059771683067083 31.303675958886743 4.6649157758802167 57.243913218379021 23.122972615063194 28.110146850347519 4.6277479045093086 8.1208742149174196 7.7786586210131636 881.93202866613865 75.348370552062988 11.907896663993595 45.488813288509846 116.68892642483115 97.99619734287262 7.6608967930078498 7.5530697293579605 5.0170659609138957 29.139460198581219 14.128330349922178 2921.8846254851669 2.5451569855213156 11.18183644115925 2.3352132551372042 9.3287170603871328 40.515066184103489 24.775362547487024 5.0968904774636012 64.963861683383584 15.991793069988494 11.844250101596119 8.2736396342515928 31.539413904771209 7.8161861859262016 16.44280543923378 6.7649419568479052 3.9152205139398566 2.5964799225330335 14.924593985080717 31.779958698898554 7.0013303607702255 5.1030515599995852 3.9495838135480872 4.3067306838929644 2.1833547651767722 11.99464260786772 1.5506405383348454 4.9791240878403187 1.39030073583126 1.7993125468492499 1.4794594496488571 4.8329384177923203 5.5839228555560103 8.2492334395647031 1.1802525743842123 7.06123538315296 1.0261428542435167 3.1136538460850707 4.4151809066534042 3.5372444093227378 2.4347200877964488 30.752355337142944 20.365908324718475
leaf_count=879 968 158 375 110 115 35 133 208 3595 2247 148 1058 505 516 155 77 92 172 65 102854 22 184 62 76 177 209 105 2048 420 165 132 218 71 220 52 38 16 92 291 43 77 22 64 35 122 25 119 27 24 25 28 61 41 10 141 26 39 43 30 16 934 92
internal_value=-0.00471403 0.0993173 0.03822 -0.0686021 0.0130267 -0.0703371 0.000505692 0.0991544 0.133037 0.0153546 0.00413491 0.0449768 0.108313 0.104409 0.070207 -0.0206023 0.0859382 0.108832 0.0895944 -0.0713403 -0.0157128 -0.0336784 -0.000408517 0.0770438 0.0935398 0.0820826 0.0982639 -0.0441756 0.0324598 0.0482536 0.0736113 0.0794351 0.0747888 0.0909722 0.12783 0.131208 0.0645162 0.0902419 0.0366302 0.10087 0.0307558 0.00912497 -0.014164 0.15308 0.0925449 -0.00444716 0.0862123 -0.0552563 -0.0349078 0.0910984 0.011025 -0.0160382 0.0627161 -0.0597297 0.0172624 0.0994878 0.0153993 0.0779009 0.142357 0.0410393 -0.053531 0.123851
internal_weight=4872.7 1853.91 659.303 3018.79 477.54 2987.89 429.064 30.9016 1194.61 322.04 270.901 102.187 312.675 181.763 79.8517 168.714 72.1908 44.5846 195.986 2959.01 37.1276 141.788 55.7815 22.6939 191.321 150.806 67.1737 107.024 28.8759 26.9262 136.678 128.404 51.1395 43.0186 26.5758 101.911 96.8647 50.3839 46.4808 14.7009 7.69953 24.2481 20.2985 11.5121 19.8108 57.6025 6.52976 86.0063 34.5824 3.27877 9.92983 51.0727 35.4593 83.5899 8.24149 2.41644 19.3731 7.52883 32.6767 27.2101 33.0876 48.4761
internal_count=121107 16355 10720 104752 9411 104434 9204 318 5635 6277 5679 1613 2040 1309 755 4066 600 350 1535 103893 1039 3742 1291 295 1377 1200 508 2927 541 324 1135 1003 598 465 245 554 785 358 427 136 93 506 484 111 193 1263 144 2451 1017 49 133 1119 266 2398 151 53 247 82 202 225 996 207
is_linear=0
shrinkage=0.07


Tree=8
num_leaves=63
num_cat=0
split_feature=38 5 33 22 3 1 3 5 3 5 38 3 3 33 5 38 33 29 3 33 32 3 30 30 3 3 24 25 32 37 0 26 16 0 30 38 1 37 33 37 6 33 29 33 26 32 37 37 0 37 30 35 0 3 5 37 33 19 3 33 33 30
split_gain=5866.24 662.365 185.578 165.701 136.17 60.7955 55.6955 51.7173 39.9391 47.6283 39.7888 67.1605 61.2593 34.0044 31.3654 26.7381 25.7297 25.6077 34.8762 23.3946 23.1353 21.9347 21.3918 18.1648 17.8656 18.6202 16.1662 17.3191 29.9465 13.9826 20.4478 13.7826 14.5141 13.0858 13.2361 13.0706 16.4544 11.9176 11.8077 15.7739 11.7829 11.7776 11.2685 17.1192 17.8926 16.5937 14.0945 13.5291 10.8947 13.8646 10.7975 10.7325 10.7936 10.6709 10.2976 10.0301 12.8709 10.0197 11.7963 19.0932 9.62095 8.42271
threshold=2746.5000000000005 140.27500000000003 1765.9850000000004 1.0000000180025095e-35 48.500000000000007 422.50000000000006 17.500000000000004 257.94500000000005 8.5000000000000018 100.22000000000001 190.50000000000003 33.500000000000007 35.500000000000007 1404.6650000000002 83.90000000000002 223.50000000000003 191.59500000000003 1.0000000180025095e-35 15.500000000000002 597.87500000000011 1.5000000000000002 1.5000000000000002 12600.000000000002 12600.000000000002 42.500000000000007 4.5000000000000009 1.0000000180025095e-35 1.0000000180025095e-35 1.5000000000000002 113.50000000000001 122.50000000000001 1.0000000180025095e-35 1.0000000180025095e-35 120.50000000000001 1.0000000180025095e-35 47.500000000000007 717.50000000000011 52.500000000000007 342.33500000000004 41.500000000000007 1.0000000180025095e-35 1023.0950000000001 1.0000000180025095e-35 702.44500000000016 1.0000000180025095e-35 1.5000000000000002 25.500000000000004 15.500000000000002 125.50000000000001 104.50000000000001 45000.000000000007 1.5000000000000002 16.500000000000004 41.500000000000007 224.32000000000002 10.500000000000002 262.34000000000009 1.0000000180025095e-35 33.500000000000007 532.80500000000018 5725.7350000000015 37800.000000000007
decision_type=2 2 2 2 2 2 2 2 2 2 2 2 2 2 2 2 2 2 2 2 2 2 2 2 2 2 2 2 2 2 2 2 2 2 2 2 2 2 2 2 2 2 2 2 2 2 2 2 2 2 2 2 2 2 2 2 2 2 2 2 2 2
left_child=1 2 4 6 5 15 8 13 -2 20 31 17 16 21 48 57 -13 23 19 40 41 -3 55 26 25 -23 27 -12 -29 30 37 32 33 34 -7 -36 -37 -27 -38 -40 -19 -10 43 44 -14 46 -45 -46 -5 -50 -18 52 -4 -48 -8 56 -20 -1 -59 -60 -54 -6
right_child=3 7 51 14 61 10 54 -9 9 -11 11 12 42 -15 -16 -17 50 18 22 -21 -22 24 -24 -25 -26 29 -28 28 -30 -31 -32 -33 -34 -35 35 36 38 -39 39 -41 -42 -43 -44 45 47 -47 53 -49 49 -51 -52 -53 60 -55 -56 -57 -58 58 59 -61 -62 -63
leaf_value=-0.015062418155120305 -0.072624425849641891 -0.072096422352268569 0.16931388203404094 -0.019294060846265396 0.12794014788135721 0.0094476153557192157 -0.071879716693325546 0.13108363266942089 -0.050039144746826254 0.19212946995074814 -0.067537494931011771 0.015951548170545803 -0.03087220858428209 0.129625371232783 0.12982669659194129 -0.066487602615063771 0.14419133354039343 -0.001135073599589658 -0.034045473582103414 0.11781892070398226 0.22050872245798955 0.14756433610661215 0.29465319899556541 0.046683939581678241 0.12504683302262221 0.071504104545513342 0.092189968042106454 -0.022928603239119424 0.31182104695829882 0.0068153560601256855 0.12375353276243796 -0.074527346781693427 -0.073804749247412954 0.14405788466913635 0.23267860117451553 -0.026760624799864866 -0.0012823928182234335 0.012098037982388251 0.21268664494959938 0.051027331256928869 0.15135532543851604 0.12996634652070638 -0.056358523732582176 0.152014543998676 0.27112747712623342 0.20800608694743764 0.16342974102968949 0.0015830318881130659 0.16942125215150466 -0.046978273405132359 0.021910311556616706 0.13140800051593879 0.055760663985425722 -0.027172345357679085 0.067803496665205951 -0.061382845062034702 0.27937558983592065 -0.073309167978355155 -0.016833418981857463 0.20545068001332395 0.11623955620266085 0.052419918195108946
leaf_weight=39.715754557400942 19.579866470769048 4.4493506383150807 7.4920845329761496 16.424110997468237 50.920625507831573 12.977827429771422 2732.5215789247304 887.01772873103619 15.548894125968227 8.8435631431639177 78.695158183574677 12.003866374492643 28.887348994612694 110.77080405503511 20.684056846424937 69.608205577358603 37.010557174682617 25.541554175317291 1.8155892677605145 16.879549223929644 2.0240179449319831 15.395317420363424 0.906969353556632 10.438840441405771 43.111333675682545 77.124363973736763 3.7193961702287188 7.85879337787628 1.571313604712486 16.932543534785509 31.272022660821676 2.9691885039210311 2.8393439613282672 14.931913305073975 3.0450237654149559 5.4849740937352207 3.3962429575622073 21.067060532048345 7.1985003724694234 5.0201270803809166 2.7502917237579814 2.0114742442965499 12.173572305589913 4.0723942853510406 1.7881457842886441 3.5321038775145999 1.6846284270286549 1.8631617985665796 3.9253484420478335 2.3012499902397394 3.9123941063880912 64.894287001341581 32.631144810467958 9.8818169310688955 2.588546283543109 30.854750230908394 0.99324958957731713 2.3664785735309106 3.4399687051773071 4.211732055991888 21.302770685404539 8.4351012855768186
leaf_count=834 657 160 33 379 209 139 102901 3595 483 52 2425 147 624 459 117 2267 201 360 55 136 14 68 7 108 184 533 63 150 11 224 182 58 63 119 23 76 30 230 56 47 37 33 285 43 20 39 21 46 41 61 32 298 188 210 14 952 27 69 51 31 92 38
internal_value=-0.00469784 0.0915251 0.0352389 -0.0683207 0.0172326 0.00476711 -0.0704356 0.122379 0.00430798 0.0572955 0.0192368 0.00894918 0.0503744 0.0982612 0.0675066 -0.0384808 0.106067 -0.0176344 0.0121012 0.0525999 -0.0035904 0.0816661 -0.0408161 -0.0408167 0.0850049 0.0743353 -0.0507619 -0.0567952 0.0328498 0.0666344 0.0744581 0.0723671 0.0803126 0.088719 0.06646 0.097104 0.0775386 0.0587585 0.114175 0.146268 0.0136887 -0.0294202 0.00423324 0.0184979 -0.0124176 0.0709703 0.0400202 0.133586 0.0105975 0.0894435 0.132501 0.111557 0.090585 0.000588447 -0.0717475 -0.0498543 0.0767851 0.000717757 0.0632762 0.105519 0.0796486 0.117208
internal_weight=4695.31 1868.86 661.717 2826.45 535.396 476.041 2783.12 1207.14 48.0078 28.4279 356.699 298.835 116.81 320.123 43.3348 119.342 52.9268 182.025 79.742 45.1714 19.5844 209.352 34.5706 102.284 204.903 161.791 91.8447 88.1253 9.43011 146.396 129.463 57.8631 54.894 52.0546 37.1227 24.1449 21.0998 98.1914 15.6149 12.2186 28.2918 17.5604 63.8832 51.7096 32.5387 19.1709 15.6388 3.65131 22.6507 6.2266 40.923 126.32 61.426 11.5664 2735.11 33.6636 2.80884 49.7339 10.0182 7.6517 53.9339 59.3557
internal_count=121107 16355 10720 104752 10109 9862 104154 5635 1239 582 6610 5999 1668 2040 598 3252 380 4331 1574 533 530 1581 1041 2757 1421 1237 2649 2586 161 1169 945 611 553 490 371 232 209 763 133 103 397 516 1288 1003 690 313 274 66 481 102 233 611 313 231 102915 1034 82 985 151 82 280 247
is_linear=0
shrinkage=0.07


Tree=9
num_leaves=63
num_cat=0
split_feature=38 5 33 22 3 3 1 5 3 5 37 33 3 19 5 17 19 3 3 38 3 3 38 26 29 3 32 27 33 20 3 38 30 0 30 3 37 29 3 3 3 3 3 3 30 5 33 5 24 33 30 3 0 35 3 3 33 30 37 33 3 0
split_gain=5237.87 571.268 168.482 153.75 99.7032 53.5552 49.8118 39.3497 35.6703 38.6351 33.1247 30.3841 29.3208 31.5855 26.236 25.7107 24.374 53.6658 24.5014 23.023 22.9542 63.3722 25.1668 21.7751 18.2051 36.6078 18.0111 16.8556 16.7521 16.41 25.5155 16.317 15.4901 14.8197 14.8128 12.5132 11.3313 10.7524 10.652 22.7735 11.2348 10.3318 10.5247 10.3024 10.2981 10.1257 9.81404 9.59263 9.46747 11.1183 10.3381 10.3073 9.03537 8.7863 8.7487 10.3685 8.35775 8.32272 7.93307 25.3553 10.2264 9.52674
threshold=2746.5000000000005 156.16500000000005 1072.4400000000003 1.0000000180025095e-35 48.500000000000007 17.500000000000004 360.50000000000006 295.99000000000007 8.5000000000000018 100.22000000000001 28.500000000000004 1540.0650000000001 31.500000000000004 1.0000000180025095e-35 83.90000000000002 1.0000000180025095e-35 1.0000000180025095e-35 33.500000000000007 35.500000000000007 47.500000000000007 33.500000000000007 37.500000000000007 261.50000000000006 1.0000000180025095e-35 1.0000000180025095e-35 23.500000000000004 1.5000000000000002 1.0000000180025095e-35 764.05000000000018 1.0000000180025095e-35 27.500000000000004 190.50000000000003 5400.0000000000009 95.500000000000014 5400.0000000000009 28.500000000000004 44.500000000000007 1.0000000180025095e-35 20.500000000000004 32.500000000000007 16.500000000000004 13.000000000000002 3.5000000000000004 11.500000000000002 1.0000000180025095e-35 128.00000000000003 1023.0950000000001 224.32000000000002 1.0000000180025095e-35 5725.7350000000015 12600.000000000002 15.500000000000002 125.50000000000001 2.5000000000000004 3.5000000000000004 11.500000000000002 356.40000000000003 37800.000000000007 7.5000000000000009 566.98500000000013 14.500000000000002 38.500000000000007
decision_type=2 2 2 2 2 2 2 2 2 2 2 2 2 2 2 2 2 2 2 2 2 2 2 2 2 2 2 2 2 2 2 2 2 2 2 2 2 2 2 2 2 2 2 2 2 2 2 2 2 2 2 2 2 2 2 2 2 2 2 2 2 2
left_child=1 2 4 5 6 8 31 11 -2 26 28 16 13 15 52 27 23 -18 34 -12 22 32 38 29 -24 -26 46 48 33 -3 -31 -1 -22 43 56 44 -25 -14 40 -40 41 42 -21 45 -35 -8 -10 -7 49 50 51 -4 -5 -36 -46 -56 -19 -6 59 60 -45 -60
right_child=3 7 12 14 57 47 10 -9 9 -11 19 -13 37 -15 -16 -17 17 18 -20 20 21 -23 24 36 25 -27 -28 -29 -30 30 -32 -33 -34 35 53 -37 -38 -39 39 -41 -42 -43 -44 58 54 -47 -48 -49 -50 -51 -52 -53 -54 -55 55 -57 -58 -59 61 -61 -62 -63
leaf_value=-0.0064571190032245967 -0.072447676242867506 0.10917553956635209 0.072727623761605131 -0.018241597536756367 0.11571139929707307 -0.07173566848669817 -0.029566752745538966 0.12415714264420788 -0.048841315786391476 0.17023715990749383 0.15457825189660296 0.12465452332621257 0.11512824230672679 -0.0777283607739368 0.11823472637386169 -0.081634295077657973 -0.078320404810507657 0.035352769540550243 -0.045290605677998454 0.15072855588833003 0.15937941527709415 -0.029095074796361732 -0.064120730387974209 0.089561936399091394 0.080489329636421886 -0.057886958601562476 0.18120078164635062 -0.075015287258894281 0.10396569490820334 -0.083937167424658898 0.10740643617223541 -0.065235493735530781 0.02611717241909613 0.011503482615853664 0.03231740664371862 0.023280434063512285 -0.056150016991410222 -0.002495202566639355 0.17172331586476761 -0.079047393998957619 -0.079826005349204032 0.13043816320212173 -0.050850557567915643 0.2015736310753819 0.24275816902656649 0.098196782930043608 0.10876123364767097 0.062169059501216047 0.16596029298555565 0.12028267882061701 0.14133888161572614 -0.0029214429407690284 0.079587913890107359 0.14296995941904014 0.0401155686678039 0.18083258230773394 0.14385987114881363 0.042909308910435894 -0.045745201815152695 0.21710345384126151 0.027632775748215956 0.042411825069968351
leaf_weight=38.335313523188233 18.299106789752841 154.93084385618567 24.99707505106926 16.165295727550987 44.745151340961456 2552.7210517916828 27.749087182804946 783.32960538566113 14.840691711753616 9.2649911232292634 4.3297893293201914 126.56703159958124 114.40142061933875 7.6611100435256949 21.10518404096365 5.0843675322830668 13.379000794142483 4.0678877681493786 7.0512384846806517 1.6248493269085935 15.648557394742967 35.67739076167345 62.900487914681435 4.2952462621033174 15.459987085312603 23.773708647117019 2.2797805964946738 3.2563839592039576 17.010573985055089 5.7058042436838141 8.5049873068928701 58.390942713245749 5.8799857981503001 3.8214778341352984 19.081085622310642 13.662613643333314 6.6853106431663036 3.9392919912934294 6.1922372393310052 2.4872385337948799 5.3142014537006608 4.2213717699050903 5.7976627964526415 1.7118757665157307 3.2001468911767015 3.4134371802210799 2.2265144139528266 2.6241469159722319 6.8728611618280402 22.192497700452805 6.5154669955372801 13.641688145697115 6.4804525654762974 4.3105968683958045 5.1519049126654846 5.1113378424197435 23.99940998852253 9.2922769635915738 12.071772158145906 3.9531383365392676 50.939944164827466 11.9550773948431
leaf_count=787 657 731 170 379 182 102901 594 3167 483 52 38 514 566 172 117 92 279 21 76 9 90 893 2002 34 132 791 14 73 178 76 41 2058 52 51 103 149 65 38 42 32 73 37 130 19 25 27 33 14 37 91 32 142 102 19 57 39 102 41 309 29 691 157
internal_value=-0.00467095 0.0849944 0.0354477 -0.0680496 0.0133957 -0.0702375 0.00251071 0.115202 0.00387831 0.0526934 0.0148282 0.0966716 0.0882959 0.0582365 0.0620844 0.0708533 0.0826178 0.0481588 0.0770796 -0.00498085 -0.00871567 0.0281368 -0.0252152 0.0963709 -0.0407802 -0.00335996 -0.00359655 0.0808603 0.0383021 0.102572 0.0305797 -0.04194 0.122982 0.0304769 0.0938476 0.0733456 0.000847887 0.111213 0.0367919 0.0998611 0.00451191 0.0430032 -0.00672322 0.0186098 0.112919 -0.015572 -0.0282812 -0.0715982 0.0876993 0.0797127 0.0597732 0.0460192 0.00975392 0.0527084 0.141705 0.110196 0.128134 0.103192 0.0318203 0.0461253 0.0332881 -0.00188077
internal_weight=4516.3 1870.29 708.386 2646.01 499.824 2602.26 445.786 1161.91 46.9111 28.612 349.06 378.578 208.562 90.2215 43.7509 82.5603 252.011 71.8892 58.5102 189.307 184.978 57.2059 127.772 180.122 102.134 39.2337 19.347 77.476 159.752 169.142 14.2108 96.7263 21.5285 142.742 51.459 30.9475 10.9806 118.341 25.6376 8.67948 16.9581 11.6439 7.42251 111.794 17.2849 31.1625 17.0672 2555.35 74.2196 67.3467 45.1542 38.6388 22.6457 23.3917 13.4634 10.2632 28.0673 54.0374 80.6318 56.605 52.6518 24.0268
internal_count=121107 16355 11127 104752 9714 104154 9491 5228 1239 582 6646 2061 1413 809 598 637 1547 600 321 4321 4283 1035 3248 947 2925 923 530 545 2325 848 117 2845 142 2147 245 321 99 604 323 74 249 176 139 1826 172 621 516 102915 472 435 344 312 481 122 121 96 123 223 1205 739 710 466
is_linear=0
shrinkage=0.07


Tree=10
num_leaves=63
num_cat=0
split_feature=38 5 5 33 3 1 5 19 22 38 3 3 33 30 3 19 38 3 17 29 3 33 29 19 3 3 30 27 3 30 32 33 5 3 24 38 38 30 3 38 3 25 32 37 1 3 3 3 33 1 30 3 32 0 29 33 33 33 28 5 26 33
split_gain=4698.99 503.338 143.652 142.31 85.7498 44.6591 39.0969 38.4597 33.8029 29.7064 34.3803 50.0588 25.3396 25.0563 24.3669 27.3106 22.8347 22.325 22.0235 20.0883 38.4248 18.4549 16.2576 15.0274 30.2726 15.9049 14.7687 14.2715 13.2895 12.8661 26.124 12.8417 12.7165 12.6405 12.4267 11.836 11.6074 11.4945 11.0686 13.8176 12.0978 10.9266 26.5674 10.7721 10.2759 9.56593 15.1917 27.025 13.971 9.72527 9.55562 9.13756 12.4507 9.08798 8.98864 8.91375 8.34517 8.32421 15.9279 8.93265 12.51 8.25094
threshold=2746.5000000000005 156.16500000000005 93.720000000000013 1072.4400000000003 48.500000000000007 225.50000000000003 257.94500000000005 1.0000000180025095e-35 1.0000000180025095e-35 190.50000000000003 33.500000000000007 35.500000000000007 1467.6750000000004 12600.000000000002 31.500000000000004 1.0000000180025095e-35 5395.0000000000009 26.500000000000004 1.0000000180025095e-35 1.0000000180025095e-35 15.500000000000002 191.59500000000003 1.0000000180025095e-35 1.0000000180025095e-35 33.500000000000007 35.500000000000007 5400.0000000000009 1.0000000180025095e-35 9.5000000000000018 5400.0000000000009 1.5000000000000002 465.99500000000006 83.90000000000002 13.000000000000002 1.0000000180025095e-35 855.50000000000011 159.50000000000003 48600.000000000007 42.500000000000007 159.50000000000003 4.5000000000000009 1.0000000180025095e-35 1.5000000000000002 18.500000000000004 332.50000000000006 32.500000000000007 20.500000000000004 16.500000000000004 532.80500000000018 2161.5000000000005 27000.000000000004 17.500000000000004 1.5000000000000002 110.50000000000001 1.0000000180025095e-35 485.61500000000007 573.19500000000016 1205.2750000000003 1.0000000180025095e-35 336.35000000000008 1.0000000180025095e-35 1961.8250000000003
decision_type=2 2 2 2 2 2 2 2 2 2 2 2 2 2 2 2 2 2 2 2 2 2 2 2 2 2 2 2 2 2 2 2 2 2 2 2 2 2 2 2 2 2 2 2 2 2 2 2 2 2 2 2 2 2 2 2 2 2 2 2 2 2
left_child=1 3 8 4 5 36 12 16 37 33 13 21 23 19 15 18 22 28 27 34 31 -12 -4 29 -25 26 -26 -5 -15 30 38 -21 -13 -7 41 -34 -1 51 39 44 -41 -11 -43 -37 -3 46 47 55 -48 -47 -23 52 -2 -28 -16 -35 -36 58 59 60 -8 -10
right_child=2 6 7 14 -6 9 57 -9 61 10 11 32 -14 17 54 -17 -18 -19 -20 20 -22 50 -24 24 25 -27 53 -29 -30 -31 -32 -33 35 45 56 43 -38 -39 -40 40 -42 42 -44 -45 -46 49 48 -49 -50 -51 -52 -53 -54 -55 -56 -57 -58 -59 -60 -61 -62 -63
leaf_value=-0.013156620575495923 -0.046510907059724653 -0.02102637913988193 0.11534705096267511 0.079771477984253839 0.09542650209114957 -0.011240966075528231 0.098322537839614296 -0.065218462365745342 -0.0072880740189793332 -0.066560532650072501 0.010201040625190646 -0.029646485604543828 0.11505970353926739 0.091925854107074115 0.10526578028745648 -0.077261988298577181 -0.072724503023872941 0.26831892235877997 -0.080980445854168082 0.0067488778341545097 -0.050682353717006662 0.12239348322766003 -0.016902022864879587 -0.075671294544568155 0.12131744488374616 -0.051025441629149244 -0.0043066520161045199 -0.074678457840924084 -0.0076038801077775598 0.11528415039018061 0.118714963978005 0.10385322144911956 0.0012364744732600236 0.042553618825253207 -0.028907771942458787 0.21421123606616518 -0.07039038324552746 0.20012771982090932 0.099418002178706874 0.12504701157929907 -0.019143045496674442 -0.038305954249554672 0.28668086096074952 0.033209674616907478 0.10553191594448817 0.01297922604402621 0.076852166729638294 -0.079851409097840206 0.19765438653036249 0.18181072892147176 0.039820815671805496 -0.071640140519995135 0.11178965884316938 0.093236730028528891 -0.0023239875763204965 0.15796107645783522 0.20416810549243558 0.12031982329916213 0.018946688544204136 0.11790237782636077 -0.0097323325287895224 0.097627902388048554
leaf_weight=28.617442825809121 23.822392977774147 4.1389266811311272 31.455099210143089 75.801989668980241 54.33308020234108 12.475393636152146 102.3238210529089 11.787013579159973 19.295640390366319 71.520690100267529 13.504089567810295 46.523158248513937 92.87002868950367 9.5437072105705756 116.28574817627668 7.1847613472491494 4.3891535364091387 1.9384878240525711 4.777553539723157 11.683408889919521 32.269397279247642 31.941391967236996 5.3259865492582312 9.3148926291614753 19.653906017541885 5.2683897428214541 11.543966367840769 3.0494409427046767 21.121972877532244 41.463951762765646 32.563579145818949 15.561866719275711 15.026316409930589 6.651686295866968 1.5086171813309186 2.9156767688691607 44.15094300545752 0.76539947465062041 12.442700520157812 3.1936369389295605 26.592594675719738 7.4158634543418867 1.4782785028219221 3.6008885893970728 13.073339421302078 18.811150200665001 10.347483515739443 6.0038985200226298 8.5816076546907407 1.834899142384528 8.7480273172259313 2372.8871252387762 2.7117246687412253 7.871600240468978 3.933653011918067 6.4683093801140785 1.5022992826998232 561.57775489240885 9.9565400630235654 194.18654309213161 5.5340152084827414 4.5364908128976813
leaf_count=610 824 34 187 472 223 197 441 387 475 2504 158 1265 381 84 566 172 137 15 92 186 1097 162 94 247 87 69 69 73 250 195 161 118 219 60 27 23 1682 16 52 13 215 150 9 55 75 264 74 79 53 14 65 102591 18 35 38 44 27 2296 40 794 24 23
internal_value=-0.00463517 0.0794264 -0.0677815 0.0329246 0.0124427 0.002236 0.107931 0.0462695 -0.0702731 0.0121201 0.00241011 0.0309098 0.0851681 -0.0174387 0.081072 0.0537046 0.0781884 0.0379349 0.0649562 -0.0300692 0.000999936 0.081108 0.0961971 0.0703326 0.0390451 0.0631457 0.0785413 0.0737984 0.0233716 0.0829098 0.0683196 0.0622126 -0.00905758 0.0527481 -0.0522335 0.0354054 -0.0478822 -0.0710968 0.0407116 0.0251693 -0.00368319 -0.0574612 0.0157095 0.114194 0.0750992 0.0663478 0.0871625 0.0431593 0.131619 0.027984 0.104641 -0.0711833 -0.030333 0.0352401 0.101745 0.0994508 0.0873856 0.115227 0.106059 0.108931 0.0927784 0.0126829
internal_weight=4337.66 1860.68 2476.98 707.113 496.08 441.747 1153.57 52.9573 2424.02 368.979 297.804 122.26 279.992 175.545 211.033 90.8137 41.1702 32.6042 83.629 142.94 59.5147 54.1935 36.7811 187.121 53.6528 44.3379 39.0695 78.8514 30.6657 133.469 92.0048 27.2453 68.066 71.1744 83.4257 21.5429 72.7684 2400.19 59.4412 46.9985 29.7862 80.4148 8.89414 6.51657 17.2123 58.699 38.053 19.1239 18.9291 20.646 40.6894 2399.42 26.5341 19.4156 120.219 13.12 3.01092 873.579 312.001 302.044 107.858 23.8321
internal_count=121107 16355 104752 11127 9714 9491 5228 805 103947 7199 6414 1947 1633 4467 1413 809 418 349 637 4118 1401 385 281 1252 507 260 191 545 334 745 550 304 1562 785 2717 297 2292 103449 389 337 228 2663 159 78 109 588 310 183 127 278 227 103433 842 104 604 104 54 3595 1299 1259 465 498
is_linear=0
shrinkage=0.07


Tree=11
num_leaves=63
num_cat=0
split_feature=38 5 5 33 3 35 5 19 22 33 17 25 5 5 33 30 3 30 37 3 3 24 19 3 26 3 29 37 0 1 20 3 30 3 3 29 3 3 33 3 32 37 3 3 21 38 38 32 21 37 0 3 25 30 37 36 30 3 30 33 3 33
split_gain=4230.28 449.139 134.606 120.511 73.9566 40.9421 38.9994 33.5069 32.928 26.7337 23.0125 22.0975 21.517 21.0273 20.3944 18.8947 16.1397 22.2073 17.6619 16.0981 26.1174 19.2115 15.5713 37.2686 18.7303 17.7753 13.9847 13.5744 16.2343 13.3595 13.0166 18.813 12.91 12.7944 12.4037 16.5959 17.4396 15.3843 25.6443 15.6133 13.3998 14.7602 11.5018 11.4371 10.0884 11.9058 10.084 9.96589 9.52222 11.6126 9.22371 8.86661 8.7808 8.76607 8.7034 9.22114 8.53691 17.1806 7.92303 15.213 7.89541 7.76054
threshold=2746.5000000000005 156.16500000000005 93.720000000000013 1072.4400000000003 48.500000000000007 5.5000000000000009 295.99000000000007 1.0000000180025095e-35 1.0000000180025095e-35 1404.6650000000002 1.0000000180025095e-35 1.0000000180025095e-35 66.245000000000019 140.27500000000003 5725.7350000000015 1.0000000180025095e-35 36.500000000000007 5400.0000000000009 3.5000000000000004 31.500000000000004 35.500000000000007 1.0000000180025095e-35 1.0000000180025095e-35 33.500000000000007 1.0000000180025095e-35 35.500000000000007 1.0000000180025095e-35 33.500000000000007 100.50000000000001 3250.5000000000005 1.0000000180025095e-35 27.500000000000004 5400.0000000000009 1.5000000000000002 3.5000000000000004 1.0000000180025095e-35 24.500000000000004 34.500000000000007 262.34000000000009 39.500000000000007 1.5000000000000002 13.500000000000002 32.500000000000007 17.500000000000004 1.0000000180025095e-35 190.50000000000003 1292.5000000000002 1.5000000000000002 1.0000000180025095e-35 21.500000000000004 14.500000000000002 9.5000000000000018 1.0000000180025095e-35 5400.0000000000009 52.500000000000007 1.0000000180025095e-35 9000.0000000000018 15.500000000000002 9000.0000000000018 356.40000000000003 13.000000000000002 356.40000000000003
decision_type=2 2 2 2 2 2 2 2 2 2 2 2 2 2 2 2 2 2 2 2 2 2 2 2 2 2 2 2 2 2 2 2 2 2 2 2 2 2 2 2 2 2 2 2 2 2 2 2 2 2 2 2 2 2 2 2 2 2 2 2 2 2
left_child=1 3 8 4 5 10 9 13 43 22 12 14 27 15 19 -4 -12 18 -18 21 -21 26 24 -24 30 32 54 28 29 60 44 -32 61 -14 -35 36 48 38 -38 -39 41 50 -40 47 -3 -46 -29 58 49 -36 -41 -28 -51 -6 55 -5 -37 -58 -2 -60 -1 -25
right_child=2 6 7 11 53 -7 -8 -9 -10 -11 16 -13 33 -15 -16 -17 17 -19 -20 20 -22 -23 23 25 -26 -27 51 46 -30 -31 31 -33 -34 34 35 56 37 39 42 40 -42 -43 -44 -45 45 -47 -48 -49 -50 52 -52 -53 -54 -55 -56 -57 57 -59 59 -61 -62 -63
leaf_value=-0.034854475836629248 -0.053025365757726609 0.098896829123893373 0.18959296483590637 -0.078504409152394317 0.11367715845335925 -0.072099105944234923 0.11090612986734881 -0.064295793658200526 0.011777024041341637 0.10845874174210138 -0.072275865425783292 0.11422708492030138 -0.071734131992826591 0.1164766105559386 0.099260907615699293 -0.013876077098197393 0.013606895120909183 -0.031969328537315621 0.34108045661580805 0.12572718428851701 0.028127452054809893 0.14866660976072768 -0.076021349130025256 0.023221521887711091 -0.011333722957279049 -0.043485340754009033 0.08691337099896719 -0.0056344822643709597 0.077648362920764283 0.25460956870439655 -0.083070268578501957 0.085782149502891508 0.038879661433085057 0.096711506672164382 0.044751760502183727 -0.033801457201941644 0.0071062675879205112 -0.052378174788647418 0.21514829178578629 0.017348110067203645 0.24872954522495005 -0.011428247129182795 0.10494861525976809 -0.071487419832382715 0.07101605282211651 -0.072467856679860096 -0.054034842219739081 0.097995989354516699 0.092043557166016185 -0.065057991405298651 0.1828759540716296 0.00630538304259957 0.023571076232973085 0.057204055949639211 -0.059594186669395026 0.07912985867793193 -0.0076176043257746929 0.21339538269806879 -0.073937624416077499 0.30264283432407951 0.014771071607797301 0.12539622434770484
leaf_weight=22.774479355663061 21.381995396688588 133.55948892980814 2.6167708542197969 2.6925767976790684 30.167381674051285 33.731634669005871 759.4890559501946 11.142318110913036 23.83100613206625 134.63438841700554 27.42807918600738 52.104048199951649 5.6500561237335196 23.253433685749769 49.339024320244789 15.382917452603577 1.5709310993552201 9.0464016832411271 1.6595598608255384 24.683669544756413 29.479905143380165 5.1328139007091513 11.111387928947805 4.2993903160095241 10.21400475502014 6.665398694574832 11.895576335489752 71.065111920237541 17.586988497525454 1.0188182890415181 5.2506267149001351 8.4152127057313901 22.757907547056675 14.720673892647026 14.652940658852456 25.588260205462575 12.57281759008765 8.9527743496000785 5.7684945147484568 2.6591918878257337 1.6756469011306752 10.400973998010157 23.741154218092561 2216.3001354355365 14.699508629739286 3.5103699564933768 29.995554387569427 2.8705346286296836 5.7598064299672833 15.75199400819838 4.3444193061441183 15.269341496750711 8.397512499243021 24.331397175788879 16.91331590525806 5.600514916703105 7.4906396456062776 2.2384768128395081 1.2214824371039861 0.92273159697651852 50.639924723654985 23.840956211090088
leaf_count=517 793 610 20 53 122 1343 3167 387 498 560 982 222 245 110 208 288 25 122 16 108 220 28 272 21 95 76 51 1662 192 12 75 39 117 113 173 635 123 146 34 36 14 223 156 102594 72 25 1036 18 53 433 40 149 104 101 314 60 76 15 26 18 965 99
internal_value=-0.00459341 0.0745703 -0.0675079 0.0306413 0.011575 0.00198345 0.101754 0.0434149 -0.0700721 0.0834128 0.00818192 0.0746036 0.0137097 0.0725072 0.0617809 0.015704 -0.0424173 0.0242905 0.181836 0.0452208 0.072606 0.0194263 0.0696113 0.0413494 0.0806611 0.0640053 0.00675975 -0.00228922 0.0171616 0.00286988 0.0863409 0.0209064 0.0780817 0.0318417 0.0353945 0.0293768 0.0422984 0.0640606 0.0908224 0.0238865 0.0596712 0.0414694 0.12649 -0.0709419 0.0922329 0.0433563 -0.0200001 -0.0251373 0.00805712 -0.00440977 0.120027 0.0416038 -0.034239 0.0884643 -0.0307916 0.0279496 -0.0125802 0.0432331 -0.0401613 0.0881183 -0.000623673 0.109786
internal_weight=4161.86 1842.94 2318.92 704.493 491.382 436.883 1138.45 52.3954 2266.53 378.959 403.152 213.111 363.447 41.2531 161.007 17.9997 39.705 12.2769 3.23049 111.668 54.1636 57.5041 244.324 68.675 175.649 57.5637 52.3713 193.081 92.0202 74.4332 165.435 13.6658 50.8983 170.366 164.716 149.995 114.678 70.1155 42.0825 28.033 19.0802 17.4046 29.5096 2242.7 151.769 18.2099 101.061 26.3967 44.5623 38.8024 7.00361 27.1649 24.1495 54.4988 25.2064 8.29309 35.3174 9.72912 23.5262 2.14421 73.4144 28.1403
internal_count=121107 16355 104752 11127 9714 9491 5228 805 103947 2061 8148 1413 7003 418 1191 308 1145 163 41 983 328 655 1501 585 916 313 627 4384 1686 1494 821 114 237 2619 2374 2261 1535 772 313 459 313 299 190 103449 707 97 2698 855 763 710 76 200 537 223 427 113 726 91 837 44 1482 120
is_linear=0
shrinkage=0.07


Tree=12
num_leaves=63
num_cat=0
split_feature=38 5 33 22 3 3 27 37 0 5 3 5 38 5 33 37 33 26 19 3 37 33 32 33 20 3 3 3 3 35 33 30 17 30 1 38 0 30 0 37 37 33 19 29 0 33 38 5 29 3 5 38 7 3 33 3 38 1 3 38 19 33
split_gain=3818.94 419.602 124.527 117.941 85.2316 45.671 42.9139 29.1029 43.9223 28.3379 26.2829 22.296 18.2024 17.819 16.5801 16.3867 21.3503 14.5702 15.336 40.8853 14.5017 13.884 12.6986 12.6168 12.4071 16.1299 11.1585 53.0295 11.0274 10.4661 10.2767 9.3168 9.24347 8.71993 8.6865 11.1893 10.142 7.65219 7.52171 9.70716 8.61234 8.86326 7.12127 7.93829 8.60295 7.6838 7.9887 6.9457 6.81446 9.73308 8.14014 6.70098 7.78225 6.68684 7.52659 6.92087 9.69659 6.67226 6.64247 7.85623 6.62779 8.59544
threshold=2949.5000000000005 174.54000000000005 1765.9850000000004 1.0000000180025095e-35 48.500000000000007 17.500000000000004 1.0000000180025095e-35 74.500000000000014 95.500000000000014 295.99000000000007 8.5000000000000018 100.22000000000001 351.50000000000006 140.27500000000003 2220.8700000000003 20.500000000000004 501.96500000000009 1.0000000180025095e-35 1.0000000180025095e-35 33.500000000000007 4.5000000000000009 639.47000000000014 1.5000000000000002 1002.5100000000001 1.0000000180025095e-35 27.500000000000004 33.500000000000007 38.500000000000007 13.000000000000002 1.5000000000000002 209.35500000000002 1.0000000180025095e-35 1.0000000180025095e-35 5400.0000000000009 56.500000000000007 24.500000000000004 93.500000000000014 1.0000000180025095e-35 128.50000000000003 104.50000000000001 7.5000000000000009 229.16000000000005 1.0000000180025095e-35 1.0000000180025095e-35 32.500000000000007 5725.7350000000015 570.50000000000011 224.32000000000002 1.0000000180025095e-35 24.500000000000004 117.63000000000001 775.50000000000011 1.0000000180025095e-35 36.500000000000007 1118.3000000000002 10.500000000000002 351.50000000000006 2279.5000000000005 35.500000000000007 101.50000000000001 1.0000000180025095e-35 776.61500000000012
decision_type=2 2 2 2 2 2 2 2 2 2 2 2 2 2 2 2 2 2 2 2 2 2 2 2 2 2 2 2 2 2 2 2 2 2 2 2 2 2 2 2 2 2 2 2 2 2 2 2 2 2 2 2 2 2 2 2 2 2 2 2 2 2
left_child=1 2 4 5 6 10 7 8 15 14 -2 22 34 31 17 16 -1 18 24 -20 -18 51 -12 37 47 -26 30 -28 -22 32 -14 -5 42 -6 -9 -36 -37 48 40 -40 41 -33 43 -4 -45 46 -46 53 49 -17 -50 -21 -53 54 55 -3 -57 -25 59 -30 61 -60
right_child=3 9 29 13 33 -7 -8 12 -10 -11 11 -13 26 -15 -16 23 20 -19 19 21 28 -23 -24 57 25 -27 27 -29 58 -31 -32 38 -34 -35 35 36 -38 -39 39 -41 -42 -43 -44 44 45 -47 -48 -49 50 -51 -52 52 -54 -55 -56 56 -58 -59 60 -61 -62 -63
leaf_value=0.0050123109002067952 -0.072136383314089947 0.091674472989194081 0.10070029414625162 0.10901718744785292 0.1092233769449111 -0.071483370222183915 -0.071717223626880239 -0.062423258675026995 0.063709557361497082 0.10560624065353277 -0.027996906340918344 0.13496628143890499 0.15713969714178483 0.11653209153523383 0.1066332873308328 -0.0016710183711728312 0.1437055920521777 -0.011319550713966403 -0.080529230327122905 -0.018409795621973427 -0.02284016932353259 0.10301292148549147 0.14249823577975215 0.018101740238015234 -0.086605354376454224 0.077392809201902252 0.11794936952277796 -0.05534033312585783 0.18416585262723287 0.10316246767008241 -0.05054919099827173 -0.0018507526854622228 -0.016419865526694361 0.058877641665154447 0.16520978689984289 -0.076110043021682172 0.031476871311395649 -0.035374793049805862 0.13652834017986565 -0.035113430788822238 -0.050124080239504126 0.23387197010566582 0.013516964159258221 0.1148129163703728 -0.088998870129849361 0.088755730428538876 0.033836365382327052 0.10633698901144553 -0.073533426094925927 0.14720816853717936 0.12046322946505712 0.029809357178771596 0.13938825503857405 0.10637918782042223 0.11938698704407433 0.057294630316426676 -0.035275679829038765 0.1270623441510069 -0.031680889102484858 0.067341185875291434 -0.082879512556728818 0.13073426230450777
leaf_weight=107.13970304280519 14.160096660256384 10.890784107148646 41.005191151052713 4.6053111478686359 41.3897984623909 2073.2730613015592 32.281195478513837 5.7045352291315785 94.517202667891979 743.79004173725843 13.920061189681297 9.060610815882681 1.1882240511476982 13.133396551012991 87.913972496986389 5.2728043738752586 8.6688479743897897 10.088991079479454 10.484866002574561 8.4954860731959361 9.2968241740018112 29.442134015262127 2.5295448601245871 11.32259023375809 4.4785416498780242 8.5467167347669584 12.685046330094336 27.223029920831323 3.4618771336972776 80.292055934667587 66.627362264320254 2.5309994574636288 5.972371455281972 28.440176516771317 2.7802978269755831 4.7682678308337918 43.110560160130262 67.743488857522607 3.803174350410699 2.8055040687322617 13.470351707190273 1.1308127306401727 8.409750282764433 7.0927105769515064 4.0700209662318247 5.7591996490955344 7.1553219296038151 78.98256616294384 5.2933648396283379 3.6350430585443974 1.3251611068844793 12.335719197988512 4.2767929583787909 22.699247613549232 8.3148277848958951 15.648450113832952 8.5873087719082815 3.6387743093073359 3.0712290070950967 15.226674079895018 2.4382225163280964 3.3254943303763866
leaf_count=1676 605 48 182 31 170 102587 1403 146 999 3177 467 49 14 55 370 124 59 79 227 60 150 131 13 170 60 37 68 793 22 362 2196 45 34 117 33 105 718 1811 37 59 306 19 41 31 22 25 42 333 134 29 11 59 19 97 36 75 47 35 64 137 31 25
internal_value=-0.0045456 0.0696257 0.0303075 -0.067765 0.0159323 -0.0700598 0.00655032 0.0115096 0.0230415 0.0981027 0.00433966 0.0467896 -0.0127632 0.0491289 0.0807264 0.00771883 0.0220716 0.0709628 0.0746823 0.0460681 0.0622509 0.0704008 -0.00177895 -0.014582 0.0864493 0.0210045 -0.0296275 -0.000259054 0.0430735 0.0853382 -0.0469102 0.0178994 0.0673284 0.0887187 0.0194684 0.0286899 0.0207623 -0.0252159 0.000224186 0.0636633 -0.0242472 0.0709433 0.0741342 0.081967 0.050063 0.0230236 -0.0107005 0.0923232 0.0191088 0.0590824 -0.0346914 0.0321593 0.0580198 0.0755884 0.0594995 0.0453234 0.0244948 0.0446022 0.0653376 0.0889818 0.015323 0.0527546
internal_weight=3990.73 1836.31 771.332 2154.42 611.576 2112.94 541.746 509.465 345.377 1064.98 39.6703 25.5102 164.087 41.4796 321.186 250.86 152.629 233.272 223.183 65.035 45.4892 54.5501 16.4496 98.2312 158.148 13.0253 107.724 39.9081 36.8203 159.757 67.8156 28.3462 79.4646 69.83 56.3637 50.6591 47.8788 83.2699 23.7408 6.60868 17.1322 3.66181 73.4922 65.0824 24.0773 16.9845 11.2253 145.123 15.5264 8.90785 6.61853 25.108 16.6125 66.1406 43.4414 35.1265 24.2358 14.9614 27.5235 18.6886 8.83495 6.39672
internal_count=121107 16834 11979 104273 11240 103721 10953 9550 5477 4855 1134 529 4073 552 1678 4478 2164 1308 1229 496 488 269 480 2314 733 97 3071 861 429 739 2210 497 377 287 1002 856 823 2109 466 96 370 64 343 302 120 89 64 636 298 153 145 138 78 303 206 170 122 205 279 159 120 89
is_linear=0
shrinkage=0.07


Tree=13
num_leaves=63
num_cat=0
split_feature=38 5 33 22 3 5 3 1 3 5 5 38 19 3 3 5 3 3 38 38 3 23 22 37 0 30 32 20 3 26 35 33 17 37 5 0 0 37 29 38 30 33 3 3 38 3 30 33 3 33 26 5 38 0 37 38 19 17 37 1 38 38
split_gain=3457.6 383.997 111.603 110.483 75.0971 46.442 43.9668 27.493 23.7372 19.009 18.8784 18.2158 17.8239 44.1013 26.4867 16.2346 16.2045 31.5263 14.669 14.5637 14.235 13.4601 13.449 11.9171 16.051 11.5018 10.57 10.1821 25.9024 11.5789 10.1185 9.45698 8.98632 8.79673 8.51002 8.33482 8.29165 12.5009 9.6039 13.8912 8.19877 8.14966 8.09901 10.2904 17.5075 12.6085 12.2601 10.2021 9.24897 9.43833 8.28734 11.9197 7.99328 7.78909 7.8614 7.75515 7.33074 8.84802 7.18825 6.67574 8.46217 6.4037
threshold=2949.5000000000005 197.72000000000003 1765.9850000000004 1.0000000180025095e-35 48.500000000000007 83.90000000000002 17.500000000000004 465.50000000000006 8.5000000000000018 336.35000000000008 100.22000000000001 101.50000000000001 1.0000000180025095e-35 33.500000000000007 35.500000000000007 140.27500000000003 33.500000000000007 35.500000000000007 1196.5000000000002 450.50000000000006 1.5000000000000002 1.0000000180025095e-35 1.0000000180025095e-35 98.500000000000014 131.50000000000003 23400.000000000004 1.5000000000000002 1.0000000180025095e-35 27.500000000000004 1.0000000180025095e-35 1.5000000000000002 26.335000000000004 1.0000000180025095e-35 15.500000000000002 74.735000000000014 104.50000000000001 60.500000000000007 51.500000000000007 1.0000000180025095e-35 450.50000000000006 12600.000000000002 1404.6650000000002 3.5000000000000004 33.500000000000007 223.50000000000003 20.500000000000004 16200.000000000002 174.32500000000002 37.500000000000007 696.8850000000001 1.0000000180025095e-35 128.00000000000003 1798.5000000000002 128.50000000000003 104.50000000000001 632.50000000000011 1.0000000180025095e-35 1.0000000180025095e-35 7.5000000000000009 613.50000000000011 303.50000000000006 261.50000000000006
decision_type=2 2 2 2 2 2 2 2 2 2 2 2 2 2 2 2 2 2 2 2 2 2 2 2 2 2 2 2 2 2 2 2 2 2 2 2 2 2 2 2 2 2 2 2 2 2 2 2 2 2 2 2 2 2 2 2 2 2 2 2 2 2
left_child=1 2 4 6 5 7 8 19 -2 12 26 34 27 -14 25 53 18 -18 32 -1 -7 22 23 24 42 -15 -10 29 -29 -3 56 -20 36 35 -9 -6 -13 58 -39 -40 -33 -41 -22 44 45 46 -44 -45 49 -49 -50 -52 -42 -5 -55 -31 57 -4 -38 60 -32 -25
right_child=3 9 30 15 33 20 -8 11 10 -11 -12 16 13 14 -16 -17 17 -19 31 -21 21 -23 -24 61 -26 -27 -28 28 -30 55 59 40 -34 -35 -36 -37 37 38 39 41 52 -43 43 47 -46 -47 -48 48 50 -51 51 -53 -54 54 -56 -57 -58 -59 -60 -61 -62 -63
leaf_value=-0.014321953767103185 -0.071994525379479063 0.099308494154512747 0.077617119354748895 -0.0068689761914720194 0.074280883619530488 -0.07182520868924655 -0.071381166413218899 0.085092493166690042 -0.026739966511397852 0.10298466824869683 0.12389816990305834 -0.025163241023083961 -0.082987043133082583 0.097784169849929978 -0.064193809570266658 0.11144709942934726 0.072475657971210944 -0.013982932075694898 0.19762351182471163 -0.07026672695856058 0.080339476879485464 0.13215491810725971 0.11190386635418265 0.030935925110956487 0.07973965531375625 0.023269258610220118 0.12595243023597683 -0.096415549522034877 0.093242560236459618 -0.0027498313399344438 0.088018476977806598 -0.060880995085823578 -0.071907316987102496 0.10382559917961563 -0.055101128697564991 -0.012977059217500097 -0.024684557629690372 -0.044179535523249838 0.19770286647086432 -0.017405816701284729 -0.05081748055998863 0.17868008824105883 -0.01647605163366022 -0.023279749742419423 -0.02382049290387989 0.094444502215087198 0.11841716256618824 0.046560085128829143 -0.019297045831879047 0.11924635767544686 0.21578891665597738 -0.017700475876725304 0.13011210092441555 0.12594374922855159 -0.016724542798434435 0.099363069174417881 0.0072981258670476541 -0.009608766947263328 0.079168453229947602 0.10329308166143061 -0.058087192124218562 -0.027876717856705108
leaf_weight=48.115995960310102 13.227879501879213 231.46062511205673 72.06228356808424 20.216170353814963 24.63106490671635 6.3448390215635291 1935.7766315396875 17.618455499410633 13.567163646221166 621.78480905666947 9.1745225116610509 24.835883112624288 10.002349629998205 59.856761485338211 6.3302084915339938 12.783701241016386 35.65100359171629 49.165591252967715 0.76006762124597926 43.33691980317235 12.428286001086233 6.7091993689537039 9.8066722247749549 14.13478412479162 33.127102233469486 12.22296856343746 2.6564081311225882 4.900209320709112 12.605351462960241 9.4575036279857141 5.7510172054171544 43.190845163539052 7.5609031710773698 43.631226941943169 2.4121014624834052 6.857224613428115 3.920921569690111 15.561040492728353 2.2017397731542596 9.3570772893726808 2.5051633194088927 1.1682579591870297 17.699978446587924 9.7634226121008378 45.515616407617927 13.682889975607393 4.0585213936865321 23.46345342323184 12.020627148449423 13.962722819298504 2.0539483763277522 2.2394027337431908 2.2903402671217918 5.2066704817116243 2.9732365272939205 5.9291589260101309 10.080878511071203 6.1876724250614634 19.543575493618846 79.930005505681038 2.9330790750682354 25.325249634683132
leaf_count=1255 605 1005 330 395 102 298 102587 140 467 2732 49 488 173 255 44 55 240 1122 12 1893 76 29 78 189 227 54 13 49 53 53 26 1798 312 182 25 28 56 397 20 169 32 6 171 102 758 98 22 172 151 70 21 26 24 42 60 31 48 35 204 346 29 578
internal_value=-0.00449266 0.0657863 0.0309068 -0.0675388 0.0176112 0.00910313 -0.0699056 -0.00821614 0.00404306 0.0956209 0.0436451 0.00433048 0.0826416 0.0554339 0.0730915 0.0459416 -0.00154676 0.0223583 -0.0168034 -0.0408326 0.0316977 0.0343678 0.031626 0.0281953 0.0354647 0.0851483 -0.00173849 0.0917412 0.0401529 0.0953996 0.0802477 -0.0473594 0.000897219 0.0834759 0.0682102 0.0552787 0.00808457 0.0240401 -0.00729325 0.0378066 -0.0512397 0.00435871 0.026116 0.0214511 0.00490436 0.0417943 0.00868501 0.0425455 0.0545045 0.0736774 0.0105197 0.0940014 0.0355948 0.0164515 0.0740866 0.0365988 0.0634816 0.0707197 0.0618146 0.0969602 0.0386709 -0.00680973
internal_weight=3823.73 1808.15 833.597 2015.58 656.652 581.533 1974.4 329.196 38.626 974.55 25.3981 237.743 352.765 88.4123 78.4099 41.1798 217.712 84.8166 132.896 91.4529 252.337 245.992 239.283 229.476 190.016 72.0797 16.2236 264.353 17.5056 246.847 176.945 48.7464 84.1494 75.1195 20.0306 31.4883 76.5885 51.7526 28.2881 12.7271 47.9863 10.5253 156.889 144.461 80.957 35.4414 21.7585 63.5036 53.7402 37.4262 16.314 4.29335 4.7955 28.3961 8.17991 15.3867 88.3308 78.25 23.4645 88.6141 8.6841 39.46
internal_count=121107 16834 12385 104273 11571 11259 103721 8193 1134 4449 529 5045 1717 526 353 552 4880 1362 3518 3148 3066 2768 2739 2661 1894 309 480 1191 102 1089 814 1866 1652 312 165 130 1340 852 592 195 1854 175 1667 1591 1049 291 193 542 440 242 198 47 56 497 102 84 413 365 260 401 55 767
is_linear=0
shrinkage=0.07


Tree=14
num_leaves=63
num_cat=0
split_feature=38 5 33 3 5 27 18 33 3 3 19 17 32 3 3 3 38 3 30 3 22 32 33 3 30 3 23 37 0 21 1 35 3 3 3 3 19 3 5 33 28 5 26 38 1 0 0 19 3 1 38 38 33 30 37 37 20 38 0 3 3 3
split_gain=3140.33 430.624 100.982 69.3407 49.6335 43.4888 28.0848 25.6339 22.5986 42.9151 30.8754 31.9951 20.0155 24.915 23.3436 26.8641 23.279 21.0196 19.9303 18.9344 18.4722 15.1678 13.3615 12.7518 12.7512 12.4175 12.6979 12.3473 11.9615 11.6247 11.5395 10.8405 9.77123 9.45509 9.69136 9.42782 9.30944 24.9825 9.09054 8.82085 16.226 8.79395 9.97814 8.51644 9.07031 9.38603 8.16086 8.14804 15.2404 7.98087 8.26061 7.55499 7.55334 7.41275 7.31826 6.85458 6.57229 6.44935 10.7981 7.02925 8.92419 7.74819
threshold=4583.5000000000009 140.27500000000003 1765.9850000000004 48.500000000000007 257.94500000000005 1.0000000180025095e-35 1.0000000180025095e-35 1118.3000000000002 33.500000000000007 35.500000000000007 1.0000000180025095e-35 1.0000000180025095e-35 1.5000000000000002 3.5000000000000004 8.5000000000000018 13.000000000000002 261.50000000000006 13.000000000000002 9000.0000000000018 20.500000000000004 1.0000000180025095e-35 2.5000000000000004 229.16000000000005 15.500000000000002 23400.000000000004 42.500000000000007 1.0000000180025095e-35 21.500000000000004 66.500000000000014 1.0000000180025095e-35 465.50000000000006 1.5000000000000002 28.500000000000004 1.5000000000000002 4.5000000000000009 5.5000000000000009 1.0000000180025095e-35 33.500000000000007 52.305000000000007 1205.2750000000003 1.0000000180025095e-35 336.35000000000008 1.0000000180025095e-35 73.500000000000014 1095.5000000000002 73.500000000000014 16.500000000000004 1.0000000180025095e-35 33.500000000000007 613.50000000000011 351.50000000000006 303.50000000000006 5725.7350000000015 5400.0000000000009 47.500000000000007 24.500000000000004 1.0000000180025095e-35 159.50000000000003 110.50000000000001 33.500000000000007 18.500000000000004 40.500000000000007
decision_type=2 2 2 2 2 2 2 2 2 2 2 2 2 2 2 2 2 2 2 2 2 2 2 2 2 2 2 2 2 2 2 2 2 2 2 2 2 2 2 2 2 2 2 2 2 2 2 2 2 2 2 2 2 2 2 2 2 2 2 2 2 2
left_child=1 2 3 5 7 6 8 25 10 18 11 12 13 -1 54 -16 17 -15 22 23 -2 -21 -10 -17 30 26 33 28 -18 -11 -19 46 43 -3 -35 -36 -9 -38 -22 40 41 42 47 -32 -45 -46 -4 56 -49 50 -33 -24 -48 -5 -14 -37 -6 58 -57 60 -59 -61
right_child=20 4 31 53 39 -7 -8 36 9 29 -12 -13 14 16 15 19 27 24 -20 21 38 -23 51 -25 -26 -27 -28 -29 -30 -31 32 49 -34 34 35 55 37 -39 -40 -41 -42 -43 -44 44 45 -47 52 48 -50 -51 -52 -53 -54 -55 -56 57 -58 59 -60 61 -62 -63
